{"learner":{"attributes":{"best_iteration":"3","best_score":"0.6697171246885177"},"feature_names":["killer_x","killer_y","victim_x","victim_y","distance","weapon_id","kill_weapon_id","is_first_kill","is_traded","is_early_round","is_post_plant","tactical_advantage","round_phase_encoded","site_encoded"],"feature_types":["float","float","float","float","float","int","int","int","int","int","int","int","int","int"],"gradient_booster":{"model":{"gbtree_model_param":{"num_parallel_tree":"1","num_trees":"14"},"iteration_indptr":[0,1,2,3,4,5,6,7,8,9,10,11,12,13,14],"tree_info":[0,0,0,0,0,0,0,0,0,0,0,0,0,0],"trees":[{"base_weights":[-1.0759481E-2,1.6250774E-1,-3.265629E-1,2.2702551E-1,-6.866767E-2,-6.145785E-1,-1.260419E-1,2.3755132E-1,-8.225827E-1,-1.3497707E-1,8.449595E-1,-8.720629E-1,4.459407E-1,-3.1489468E-1,5.2271616E-2,2.0747517E-1,5.885335E-1,1.318695E-1,-4.6236074E-1,-1.8365514E-1,6.55355E-1,1.5168464E0,-5.3028435E-1,-1.1720431E0,-1.3562793E-1,1.1336879E0,-3.7259403E-1,-3.6886834E-2,-9.7091436E-1,-1.21645726E-1,6.8478405E-1,2.6507393E-1,1.2182009E-2,1.0878693E0,-1.8453898E-2,2.0372918E-1,-1.9691159E-1,-2.67275E-1,1.2993757E-1,3.4686154E-1,3.9498657E-1,3.3458646E-3,5.343727E-1,-9.861235E-1,1.2335209E-1,-1.2658038E0,-3.399106E-1,-3.8189563E-1,7.404681E-1,-4.3001664E-1,1.4251938E0,-1.2698765E0,8.627775E-2,-4.1438246E-1,1.5627515E-1,-1.2781146E0,-2.7773604E-1,2.8486484E-1,-3.366911E-1,8.907127E-1,-4.0683046E-2,7.243286E-2,2.3611979E-1,3.0493226E-2,-1.6710779E-1,3.7348714E-1,-1.6745594E-1,-1.4471455E-1,3.2259178E-1,2.7629092E-1,-8.6305924E-2,-2.9907897E-2,2.1380378E-1,4.764023E-2,2.3464368E-1,-3.566728E-1,-1.16660364E-1,-1.2838662E-1,-3.9788517E-1,3.6336452E-1,-1.8688479E-1,-2.363796E-2,-3.5494745E-1,3.455405E-1,-1.6745594E-1,-2.2692241E-1,6.976788E-2,-9.6288115E-2,4.9024215E-1,-1.16660364E-1,-4.3183187E-1,-1.3782284E-1,3.644861E-1,-7.738121E-2,-2.617302E-1,-5.9591373E-3,1.7675373E-1,-4.8841715E-1,-1.8688479E-1,2.616752E-1,-2.404042E-1,2.4333704E-1,4.3317472E-4,-2.828904E-2,-2.4869956E-1,-1.6009672E-1,3.024721E-1,2.2547023E-1,-2.3555537E-1],"categories":[],"categories_nodes":[],"categories_segments":[],"categories_sizes":[],"default_left":[0,0,0,0,0,0,0,0,0,0,0,0,0,0,0,0,0,0,0,0,0,0,0,0,0,0,0,0,0,0,0,0,0,0,0,0,0,0,0,0,0,0,0,0,0,0,0,0,0,0,0,0,0,0,0,0,0,0,0,0,0,0,0,0,0,0,0,0,0,0,0,0,0,0,0,0,0,0,0,0,0,0,0,0,0,0,0,0,0,0,0,0,0,0,0,0,0,0,0,0,0,0,0,0,0,0,0,0,0],"id":0,"left_children":[1,3,5,7,9,11,13,15,17,19,21,23,25,27,29,31,33,35,-1,37,39,41,43,45,47,49,51,53,55,57,59,61,63,65,67,-1,-1,69,71,-1,73,-1,-1,75,-1,77,79,81,83,85,87,89,91,93,95,97,99,101,103,105,107,-1,-1,-1,-1,-1,-1,-1,-1,-1,-1,-1,-1,-1,-1,-1,-1,-1,-1,-1,-1,-1,-1,-1,-1,-1,-1,-1,-1,-1,-1,-1,-1,-1,-1,-1,-1,-1,-1,-1,-1,-1,-1,-1,-1,-1,-1,-1,-1],"loss_changes":[8.212356E1,1.4470633E1,3.063013E1,8.569038E0,1.2971488E1,5.9912415E1,1.0614754E1,7.8075523E0,5.51847E0,7.765979E0,1.4201404E1,3.866365E1,2.476772E1,2.7865719E1,1.7985056E1,7.7970276E0,1.7825134E1,2.2788465E0,0E0,4.9641514E0,1.0754585E0,3.9608135E0,2.765645E0,9.302078E0,1.1501047E1,1.1437901E1,8.549489E0,7.9756618E0,9.333179E0,1.1328192E1,5.3019505E0,6.414913E0,8.152605E0,9.033268E0,1.4471752E1,0E0,0E0,3.872385E0,5.4566617E0,0E0,7.215632E-1,0E0,0E0,2.2099972E-2,0E0,5.0946198E0,6.9004335E0,9.924095E0,6.919041E0,1.1490107E0,7.9121666E0,4.8587608E-1,9.48805E0,2.4261603E0,5.539448E0,6.1498985E0,9.88096E0,6.7101326E0,1.0004563E1,5.141243E0,5.750751E0,0E0,0E0,0E0,0E0,0E0,0E0,0E0,0E0,0E0,0E0,0E0,0E0,0E0,0E0,0E0,0E0,0E0,0E0,0E0,0E0,0E0,0E0,0E0,0E0,0E0,0E0,0E0,0E0,0E0,0E0,0E0,0E0,0E0,0E0,0E0,0E0,0E0,0E0,0E0,0E0,0E0,0E0,0E0,0E0,0E0,0E0,0E0,0E0],"parents":[2147483647,0,0,1,1,2,2,3,3,4,4,5,5,6,6,7,7,8,8,9,9,10,10,11,11,12,12,13,13,14,14,15,15,16,16,17,17,19,19,20,20,21,21,22,22,23,23,24,24,25,25,26,26,27,27,28,28,29,29,30,30,31,31,32,32,33,33,34,34,37,37,38,38,40,40,43,43,45,45,46,46,47,47,48,48,49,49,50,50,51,51,52,52,53,53,54,54,55,55,56,56,57,57,58,58,59,59,60,60],"right_children":[2,4,6,8,10,12,14,16,18,20,22,24,26,28,30,32,34,36,-1,38,40,42,44,46,48,50,52,54,56,58,60,62,64,66,68,-1,-1,70,72,-1,74,-1,-1,76,-1,78,80,82,84,86,88,90,92,94,96,98,100,102,104,106,108,-1,-1,-1,-1,-1,-1,-1,-1,-1,-1,-1,-1,-1,-1,-1,-1,-1,-1,-1,-1,-1,-1,-1,-1,-1,-1,-1,-1,-1,-1,-1,-1,-1,-1,-1,-1,-1,-1,-1,-1,-1,-1,-1,-1,-1,-1,-1,-1],"split_conditions":[1.1E1,2E0,1.1E1,1.9E1,1.5E1,2E0,4.6456E2,8E0,4.4208E2,6.8008E2,4.7312E2,1.6E1,5.12E2,1.4E1,1.6E1,6E0,4.7152E2,5E0,-4.6236074E-1,2.0346661E2,7.0064E2,8.154948E1,6.2176E2,9.292E2,5.6512E2,2E0,4.4312E2,2.188E2,1.9E1,4.804E2,2E0,9.9672E2,6.408E2,9.8872E2,6.1024E2,2.0372918E-1,-1.9691159E-1,5.552E1,4.948E2,3.4686154E-1,6E0,3.3458646E-3,5.343727E-1,6.6016E2,1.2335209E-1,5.351432E1,3.512E2,5.4096E2,6.6272E2,3.8888E2,3.3384E2,2E0,1.6E1,1.3E1,1.3E1,1E0,5.28E2,1.3219699E2,1.3E1,1.3E1,6.3056E2,7.243286E-2,2.3611979E-1,3.0493226E-2,-1.6710779E-1,3.7348714E-1,-1.6745594E-1,-1.4471455E-1,3.2259178E-1,2.7629092E-1,-8.6305924E-2,-2.9907897E-2,2.1380378E-1,4.764023E-2,2.3464368E-1,-3.566728E-1,-1.16660364E-1,-1.2838662E-1,-3.9788517E-1,3.6336452E-1,-1.8688479E-1,-2.363796E-2,-3.5494745E-1,3.455405E-1,-1.6745594E-1,-2.2692241E-1,6.976788E-2,-9.6288115E-2,4.9024215E-1,-1.16660364E-1,-4.3183187E-1,-1.3782284E-1,3.644861E-1,-7.738121E-2,-2.617302E-1,-5.9591373E-3,1.7675373E-1,-4.8841715E-1,-1.8688479E-1,2.616752E-1,-2.404042E-1,2.4333704E-1,4.3317472E-4,-2.828904E-2,-2.4869956E-1,-1.6009672E-1,3.024721E-1,2.2547023E-1,-2.3555537E-1],"split_indices":[5,13,6,6,6,13,0,6,0,0,0,5,0,5,5,5,0,5,0,4,0,4,2,3,2,6,2,3,5,2,13,1,2,1,2,0,0,1,0,0,5,0,0,0,0,4,0,0,0,0,2,12,5,5,6,10,1,4,5,6,2,0,0,0,0,0,0,0,0,0,0,0,0,0,0,0,0,0,0,0,0,0,0,0,0,0,0,0,0,0,0,0,0,0,0,0,0,0,0,0,0,0,0,0,0,0,0,0,0],"split_type":[0,0,0,0,0,0,0,0,0,0,0,0,0,0,0,0,0,0,0,0,0,0,0,0,0,0,0,0,0,0,0,0,0,0,0,0,0,0,0,0,0,0,0,0,0,0,0,0,0,0,0,0,0,0,0,0,0,0,0,0,0,0,0,0,0,0,0,0,0,0,0,0,0,0,0,0,0,0,0,0,0,0,0,0,0,0,0,0,0,0,0,0,0,0,0,0,0,0,0,0,0,0,0,0,0,0,0,0,0],"sum_hessian":[1.4988705E3,9.681663E2,5.307041E2,7.569346E2,2.1123174E2,2.1698125E2,3.1372287E2,7.501852E2,6.749417E0,1.9773291E2,1.3498834E1,1.747349E2,4.224635E1,1.5198686E2,1.6173602E2,6.924401E2,5.774501E1,3.2497191E0,3.4996974E0,1.8698384E2,1.0749071E1,8.999222E0,4.499611E0,1.237393E2,5.0995594E1,2.2748034E1,1.9498314E1,1.0749071E2,4.4496155E1,1.2748898E2,3.424704E1,5.344538E2,1.5798634E2,3.12473E1,2.649771E1,1.9998271E0,1.249892E0,1.4773723E2,3.924661E1,2.499784E0,8.249287E0,1.4998703E0,7.499352E0,2.9997406E0,1.4998703E0,1.10740425E2,1.2998877E1,4.024652E1,1.0749071E1,3.4996974E0,1.9248337E1,5.999481E0,1.3498834E1,3.5996887E1,7.149382E1,3.0247385E1,1.4248769E1,4.3996197E1,8.349278E1,2.649771E1,7.74933E0,5.127057E2,2.174812E1,1.3723814E2,2.0748207E1,2.8747515E1,2.499784E0,1.8998358E1,7.499352E0,1.7498487E0,1.4598738E2,2.8747515E1,1.0499092E1,5.999481E0,2.2498055E0,1.4998703E0,1.4998703E0,7.9993086E0,1.0274112E2,1.4998703E0,1.1499006E1,2.9997408E1,1.0249114E1,8.249287E0,2.499784E0,2.2498055E0,1.249892E0,1.9998271E0,1.7248508E1,1.4998703E0,4.499611E0,9.499179E0,3.9996543E0,2.799758E1,7.9993086E0,5.149555E1,1.9998272E1,1.8748379E1,1.1499006E1,4.249633E0,9.999136E0,1.4748725E1,2.9247473E1,5.6745094E1,2.6747688E1,1.7498487E0,2.4747862E1,3.749676E0,3.9996543E0],"tree_param":{"num_deleted":"0","num_feature":"14","num_nodes":"109","size_leaf_vector":"1"}},{"base_weights":[-1.03566935E-2,1.1557209E-1,-2.4438791E-1,1.6061199E-1,-4.7897402E-2,-3.5228175E-1,9.7287595E-2,1.6971415E-1,-7.775479E-1,-1.1225461E-1,5.4319793E-1,-1.7027926E-1,-6.3453853E-1,4.0598255E-1,-4.0744487E-2,1.8389636E-1,-2.9271755E-1,9.44419E-2,-1.0378617E0,-1.7598005E-1,5.2585095E-1,9.496971E-1,-2.0701136E-1,-5.986451E-1,-2.3087112E-2,-8.2408214E-1,1.1102195E-1,1.7132017E-1,9.6161276E-1,-2.2967003E-1,4.5487934E-1,1.5996885E-1,4.7376812E-1,4.9612734E-1,-6.8648046E-1,-4.9459636E-2,-3.6481214E-1,-1.1659936E-1,-5.3647584E-1,2.4997577E-1,1.136748E0,1.3721676E-2,1.2887255E0,-8.2084846E-1,2.4879134E-1,-1.9622758E-1,-9.151768E-1,-6.274696E-2,5.3406686E-1,-9.919425E-1,-5.050871E-1,6.5585136E-1,-1.0065987E0,-2.2648233E-1,5.897251E-1,4.0280208E-1,3.7598684E-1,2.4677552E-1,-2.6290032E-1,-1.5312983E-1,7.980897E-1,2.787036E-2,9.997824E-2,2.602616E-1,3.3759505E-2,-5.1029284E-2,2.5861722E-1,-2.700775E-1,-1.3829849E-2,-1.7419582E-2,-1.5678477E-1,-3.1218615E-1,-1.1382293E-1,1.2071217E-1,-2.0619272E-1,1.1053712E-1,4.037098E-1,2.2667122E-1,-1.9783765E-1,4.51521E-1,7.655738E-2,-4.758938E-2,-3.2607397E-1,2.1344844E-1,-1.6724722E-2,3.183214E-2,-3.563759E-1,-1.6818678E-1,-3.7064996E-1,3.980923E-2,-3.9523177E-2,-8.376922E-2,3.00355E-1,2.1226719E-2,-3.0676597E-1,-3.1499065E-2,-2.4957608E-1,2.8318763E-1,-2.173395E-1,-3.88233E-1,1.6000894E-1,-1.6622853E-1,1.3114981E-1,-1.8759154E-1,2.4213733E-1,1.790865E-1,-7.599232E-2,-1.8087485E-1,-4.0043928E-2,2.174321E-1,-2.4043576E-1,-1.031923E-1,3.093302E-1],"categories":[],"categories_nodes":[],"categories_segments":[],"categories_sizes":[],"default_left":[0,0,0,0,0,0,0,0,0,0,0,0,0,0,0,0,0,0,0,0,0,0,0,0,0,0,0,0,0,0,0,0,0,0,0,0,0,0,0,0,0,0,0,0,0,0,0,0,0,0,0,0,0,0,0,0,0,0,0,0,0,0,0,0,0,0,0,0,0,0,0,0,0,0,0,0,0,0,0,0,0,0,0,0,0,0,0,0,0,0,0,0,0,0,0,0,0,0,0,0,0,0,0,0,0,0,0,0,0,0,0,0,0],"id":1,"left_children":[1,3,5,7,9,11,13,15,17,19,21,23,25,27,29,31,33,-1,35,37,39,41,43,45,47,49,51,53,55,57,59,61,63,65,67,-1,-1,69,71,73,75,77,79,81,83,85,87,89,91,93,95,97,99,101,103,-1,105,-1,107,109,111,-1,-1,-1,-1,-1,-1,-1,-1,-1,-1,-1,-1,-1,-1,-1,-1,-1,-1,-1,-1,-1,-1,-1,-1,-1,-1,-1,-1,-1,-1,-1,-1,-1,-1,-1,-1,-1,-1,-1,-1,-1,-1,-1,-1,-1,-1,-1,-1,-1,-1,-1,-1],"loss_changes":[4.417321E1,7.182971E0,1.9364187E1,6.6582737E0,8.098411E0,2.0374962E1,5.411955E0,5.023361E0,2.465917E0,7.8741446E0,6.5752845E0,1.5357006E1,2.2128899E1,4.948465E0,8.382613E0,5.0277443E0,7.464132E0,0E0,7.807126E-1,3.677997E0,2.6864605E0,4.3438616E0,2.4905605E0,7.756527E0,4.06562E0,6.16304E0,2.0444227E1,4.9251747E0,2.0453653E0,2.477661E0,5.283729E0,7.886326E0,7.8106813E0,2.1497357E0,2.1101494E0,0E0,0E0,3.5655262E0,1.5400105E0,2.1941586E0,3.3922863E-1,2.8282444E0,1.8696365E0,4.8209596E-1,8.0860806E-1,8.731975E0,3.2369747E0,2.3267322E0,4.9262323E0,2.6912003E0,5.7900476E0,9.61104E0,5.5794153E0,3.6078982E0,4.2842E0,0E0,9.7075015E-1,0E0,2.7116828E0,6.1379533E0,4.604809E0,0E0,0E0,0E0,0E0,0E0,0E0,0E0,0E0,0E0,0E0,0E0,0E0,0E0,0E0,0E0,0E0,0E0,0E0,0E0,0E0,0E0,0E0,0E0,0E0,0E0,0E0,0E0,0E0,0E0,0E0,0E0,0E0,0E0,0E0,0E0,0E0,0E0,0E0,0E0,0E0,0E0,0E0,0E0,0E0,0E0,0E0,0E0,0E0,0E0,0E0,0E0,0E0],"parents":[2147483647,0,0,1,1,2,2,3,3,4,4,5,5,6,6,7,7,8,8,9,9,10,10,11,11,12,12,13,13,14,14,15,15,16,16,18,18,19,19,20,20,21,21,22,22,23,23,24,24,25,25,26,26,27,27,28,28,29,29,30,30,31,31,32,32,33,33,34,34,37,37,38,38,39,39,40,40,41,41,42,42,43,43,44,44,45,45,46,46,47,47,48,48,49,49,50,50,51,51,52,52,53,53,54,54,56,56,58,58,59,59,60,60],"right_children":[2,4,6,8,10,12,14,16,18,20,22,24,26,28,30,32,34,-1,36,38,40,42,44,46,48,50,52,54,56,58,60,62,64,66,68,-1,-1,70,72,74,76,78,80,82,84,86,88,90,92,94,96,98,100,102,104,-1,106,-1,108,110,112,-1,-1,-1,-1,-1,-1,-1,-1,-1,-1,-1,-1,-1,-1,-1,-1,-1,-1,-1,-1,-1,-1,-1,-1,-1,-1,-1,-1,-1,-1,-1,-1,-1,-1,-1,-1,-1,-1,-1,-1,-1,-1,-1,-1,-1,-1,-1,-1,-1,-1,-1,-1],"split_conditions":[1.1E1,2E0,1.6E1,1.9E1,9E0,1.3E1,2.5744E2,3.5203595E2,1.1168E2,6.6208E2,4.7312E2,1.1E1,2E0,1E0,6.1784E2,8E0,1E0,9.44419E-2,5.2598038E1,9.2872E2,6E0,3.8888E2,5.1256E2,4.9608E2,9.7104E2,1.4E1,1.5E1,1.9E1,1.2E1,1.5686937E1,8E0,5.4448E2,1.4E1,2.2584E2,5.6512E2,-4.9459636E-2,-3.6481214E-1,1E0,9.4712E2,6E0,9.707693E1,3.544E2,5E0,4.352E2,2.3032E2,6E0,1E0,1.7128E2,8.576855E1,6.896E1,3.1664E2,6.2176E2,6.8592E2,2E0,2.672E2,4.0280208E-1,2.388E2,2.4677552E-1,9.796264E1,1.5733658E2,4.1152E2,2.787036E-2,9.997824E-2,2.602616E-1,3.3759505E-2,-5.1029284E-2,2.5861722E-1,-2.700775E-1,-1.3829849E-2,-1.7419582E-2,-1.5678477E-1,-3.1218615E-1,-1.1382293E-1,1.2071217E-1,-2.0619272E-1,1.1053712E-1,4.037098E-1,2.2667122E-1,-1.9783765E-1,4.51521E-1,7.655738E-2,-4.758938E-2,-3.2607397E-1,2.1344844E-1,-1.6724722E-2,3.183214E-2,-3.563759E-1,-1.6818678E-1,-3.7064996E-1,3.980923E-2,-3.9523177E-2,-8.376922E-2,3.00355E-1,2.1226719E-2,-3.0676597E-1,-3.1499065E-2,-2.4957608E-1,2.8318763E-1,-2.173395E-1,-3.88233E-1,1.6000894E-1,-1.6622853E-1,1.3114981E-1,-1.8759154E-1,2.4213733E-1,1.790865E-1,-7.599232E-2,-1.8087485E-1,-4.0043928E-2,2.174321E-1,-2.4043576E-1,-1.031923E-1,3.093302E-1],"split_indices":[5,13,5,6,6,5,3,4,3,0,0,6,13,13,0,6,13,0,4,1,5,2,2,0,3,5,5,5,6,4,6,0,6,3,2,0,0,9,1,6,4,0,5,2,1,6,10,1,4,1,1,0,2,12,0,0,1,0,4,4,1,0,0,0,0,0,0,0,0,0,0,0,0,0,0,0,0,0,0,0,0,0,0,0,0,0,0,0,0,0,0,0,0,0,0,0,0,0,0,0,0,0,0,0,0,0,0,0,0,0,0,0,0],"split_type":[0,0,0,0,0,0,0,0,0,0,0,0,0,0,0,0,0,0,0,0,0,0,0,0,0,0,0,0,0,0,0,0,0,0,0,0,0,0,0,0,0,0,0,0,0,0,0,0,0,0,0,0,0,0,0,0,0,0,0,0,0,0,0,0,0,0,0,0,0,0,0,0,0,0,0,0,0,0,0,0,0,0,0,0,0,0,0,0,0,0,0,0,0,0,0,0,0,0,0,0,0,0,0,0,0,0,0,0,0,0,0,0,0],"sum_hessian":[1.4968987E3,9.735512E2,5.2334753E2,7.632691E2,2.1028207E2,3.9772375E2,1.2562375E2,7.5674615E2,6.522965E0,1.9036557E2,1.991651E1,2.4277979E2,1.5494398E2,3.8216084E1,8.740767E1,7.348127E2,2.1933485E1,1.2150248E0,5.30794E0,1.7373906E2,1.6626514E1,1.274484E1,7.171671E0,6.1303684E1,1.814761E2,1.234532E2,3.1490784E1,2.7788391E1,1.04276905E1,6.3672947E1,2.373472E1,6.80216E2,5.459668E1,7.216449E0,1.4717036E1,1.2260619E0,4.081878E0,1.5030443E2,2.343463E1,1.2424793E1,4.2017217E0,3.6655679E0,9.079271E0,2.7147653E0,4.4569054E0,2.7703373E1,3.360031E1,1.7024495E2,1.1231153E1,7.950617E1,4.394703E1,2.1448175E1,1.0042608E1,1.4480048E1,1.3308344E1,5.5340347E0,4.8936553E0,1.2220491E0,6.2450897E1,8.763573E0,1.4971148E1,4.9152246E2,1.8869353E2,2.5451431E1,2.914525E1,2.74818E0,4.468269E0,1.0729424E1,3.9876118E0,1.3236484E2,1.7939594E1,4.2304688E0,1.920416E1,1.1178005E1,1.2467886E0,1.4892559E0,2.7124655E0,1.6856176E0,1.9799504E0,7.1304536E0,1.9488177E0,1.2356151E0,1.4791502E0,1.238659E0,3.2182465E0,2.1915157E1,5.7882166E0,1.7253359E1,1.6346952E1,4.4178734E1,1.2606621E2,4.24405E0,6.9871025E0,2.1893106E0,7.7316864E1,2.0353144E1,2.3593887E1,1.8005991E1,3.4421825E0,8.597164E0,1.4454446E0,9.804897E0,4.675151E0,1.7350372E0,1.1573307E1,3.6599162E0,1.2337393E0,1.620866E1,4.6242237E1,3.6725698E0,5.091003E0,2.456214E0,1.2514934E1],"tree_param":{"num_deleted":"0","num_feature":"14","num_nodes":"113","size_leaf_vector":"1"}},{"base_weights":[1.29639665E-2,9.402146E-2,-1.4252958E-1,1.4178382E-1,-5.9721418E-2,-3.8695726E-1,-4.5716833E-2,5.75079E-1,1.2281109E-1,3.3727774E-1,-9.372159E-2,-5.554696E-1,2.590317E-1,-2.9827043E-1,6.1012372E-2,1.6615592E-1,8.162356E-1,3.639154E-2,2.2830154E-1,5.3893185E-1,-9.7754486E-2,7.594873E-2,-1.7313136E-1,-6.8206775E-1,1.0814918E-1,7.0698905E-1,-2.603934E-1,-3.8951922E-2,-6.0419005E-1,-3.7951034E-2,3.1858602E-1,-1.2580608E-1,3.169394E-1,1.227396E0,5.498645E-1,9.451748E-2,-1.1263151E-1,2.9364878E-1,7.4579525E-3,7.101587E-1,-1.3483553E-1,5.533083E-1,-8.511401E-1,-6.691944E-2,6.463611E-1,-2.1906435E-1,3.783915E-1,-7.520221E-1,4.750247E-1,4.477045E-1,-6.2818277E-1,-4.2277226E-1,1.0626281E0,-7.116807E-1,5.570398E-1,-3.5920802E-1,2.5024334E-1,-2.4756724E-1,-8.8108003E-1,1.0712516E-1,-2.7071205E-1,-1.2250594E-1,5.2434987E-1,-2.7522025E-1,7.098001E-2,-5.4109367E-3,4.7570664E-1,2.5958834E-2,2.3149149E-1,-2.6323318E-1,3.714368E-2,1.5339959E-2,-1.4186794E-1,-1.9819902E-3,1.0639677E-1,4.8100892E-2,-8.790988E-2,1.3129194E-1,3.8247418E-1,2.8977436E-1,-7.016124E-2,-6.3966796E-2,-3.3305E-1,-8.1794985E-2,1.0937687E-1,2.6789734E-1,-2.505033E-1,-9.738841E-2,-8.048576E-3,-1.07665494E-1,2.3172002E-1,-3.889817E-2,-2.5884417E-1,2.8746697E-1,-1.1673885E-1,2.7248132E-1,-2.3700914E-1,-2.8742078E-1,1.3404803E-1,-2.1497516E-1,6.604667E-2,-3.339639E-2,3.549808E-1,1.7561013E-1,-2.8517467E-1,-1.0322148E-1,4.2285463E-1,2.0944925E-1,-1.2977752E-1,1.8637289E-1,-7.340008E-2,-2.7577418E-1,1.186874E-2,-3.220721E-1,-1.4313824E-1,-6.97871E-2,6.0454737E-2,-3.0261356E-1,-4.2028736E-2,-8.388446E-2,4.0265796E-1,2.5723213E-1,-4.216083E-2],"categories":[],"categories_nodes":[],"categories_segments":[],"categories_sizes":[],"default_left":[0,0,0,0,0,0,0,0,0,0,0,0,0,0,0,0,0,0,0,0,0,0,0,0,0,0,0,0,0,0,0,0,0,0,0,0,0,0,0,0,0,0,0,0,0,0,0,0,0,0,0,0,0,0,0,0,0,0,0,0,0,0,0,0,0,0,0,0,0,0,0,0,0,0,0,0,0,0,0,0,0,0,0,0,0,0,0,0,0,0,0,0,0,0,0,0,0,0,0,0,0,0,0,0,0,0,0,0,0,0,0,0,0,0,0,0,0,0,0,0,0,0,0],"id":2,"left_children":[1,3,5,7,9,11,13,15,17,19,21,23,25,27,29,31,33,35,37,39,41,43,45,47,49,51,53,55,57,59,61,63,-1,65,67,69,71,73,75,77,-1,79,81,83,85,87,89,91,93,95,97,99,101,103,105,107,109,111,113,115,117,119,121,-1,-1,-1,-1,-1,-1,-1,-1,-1,-1,-1,-1,-1,-1,-1,-1,-1,-1,-1,-1,-1,-1,-1,-1,-1,-1,-1,-1,-1,-1,-1,-1,-1,-1,-1,-1,-1,-1,-1,-1,-1,-1,-1,-1,-1,-1,-1,-1,-1,-1,-1,-1,-1,-1,-1,-1,-1,-1,-1,-1],"loss_changes":[1.8651266E1,7.1506023E0,1.1982344E1,6.0323744E0,3.152949E0,1.5790613E1,9.839747E0,2.9087725E0,6.487277E0,1.672066E0,2.8935676E0,9.677864E0,7.262144E0,8.576728E0,6.562097E0,3.436153E0,1.4239397E0,3.4135466E0,4.6254864E0,2.4797554E0,3.753894E0,5.654274E0,3.7798057E0,8.1390915E0,5.0760994E0,7.1199837E0,5.8623776E0,5.6230836E0,4.686287E0,6.327749E0,6.5473175E0,3.2187464E0,0E0,3.028451E0,1.3143806E0,8.171156E0,6.5546627E0,4.534504E0,3.4576824E0,1.1764188E0,0E0,1.5888602E0,3.4106994E-1,5.067888E0,5.818449E0,2.737885E0,3.6428776E0,6.165947E0,2.9173899E0,8.532421E0,2.7220702E0,1.0437822E0,1.9604349E0,3.6506433E0,4.9645004E0,2.5335987E0,6.0245047E0,4.4912095E0,1.6314373E0,3.7548766E0,6.7898865E0,5.790538E0,1.0949785E1,0E0,0E0,0E0,0E0,0E0,0E0,0E0,0E0,0E0,0E0,0E0,0E0,0E0,0E0,0E0,0E0,0E0,0E0,0E0,0E0,0E0,0E0,0E0,0E0,0E0,0E0,0E0,0E0,0E0,0E0,0E0,0E0,0E0,0E0,0E0,0E0,0E0,0E0,0E0,0E0,0E0,0E0,0E0,0E0,0E0,0E0,0E0,0E0,0E0,0E0,0E0,0E0,0E0,0E0,0E0,0E0,0E0,0E0,0E0,0E0],"parents":[2147483647,0,0,1,1,2,2,3,3,4,4,5,5,6,6,7,7,8,8,9,9,10,10,11,11,12,12,13,13,14,14,15,15,16,16,17,17,18,18,19,19,20,20,21,21,22,22,23,23,24,24,25,25,26,26,27,27,28,28,29,29,30,30,31,31,33,33,34,34,35,35,36,36,37,37,38,38,39,39,41,41,42,42,43,43,44,44,45,45,46,46,47,47,48,48,49,49,50,50,51,51,52,52,53,53,54,54,55,55,56,56,57,57,58,58,59,59,60,60,61,61,62,62],"right_children":[2,4,6,8,10,12,14,16,18,20,22,24,26,28,30,32,34,36,38,40,42,44,46,48,50,52,54,56,58,60,62,64,-1,66,68,70,72,74,76,78,-1,80,82,84,86,88,90,92,94,96,98,100,102,104,106,108,110,112,114,116,118,120,122,-1,-1,-1,-1,-1,-1,-1,-1,-1,-1,-1,-1,-1,-1,-1,-1,-1,-1,-1,-1,-1,-1,-1,-1,-1,-1,-1,-1,-1,-1,-1,-1,-1,-1,-1,-1,-1,-1,-1,-1,-1,-1,-1,-1,-1,-1,-1,-1,-1,-1,-1,-1,-1,-1,-1,-1,-1,-1,-1,-1],"split_conditions":[1.1E1,8.9664E2,5E0,2E0,3.3736E2,2E0,3.8752E2,4.5648E2,1E0,5E0,4.0952E2,9.1376E2,5.14E2,1.3E1,1.5E1,5E0,1.6910413E2,5E0,6E0,9.6224E2,2E0,6E0,9.996E2,2.3E1,9.856E2,2E0,5.5128E2,4.1216E2,4.3904E2,5.48E2,4.948E2,2.676E2,3.169394E-1,1.5608E2,5.4896E2,6.84E1,6.7528E2,7.386825E1,5.0728E2,8.9456E2,-1.3483553E-1,9.3952E2,4.6488E2,3.8736E2,1.00152E3,5.1256E2,4.4064E2,3.644E2,1.5733658E2,5.7408E2,1.00688E3,3.8888E2,4.6951004E1,6.9034485E1,4.6528E2,8.52E1,3.564E2,1.5608E2,1E0,1.6016E2,8E0,9.9176E2,6.2552E2,-2.7522025E-1,7.098001E-2,-5.4109367E-3,4.7570664E-1,2.5958834E-2,2.3149149E-1,-2.6323318E-1,3.714368E-2,1.5339959E-2,-1.4186794E-1,-1.9819902E-3,1.0639677E-1,4.8100892E-2,-8.790988E-2,1.3129194E-1,3.8247418E-1,2.8977436E-1,-7.016124E-2,-6.3966796E-2,-3.3305E-1,-8.1794985E-2,1.0937687E-1,2.6789734E-1,-2.505033E-1,-9.738841E-2,-8.048576E-3,-1.07665494E-1,2.3172002E-1,-3.889817E-2,-2.5884417E-1,2.8746697E-1,-1.1673885E-1,2.7248132E-1,-2.3700914E-1,-2.8742078E-1,1.3404803E-1,-2.1497516E-1,6.604667E-2,-3.339639E-2,3.549808E-1,1.7561013E-1,-2.8517467E-1,-1.0322148E-1,4.2285463E-1,2.0944925E-1,-1.2977752E-1,1.8637289E-1,-7.340008E-2,-2.7577418E-1,1.186874E-2,-3.220721E-1,-1.4313824E-1,-6.97871E-2,6.0454737E-2,-3.0261356E-1,-4.2028736E-2,-8.388446E-2,4.0265796E-1,2.5723213E-1,-4.216083E-2],"split_indices":[5,3,6,6,0,13,0,2,10,5,2,3,0,5,5,5,4,5,5,1,12,5,1,5,1,6,2,2,2,0,0,1,0,3,2,3,1,4,2,1,0,3,2,2,1,2,0,0,4,0,1,0,4,4,1,3,0,3,10,3,6,1,2,0,0,0,0,0,0,0,0,0,0,0,0,0,0,0,0,0,0,0,0,0,0,0,0,0,0,0,0,0,0,0,0,0,0,0,0,0,0,0,0,0,0,0,0,0,0,0,0,0,0,0,0,0,0,0,0,0,0,0,0],"split_type":[0,0,0,0,0,0,0,0,0,0,0,0,0,0,0,0,0,0,0,0,0,0,0,0,0,0,0,0,0,0,0,0,0,0,0,0,0,0,0,0,0,0,0,0,0,0,0,0,0,0,0,0,0,0,0,0,0,0,0,0,0,0,0,0,0,0,0,0,0,0,0,0,0,0,0,0,0,0,0,0,0,0,0,0,0,0,0,0,0,0,0,0,0,0,0,0,0,0,0,0,0,0,0,0,0,0,0,0,0,0,0,0,0,0,0,0,0,0,0,0,0,0,0],"sum_hessian":[1.4777361E3,9.7162915E2,5.061069E2,7.413853E2,2.3024385E2,1.4273647E2,3.6337045E2,2.9871681E1,7.115136E2,1.7459547E1,2.127843E2,1.1331683E2,2.9419632E1,1.0741036E2,2.5596008E2,1.1707894E1,1.8163786E1,3.918492E2,3.1966443E2,1.1766494E1,5.6930523E0,6.785213E1,1.4493217E2,9.513934E1,1.8177486E1,1.5602652E1,1.3816979E1,5.8743046E1,4.8667316E1,1.8552965E2,7.0430435E1,9.463267E0,2.2446277E0,5.7226605E0,1.2441126E1,2.8215958E2,1.0968964E2,2.464196E2,7.324481E1,1.0268995E1,1.4974988E0,3.196373E0,2.4966795E0,5.496741E1,1.2884714E1,1.3434612E2,1.058607E1,9.004554E1,5.093804E0,1.2708852E1,5.468635E0,3.690439E0,1.1912213E1,8.985597E0,4.831383E0,2.775972E1,3.0983328E1,2.209892E1,2.6568396E1,1.14625305E2,7.090434E1,2.2532524E1,4.7897907E1,2.4909437E0,6.972323E0,1.4906816E0,4.231979E0,4.4772725E0,7.9638534E0,7.4083505E0,2.7475122E2,7.6000175E1,3.3689457E1,4.1763943E1,2.0465567E2,4.885544E1,2.4389374E1,8.123819E0,2.145176E0,1.9481676E0,1.2482054E0,1.24752E0,1.2491596E0,3.7470673E1,1.7496742E1,1.1386234E1,1.4984798E0,8.6278656E1,4.806746E1,3.7180066E0,6.8680634E0,1.3935366E1,7.6110176E1,3.1972053E0,1.8965988E0,9.456303E0,3.2525487E0,4.2677712E0,1.2008637E0,2.4542897E0,1.2361493E0,1.1172822E0,1.079493E1,1.1720483E0,7.813548E0,2.6386147E0,2.1927686E0,1.249015E0,2.6510704E1,1.7562607E1,1.3420721E1,5.958574E0,1.6140347E1,1.6871183E1,9.697214E0,2.4603432E1,9.002187E1,9.6511755E0,6.1253166E1,2.1080456E1,1.4520686E0,3.1718273E1,1.6179634E1],"tree_param":{"num_deleted":"0","num_feature":"14","num_nodes":"123","size_leaf_vector":"1"}},{"base_weights":[-1.48397945E-2,4.7227733E-2,-1.3641748E-1,5.411444E-2,-5.951529E-1,-3.710664E-1,-4.7369238E-2,3.2365672E-2,3.123955E-1,2.1129552E-1,-8.487582E-1,-5.724529E-1,8.569164E-2,-8.119503E-2,2.541306E-1,-2.5560338E-2,1.9722067E-1,6.5369934E-1,-4.12861E-1,1.23239204E-1,-1.0660352E0,-7.2537154E-1,3.964659E-2,-7.096384E-1,4.0238222E-1,9.491329E-3,-2.2862843E-1,4.906778E-1,-3.0052954E-1,9.598993E-2,-7.734705E-2,1.1471931E0,1.7553738E-1,3.481607E-2,9.1822547E-1,-7.992272E-1,7.863539E-1,-5.6884177E-3,-3.713267E-1,-7.9605055E-1,-2.0495152E-1,6.600665E-1,-4.852274E-1,2.4467063E-1,-1.1281215E0,8.352525E-1,1.0087453E-1,1.5312481E-1,-1.239618E-1,2.5226277E-1,-3.4236118E-1,1.0162374E-1,1.0169606E0,5.255275E-1,-6.475605E-1,1.4868763E-1,7.2273794E-3,-5.244214E-2,7.833136E-3,4.0125063E-1,1.2552351E-1,8.990728E-2,1.7710077E-2,1.7447242E-1,-1.8092766E-1,3.371889E-1,1.6210838E-1,-3.3850916E-2,-3.480259E-1,-8.5145466E-2,3.4285855E-1,-5.988777E-2,-2.598539E-1,9.666679E-2,-2.972008E-1,-7.794627E-2,3.2910502E-1,-2.5305104E-1,3.3672374E-1,-1.4097247E-1,3.630824E-1,-4.31923E-1,-1.0529542E-1,-4.1317396E-2,3.1580424E-1,-1.6327453E-1,1.3984023E-1,-3.2510564E-2,9.194009E-2,-5.9644554E-2,1.7606376E-1,-6.0293473E-2,1.4342941E-1,-3.1931642E-1,-7.536012E-2,1.4083013E-1,-2.4704126E-1,3.8743174E-1,9.377522E-2,2.8128648E-1,-6.1731033E-2,-3.0834138E-1,3.2480743E-2],"categories":[],"categories_nodes":[],"categories_segments":[],"categories_sizes":[],"default_left":[0,0,0,0,0,0,0,0,0,0,0,0,0,0,0,0,0,0,0,0,0,0,0,0,0,0,0,0,0,0,0,0,0,0,0,0,0,0,0,0,0,0,0,0,0,0,0,0,0,0,0,0,0,0,0,0,0,0,0,0,0,0,0,0,0,0,0,0,0,0,0,0,0,0,0,0,0,0,0,0,0,0,0,0,0,0,0,0,0,0,0,0,0,0,0,0,0,0,0,0,0,0,0],"id":3,"left_children":[1,3,5,7,9,11,13,15,17,-1,19,21,23,25,27,29,31,33,35,-1,37,39,41,43,45,47,49,51,53,55,57,59,61,63,65,67,69,-1,-1,71,73,75,77,79,81,83,85,87,89,91,93,95,97,99,101,-1,-1,-1,-1,-1,-1,-1,-1,-1,-1,-1,-1,-1,-1,-1,-1,-1,-1,-1,-1,-1,-1,-1,-1,-1,-1,-1,-1,-1,-1,-1,-1,-1,-1,-1,-1,-1,-1,-1,-1,-1,-1,-1,-1,-1,-1,-1,-1],"loss_changes":[1.1012984E1,4.3072906E0,1.0288367E1,5.3658123E0,4.0032167E0,1.2516523E1,3.6786761E0,8.444962E0,1.8640057E1,0E0,2.9282298E0,8.845531E0,1.0950706E1,4.324235E0,4.9264555E0,4.129807E0,4.5346184E0,8.292997E0,1.1915991E1,0E0,1.4219723E0,2.610939E0,6.7604074E0,5.236388E0,3.9515657E0,3.8739138E0,6.8219132E0,5.202687E0,3.639835E0,5.622819E0,4.640643E0,1.2693024E-1,3.250803E0,6.0241394E0,2.15909E0,4.55567E0,2.781506E0,0E0,0E0,2.5898895E0,4.612358E0,4.098314E0,7.449333E0,3.7483199E0,1.6288471E0,2.8017168E0,4.8166447E0,3.9350474E0,5.69306E0,2.5660625E0,6.31606E0,5.8343773E0,1.7043781E0,1.3854182E0,2.569404E0,0E0,0E0,0E0,0E0,0E0,0E0,0E0,0E0,0E0,0E0,0E0,0E0,0E0,0E0,0E0,0E0,0E0,0E0,0E0,0E0,0E0,0E0,0E0,0E0,0E0,0E0,0E0,0E0,0E0,0E0,0E0,0E0,0E0,0E0,0E0,0E0,0E0,0E0,0E0,0E0,0E0,0E0,0E0,0E0,0E0,0E0,0E0,0E0],"parents":[2147483647,0,0,1,1,2,2,3,3,4,4,5,5,6,6,7,7,8,8,10,10,11,11,12,12,13,13,14,14,15,15,16,16,17,17,18,18,20,20,21,21,22,22,23,23,24,24,25,25,26,26,27,27,28,28,29,29,30,30,31,31,32,32,33,33,34,34,35,35,36,36,39,39,40,40,41,41,42,42,43,43,44,44,45,45,46,46,47,47,48,48,49,49,50,50,51,51,52,52,53,53,54,54],"right_children":[2,4,6,8,10,12,14,16,18,-1,20,22,24,26,28,30,32,34,36,-1,38,40,42,44,46,48,50,52,54,56,58,60,62,64,66,68,70,-1,-1,72,74,76,78,80,82,84,86,88,90,92,94,96,98,100,102,-1,-1,-1,-1,-1,-1,-1,-1,-1,-1,-1,-1,-1,-1,-1,-1,-1,-1,-1,-1,-1,-1,-1,-1,-1,-1,-1,-1,-1,-1,-1,-1,-1,-1,-1,-1,-1,-1,-1,-1,-1,-1,-1,-1,-1,-1,-1,-1],"split_conditions":[1.1E1,1.8E1,5E0,8E0,3.4655884E1,1.6E1,1.9E1,5.536E2,5.2712E2,2.1129552E-1,3.644E2,2E0,3.7528E2,1.3E1,2E0,3.9272E2,2.9952E2,3.8888E2,6.2176E2,1.23239204E-1,1.4E2,9.3104E2,5.14E2,3.9272E2,4.5144E2,1.19627396E2,3.744E2,1.8E1,2.2816E2,1.4512E2,7.0384E2,6.9472E2,5.6512E2,3.9488E2,4.2424E2,1.4E1,2.516E2,-5.6884177E-3,-3.713267E-1,1.276E2,9.856E2,2E0,6.9384E2,1.8488E2,3.4872E2,3.3736E2,4.8512E2,1.2E1,9.524E2,1.2873283E2,3.3432E2,8.6888E2,8.5992E2,6.176E2,2.0593513E2,1.4868763E-1,7.2273794E-3,-5.244214E-2,7.833136E-3,4.0125063E-1,1.2552351E-1,8.990728E-2,1.7710077E-2,1.7447242E-1,-1.8092766E-1,3.371889E-1,1.6210838E-1,-3.3850916E-2,-3.480259E-1,-8.5145466E-2,3.4285855E-1,-5.988777E-2,-2.598539E-1,9.666679E-2,-2.972008E-1,-7.794627E-2,3.2910502E-1,-2.5305104E-1,3.3672374E-1,-1.4097247E-1,3.630824E-1,-4.31923E-1,-1.0529542E-1,-4.1317396E-2,3.1580424E-1,-1.6327453E-1,1.3984023E-1,-3.2510564E-2,9.194009E-2,-5.9644554E-2,1.7606376E-1,-6.0293473E-2,1.4342941E-1,-3.1931642E-1,-7.536012E-2,1.4083013E-1,-2.4704126E-1,3.8743174E-1,9.377522E-2,2.8128648E-1,-6.1731033E-2,-3.0834138E-1,3.2480743E-2],"split_indices":[5,6,6,6,4,5,5,0,0,0,0,13,2,5,13,2,2,2,2,0,1,3,0,1,0,4,2,6,3,3,1,0,2,0,0,6,3,0,0,1,1,6,2,1,2,0,2,6,3,4,0,1,3,2,4,0,0,0,0,0,0,0,0,0,0,0,0,0,0,0,0,0,0,0,0,0,0,0,0,0,0,0,0,0,0,0,0,0,0,0,0,0,0,0,0,0,0,0,0,0,0,0,0],"split_type":[0,0,0,0,0,0,0,0,0,0,0,0,0,0,0,0,0,0,0,0,0,0,0,0,0,0,0,0,0,0,0,0,0,0,0,0,0,0,0,0,0,0,0,0,0,0,0,0,0,0,0,0,0,0,0,0,0,0,0,0,0,0,0,0,0,0,0,0,0,0,0,0,0,0,0,0,0,0,0,0,0,0,0,0,0,0,0,0,0,0,0,0,0,0,0,0,0,0,0,0,0,0,0],"sum_hessian":[1.4575876E3,9.653641E2,4.922236E2,9.560306E2,9.33346E0,1.345382E2,3.5768542E2,8.8281757E2,7.321305E1,1.2338748E0,8.099586E0,9.3194885E1,4.1343307E1,3.222611E2,3.5424328E1,6.5389856E2,2.2891899E2,4.9851658E1,2.3361399E1,1.0606028E0,7.0389824E0,7.44182E1,1.8776688E1,1.1420732E1,2.9922577E1,2.0010936E2,1.2215173E2,2.4914387E1,1.0509941E1,1.951058E2,4.5879272E2,3.9501722E0,2.2496883E2,1.5266316E1,3.458534E1,1.792108E1,5.4403186E0,1.1481999E0,5.8907824E0,6.505355E1,9.364649E0,8.487082E0,1.0289606E1,3.6081176E0,7.812614E0,1.1558274E1,1.8364302E1,9.630761E1,1.0380175E2,2.3130795E1,9.902094E1,1.5010779E1,9.903607E0,2.956963E0,7.552978E0,2.8850763E1,1.6625505E2,2.3588878E2,2.2290396E2,2.469933E0,1.4802393E0,1.08147675E2,1.1682115E2,8.268014E0,6.9983025E0,2.1114508E1,1.3470832E1,6.62753E0,1.129355E1,1.4104117E0,4.0299067E0,7.2490726E0,5.7804478E1,5.957433E0,3.4072158E0,2.8636897E0,5.6233916E0,8.8030815E0,1.486525E0,2.3686166E0,1.2395012E0,4.9679174E0,2.8446963E0,2.1780806E0,9.380194E0,6.46166E0,1.1902643E1,3.5708107E1,6.0599503E1,9.456421E1,9.237543E0,7.7290373E0,1.5401757E1,9.903743E0,8.9117195E1,1.1092893E1,3.917887E0,6.526816E0,3.3767912E0,1.710784E0,1.2461792E0,4.7855954E0,2.7673829E0],"tree_param":{"num_deleted":"0","num_feature":"14","num_nodes":"103","size_leaf_vector":"1"}},{"base_weights":[2.3090363E-2,5.630118E-2,-1.3829024E-1,3.7096877E-2,1.7721313E-1,-3.108315E-1,7.410026E-2,1.8779016E-1,1.3536749E-2,2.1015911E-1,-5.2180535E-1,-3.721126E-1,2.6617005E-1,1.21254414E-1,-5.029195E-1,3.3084172E-1,-2.518954E-2,-1.1637498E-1,4.207016E-2,9.26215E-2,3.7606084E-1,-9.0654665E-1,2.6988876E-1,-4.7346124E-1,5.538797E-2,-1.8475232E-1,9.965932E-1,2.7748543E-1,-1.2621932E-2,-7.074343E-1,1.0261348E-1,-1.0179679E0,3.9286914E-1,1.0895123E0,-1.1560962E-1,-4.4494387E-2,-4.4338274E-1,2.7259117E-1,2.5170425E-2,-1.3309232E-2,5.545539E-1,4.6527806E-1,-1.2343746E-1,-4.22735E-1,4.2415287E-2,-1.8394398E-2,-5.571114E-1,4.56815E-1,-8.577524E-1,-3.3246505E-1,2.4259627E-1,3.6525387E-1,1.6951663E-2,1.6799851E-1,8.9831495E-1,-5.0700927E-1,1.0461328E-1,1.786135E-2,-9.064795E-1,-3.0282658E-2,7.709535E-2,-3.7210688E-1,-1.1412015E-1,1.6329832E-1,1.1527614E-2,6.633385E-2,4.0725258E-1,2.1441197E-1,-7.240609E-2,-2.811229E-2,6.186034E-2,-1.8765707E-1,1.00546844E-1,4.5474492E-2,2.939395E-1,8.514698E-4,6.6441424E-2,1.2604036E-2,-2.4738918E-1,2.0569019E-1,3.6301485E-3,3.2174507E-1,1.2160764E-1,-8.130023E-2,9.070669E-2,1.2685744E-1,-1.1252601E-1,9.6541576E-2,-1.5601051E-1,1.8907558E-2,-1.9132109E-1,-2.1767926E-1,1.7652261E-1,-3.2797202E-1,8.4343955E-2,-1.784338E-1,2.0495652E-1,1.1073658E-1,-6.027295E-2,3.6509424E-1,-3.0272203E-2,-2.6844245E-1,9.908323E-2,6.37006E-2,-2.0875074E-1,-3.3482355E-1,-1.1843442E-2],"categories":[],"categories_nodes":[],"categories_segments":[],"categories_sizes":[],"default_left":[0,0,0,0,0,0,0,0,0,0,0,0,0,0,0,0,0,0,0,0,0,0,0,0,0,0,0,0,0,0,0,0,0,0,0,0,0,0,0,0,0,0,0,0,0,0,0,0,0,0,0,0,0,0,0,0,0,0,0,0,0,0,0,0,0,0,0,0,0,0,0,0,0,0,0,0,0,0,0,0,0,0,0,0,0,0,0,0,0,0,0,0,0,0,0,0,0,0,0,0,0,0,0,0,0,0,0],"id":4,"left_children":[1,3,5,7,9,11,13,15,17,19,21,23,25,27,29,31,33,35,37,39,41,43,-1,45,47,49,51,53,55,57,59,61,63,65,67,69,71,73,75,77,79,81,83,-1,85,87,89,91,93,-1,95,-1,-1,97,99,101,103,-1,105,-1,-1,-1,-1,-1,-1,-1,-1,-1,-1,-1,-1,-1,-1,-1,-1,-1,-1,-1,-1,-1,-1,-1,-1,-1,-1,-1,-1,-1,-1,-1,-1,-1,-1,-1,-1,-1,-1,-1,-1,-1,-1,-1,-1,-1,-1,-1,-1],"loss_changes":[7.741298E0,2.7737744E0,9.058274E0,3.6704073E0,3.8830485E0,4.916093E0,3.0899394E0,4.267545E0,3.3252234E0,3.0302424E0,5.0057616E0,5.380045E0,4.684054E0,2.1728337E0,1.1381505E0,7.40238E0,5.881054E0,3.7781208E0,2.8571377E0,4.574291E0,2.9476452E0,3.1730695E0,0E0,3.7961235E0,9.400398E0,3.9354956E0,1.0467558E0,3.1054192E0,3.3458204E0,1.0552216E0,1.21644914E-1,8.939886E-2,4.313488E0,7.1920013E-1,5.7811513E0,1.6672289E0,4.3225536E0,4.1400433E0,3.0068917E0,3.486112E0,1.2313094E0,1.5749521E0,7.49139E-1,0E0,6.718021E-1,2.9935658E0,4.2617073E0,3.1847332E0,2.4133034E0,0E0,3.0524397E0,0E0,0E0,3.1870227E0,2.3364344E0,3.8869128E0,4.1789036E0,0E0,9.1341066E-1,0E0,0E0,0E0,0E0,0E0,0E0,0E0,0E0,0E0,0E0,0E0,0E0,0E0,0E0,0E0,0E0,0E0,0E0,0E0,0E0,0E0,0E0,0E0,0E0,0E0,0E0,0E0,0E0,0E0,0E0,0E0,0E0,0E0,0E0,0E0,0E0,0E0,0E0,0E0,0E0,0E0,0E0,0E0,0E0,0E0,0E0,0E0,0E0],"parents":[2147483647,0,0,1,1,2,2,3,3,4,4,5,5,6,6,7,7,8,8,9,9,10,10,11,11,12,12,13,13,14,14,15,15,16,16,17,17,18,18,19,19,20,20,21,21,23,23,24,24,25,25,26,26,27,27,28,28,29,29,30,30,31,31,32,32,33,33,34,34,35,35,36,36,37,37,38,38,39,39,40,40,41,41,42,42,44,44,45,45,46,46,47,47,48,48,50,50,53,53,54,54,55,55,56,56,58,58],"right_children":[2,4,6,8,10,12,14,16,18,20,22,24,26,28,30,32,34,36,38,40,42,44,-1,46,48,50,52,54,56,58,60,62,64,66,68,70,72,74,76,78,80,82,84,-1,86,88,90,92,94,-1,96,-1,-1,98,100,102,104,-1,106,-1,-1,-1,-1,-1,-1,-1,-1,-1,-1,-1,-1,-1,-1,-1,-1,-1,-1,-1,-1,-1,-1,-1,-1,-1,-1,-1,-1,-1,-1,-1,-1,-1,-1,-1,-1,-1,-1,-1,-1,-1,-1,-1,-1,-1,-1,-1,-1],"split_conditions":[1.3E1,9.4512E2,1.6E1,1.4344E2,1.5E1,2.899566E2,3.087771E2,6E0,1.6864E2,1.3804732E2,5.0864E2,2E0,6.4656E2,1.7E1,3.8941364E2,4.3275784E1,2.7904E2,2.3672E2,3.0656E2,5.0728E2,9.9664E2,9.8656E2,2.6988876E-1,6.1174637E1,1.5E1,3.6792E2,7.0144E2,9.3328E2,1.9E1,4.7008E2,5.5472E2,2.4782574E1,1.8632831E2,3.8352E2,6.9034485E1,2.0091656E2,2.1205858E2,6.2344E2,1.2E1,4.9848E2,8E0,1.4285762E2,6.4304E2,-4.22735E-1,4.4208E2,4.8624E2,1.0296E2,2E0,6.6888E2,-3.3246505E-1,3.3536E2,3.6525387E-1,1.6951663E-2,7.8736E2,5.1256E2,5.1912E2,9.7104E2,1.786135E-2,6.5192E2,-3.0282658E-2,7.709535E-2,-3.7210688E-1,-1.1412015E-1,1.6329832E-1,1.1527614E-2,6.633385E-2,4.0725258E-1,2.1441197E-1,-7.240609E-2,-2.811229E-2,6.186034E-2,-1.8765707E-1,1.00546844E-1,4.5474492E-2,2.939395E-1,8.514698E-4,6.6441424E-2,1.2604036E-2,-2.4738918E-1,2.0569019E-1,3.6301485E-3,3.2174507E-1,1.2160764E-1,-8.130023E-2,9.070669E-2,1.2685744E-1,-1.1252601E-1,9.6541576E-2,-1.5601051E-1,1.8907558E-2,-1.9132109E-1,-2.1767926E-1,1.7652261E-1,-3.2797202E-1,8.4343955E-2,-1.784338E-1,2.0495652E-1,1.1073658E-1,-6.027295E-2,3.6509424E-1,-3.0272203E-2,-2.6844245E-1,9.908323E-2,6.37006E-2,-2.0875074E-1,-3.3482355E-1,-1.1843442E-2],"split_indices":[5,1,5,3,6,4,4,5,1,4,2,13,0,5,4,4,0,3,2,2,3,3,0,4,5,2,0,3,5,1,3,4,4,2,4,4,4,0,5,2,5,4,0,0,0,0,1,6,2,0,0,0,0,3,2,0,3,0,2,0,0,0,0,0,0,0,0,0,0,0,0,0,0,0,0,0,0,0,0,0,0,0,0,0,0,0,0,0,0,0,0,0,0,0,0,0,0,0,0,0,0,0,0,0,0,0,0],"split_type":[0,0,0,0,0,0,0,0,0,0,0,0,0,0,0,0,0,0,0,0,0,0,0,0,0,0,0,0,0,0,0,0,0,0,0,0,0,0,0,0,0,0,0,0,0,0,0,0,0,0,0,0,0,0,0,0,0,0,0,0,0,0,0,0,0,0,0,0,0,0,0,0,0,0,0,0,0,0,0,0,0,0,0,0,0,0,0,0,0,0,0,0,0,0,0,0,0,0,0,0,0,0,0,0,0,0,0],"sum_hessian":[1.4419323E3,1.1963784E3,2.4555383E2,1.0335308E3,1.6284767E2,1.352314E2,1.1032242E2,1.387972E2,8.947336E2,1.5618571E2,6.6619573E0,1.22568924E2,1.2662481E1,1.0271814E2,7.6042824E0,8.269814E1,5.6099052E1,1.605727E2,7.341609E2,9.233017E1,6.385554E1,5.527936E0,1.1340215E0,9.899291E1,2.3576012E1,8.291088E0,4.3713927E0,4.6906494E1,5.5811646E1,5.5586133E0,2.0456688E0,2.9582527E0,7.973989E1,3.3800635E0,5.271899E1,1.3256847E2,2.8004221E1,4.9112434E1,6.8504846E2,7.589667E1,1.64335E1,5.4236645E1,9.6188965E0,3.2969623E0,2.2309737E0,1.5560702E1,8.3432205E1,1.6723778E1,6.8522344E0,2.1189585E0,6.1721296E0,3.3006399E0,1.0707529E0,4.0954525E1,5.9519687E0,1.0060642E1,4.5751003E1,1.2897516E0,4.268862E0,1.0315543E0,1.0141145E0,1.4922824E0,1.4659703E0,5.5491783E1,2.4248106E1,1.2275239E0,2.1525395E0,6.3177342E0,4.6401253E1,1.1133822E2,2.1230244E1,2.2854017E1,5.150204E0,4.29736E1,6.1388335E0,6.159853E2,6.906315E1,7.193945E1,3.9572182E0,1.3022705E1,3.410795E0,3.353581E0,5.0883064E1,7.413281E0,2.2056158E0,1.1605811E0,1.0703925E0,9.486023E0,6.0746794E0,9.624333E0,7.380788E1,1.2227796E0,1.55009985E1,5.7113924E0,1.1408418E0,2.007253E0,4.164877E0,2.6504229E1,1.4450296E1,4.3475475E0,1.6044214E0,6.829009E0,3.2316332E0,4.097186E1,4.779142E0,3.206419E0,1.0624429E0],"tree_param":{"num_deleted":"0","num_feature":"14","num_nodes":"107","size_leaf_vector":"1"}},{"base_weights":[2.670031E-3,4.6943724E-2,-8.5094534E-2,3.2550193E-2,5.389399E-1,-3.5749796E-1,-4.6923026E-2,-8.2530373E-1,3.8269203E-2,7.379061E-1,-1.309587E-1,-7.9161704E-1,-5.4589428E-2,4.171572E-2,-1.2408272E-1,-1.1605455E0,8.454746E-2,7.455602E-2,-7.987255E-2,4.463705E-1,3.7456596E-1,4.309598E-1,-2.8969055E-1,-8.679011E-1,1.1313708E-1,-1.16630994E-1,2.8701904E-1,-1.7900589E-1,1.9417305E-1,-8.747222E-1,-8.572836E-2,-4.18343E-2,-4.6555272E-1,-3.850865E-1,8.373013E-2,-1.4632064E-1,7.90014E-1,3.1555212E-1,1.7269172E-1,7.601488E-1,-9.361602E-2,2.4693552E-2,-9.526879E-1,-1.8912444E-1,2.1468078E-1,-3.5750267E-1,3.215051E-2,4.1199076E-1,1.6979595E-1,-1.034087E0,1.1405979E-2,-9.655925E-3,-2.3211055E-1,-1.8018718E-1,1.5523857E-1,2.7864384E-2,-1.1155424E-1,2.079604E-1,-5.9583772E-2,-7.0555E-2,3.3526334E-1,-1.4570981E-2,2.5087255E-1,3.2052892E-1,2.1410583E-2,-3.4417826E-1,-1.6915765E-1,-2.0163192E-1,1.52855115E-2,-3.0361054E-2,-1.9385798E-1,1.9719389E-1,-2.6258752E-2,1.6835612E-1,3.502364E-2,-3.0615184E-2,-3.5179538E-1,8.779873E-3,-1.5651162E-1,-1.2711348E-1,4.276263E-2],"categories":[],"categories_nodes":[],"categories_segments":[],"categories_sizes":[],"default_left":[0,0,0,0,0,0,0,0,0,0,0,0,0,0,0,0,0,0,0,0,0,0,0,0,0,0,0,0,0,0,0,0,0,0,0,0,0,0,0,0,0,0,0,0,0,0,0,0,0,0,0,0,0,0,0,0,0,0,0,0,0,0,0,0,0,0,0,0,0,0,0,0,0,0,0,0,0,0,0,0,0],"id":5,"left_children":[1,3,5,7,9,11,13,15,17,19,21,23,25,27,29,31,-1,33,35,37,-1,39,-1,41,-1,43,-1,45,47,49,51,-1,-1,53,55,57,59,-1,61,63,-1,-1,65,67,-1,69,71,-1,73,75,-1,77,79,-1,-1,-1,-1,-1,-1,-1,-1,-1,-1,-1,-1,-1,-1,-1,-1,-1,-1,-1,-1,-1,-1,-1,-1,-1,-1,-1,-1],"loss_changes":[5.5823574E0,6.744588E0,4.9923325E0,4.5884194E0,3.7057066E0,7.72269E0,2.902855E0,2.626525E0,3.9655018E0,2.5730886E0,3.7226877E0,2.4846745E0,2.3615444E0,6.694918E0,6.4534225E0,1.761713E0,0E0,3.0139887E0,1.2688183E1,2.294306E0,0E0,1.4368788E0,0E0,1.9328651E0,0E0,2.2275174E0,0E0,3.0787003E0,3.1454349E0,1.626915E0,2.412446E0,0E0,0E0,3.0373285E0,2.9282556E0,9.045822E0,5.4984035E0,0E0,1.7271132E0,7.072644E-1,0E0,0E0,9.578991E-1,3.824773E0,0E0,3.2036872E0,2.9153423E0,0E0,2.3493357E0,1.0849476E0,0E0,2.8798766E0,5.3802977E0,0E0,0E0,0E0,0E0,0E0,0E0,0E0,0E0,0E0,0E0,0E0,0E0,0E0,0E0,0E0,0E0,0E0,0E0,0E0,0E0,0E0,0E0,0E0,0E0,0E0,0E0,0E0,0E0],"parents":[2147483647,0,0,1,1,2,2,3,3,4,4,5,5,6,6,7,7,8,8,9,9,10,10,11,11,12,12,13,13,14,14,15,15,17,17,18,18,19,19,21,21,23,23,25,25,27,27,28,28,29,29,30,30,33,33,34,34,35,35,36,36,38,38,39,39,42,42,43,43,45,45,46,46,48,48,49,49,51,51,52,52],"right_children":[2,4,6,8,10,12,14,16,18,20,22,24,26,28,30,32,-1,34,36,38,-1,40,-1,42,-1,44,-1,46,48,50,52,-1,-1,54,56,58,60,-1,62,64,-1,-1,66,68,-1,70,72,-1,74,76,-1,78,80,-1,-1,-1,-1,-1,-1,-1,-1,-1,-1,-1,-1,-1,-1,-1,-1,-1,-1,-1,-1,-1,-1,-1,-1,-1,-1,-1,-1],"split_conditions":[1.1E1,7.0344E2,3.4272E2,4E0,2E0,1.1E1,5.1904E2,2E0,5.58E2,2E0,1.7229022E2,1E0,9.2712E2,1.7264E2,5.2832E2,1.236E2,8.454746E-2,6.896E1,9E0,3.1432E2,3.7456596E-1,7.824E2,-2.8969055E-1,7.704E1,1.1313708E-1,1E0,2.8701904E-1,5.0016E2,3.52E2,8.7008E2,5.0576E2,-4.18343E-2,-4.6555272E-1,5.3672E2,6.9872E2,4E0,1.303686E2,3.1555212E-1,7.9176E2,5E0,-9.361602E-2,2.4693552E-2,4.5376E2,2E0,2.1468078E-1,1.392E2,6.9034485E1,4.1199076E-1,1.1256E2,1.089479E2,1.1405979E-2,2.3E1,1.5E1,-1.8018718E-1,1.5523857E-1,2.7864384E-2,-1.1155424E-1,2.079604E-1,-5.9583772E-2,-7.0555E-2,3.3526334E-1,-1.4570981E-2,2.5087255E-1,3.2052892E-1,2.1410583E-2,-3.4417826E-1,-1.6915765E-1,-2.0163192E-1,1.52855115E-2,-3.0361054E-2,-1.9385798E-1,1.9719389E-1,-2.6258752E-2,1.6835612E-1,3.502364E-2,-3.0615184E-2,-3.5179538E-1,8.779873E-3,-1.5651162E-1,-1.2711348E-1,4.276263E-2],"split_indices":[5,0,2,5,13,6,1,13,2,12,4,9,3,3,1,3,0,1,6,1,0,0,0,1,0,9,0,0,2,2,0,0,0,2,0,6,4,0,2,5,0,0,0,12,0,3,4,0,1,4,0,5,5,0,0,0,0,0,0,0,0,0,0,0,0,0,0,0,0,0,0,0,0,0,0,0,0,0,0,0,0],"split_type":[0,0,0,0,0,0,0,0,0,0,0,0,0,0,0,0,0,0,0,0,0,0,0,0,0,0,0,0,0,0,0,0,0,0,0,0,0,0,0,0,0,0,0,0,0,0,0,0,0,0,0,0,0,0,0,0,0,0,0,0,0,0,0,0,0,0,0,0,0,0,0,0,0,0,0,0,0,0,0,0,0],"sum_hessian":[1.4346277E3,9.5389246E2,4.8073526E2,9.27815E2,2.6077414E1,5.8057045E1,4.2267822E2,5.19539E0,9.226196E2,2.002753E1,6.0498843E0,2.3197594E1,3.485945E1,1.9692082E2,2.2575739E2,3.9508216E0,1.2445685E0,7.061095E2,2.1651013E2,1.3941983E1,6.085547E0,3.9047918E0,2.1450925E0,2.2017883E1,1.1797091E0,3.3678074E1,1.1813793E0,8.0378265E1,1.16542564E2,9.914413E0,2.1584297E2,1.4703318E0,2.48049E0,1.301577E1,6.9309375E2,2.01918E2,1.4592133E1,3.455006E0,1.0486978E1,2.6899555E0,1.2148364E0,1.8060887E0,2.0211796E1,3.1690369E1,1.987705E0,4.318209E1,3.719617E1,1.239748E0,1.1530281E2,8.327489E0,1.5869248E0,1.4273294E2,7.311003E1,1.07767105E1,2.2390594E0,6.802262E2,1.2867522E1,1.1120898E1,1.907971E2,3.6013997E0,1.0990733E1,8.559578E0,1.9273996E0,1.4774808E0,1.2124747E0,1.2170856E1,8.040938E0,9.924612E0,2.1765757E1,2.3589724E1,1.9592367E1,5.254795E0,3.1941378E1,1.2619732E1,1.0268308E2,1.3025466E0,7.024942E0,1.3352614E2,9.206813E0,4.828544E1,2.4824589E1],"tree_param":{"num_deleted":"0","num_feature":"14","num_nodes":"81","size_leaf_vector":"1"}},{"base_weights":[-1.39086945E-2,-4.2068537E-2,4.8636716E-2,-3.4093115E-2,-4.3383306E-1,5.6557184E-1,3.4789182E-2,-1.2987449E-2,-9.834628E-2,-6.3916075E-1,2.798144E-1,-1.436397E-2,7.127755E-1,-9.716543E-3,1.386417E-1,-5.0808587E-3,-7.118439E-1,-2.4717093E-1,7.264176E-3,-7.506851E-1,8.816529E-3,5.200056E-1,-6.43888E-2,-9.4387485E-3,8.6022985E-1,1.12733245E-1,-7.41214E-2,2.0197704E-1,-1.0986401E-1,-2.4527213E-2,1.3575478E-1,8.0582045E-2,-1.06556E0,-3.462968E-1,4.3781507E-1,-1.901773E-1,1.5859112E-1,1.1515597E-2,-8.7427795E-1,4.1439873E-3,2.6441005E-1,3.866089E-1,1.0668137E0,6.0248762E-2,5.064631E-1,-1.8028629E-1,4.3613367E-2,-4.5843594E-2,2.704046E-1,1.8321326E-1,-2.9656923E-1,-1.7728126E-2,3.8207494E-2,1.5277958E-1,-5.1219147E-2,-1.0124349E-1,-3.902236E-1,-1.7760828E-1,-1.7390035E-2,2.6007268E-1,2.232568E-3,1.9490266E-1,-1.06018394E-1,9.015935E-2,-1.0553318E-1,-3.4475547E-1,-9.8416045E-2,-1.3588826E-2,2.0087874E-1,3.8557836E-1,9.183753E-2,6.114553E-3,1.5470833E-1,-1.3964535E-2,2.1013795E-1,-4.8353035E-2,-2.0993756E-1,7.237759E-2,-6.9084163E-3,8.373481E-2,-9.513015E-2,1.0466553E-1,3.273248E-2,-3.907454E-2,1.8994571E-1,-2.116477E-1,4.8178993E-2],"categories":[],"categories_nodes":[],"categories_segments":[],"categories_sizes":[],"default_left":[0,0,0,0,0,0,0,0,0,0,0,0,0,0,0,0,0,0,0,0,0,0,0,0,0,0,0,0,0,0,0,0,0,0,0,0,0,0,0,0,0,0,0,0,0,0,0,0,0,0,0,0,0,0,0,0,0,0,0,0,0,0,0,0,0,0,0,0,0,0,0,0,0,0,0,0,0,0,0,0,0,0,0,0,0,0,0],"id":6,"left_children":[1,3,5,7,9,11,13,15,17,19,21,-1,23,25,27,29,31,33,35,37,-1,39,-1,-1,41,43,45,47,49,51,53,-1,55,57,59,61,63,-1,65,-1,-1,67,69,71,73,75,77,79,81,83,85,-1,-1,-1,-1,-1,-1,-1,-1,-1,-1,-1,-1,-1,-1,-1,-1,-1,-1,-1,-1,-1,-1,-1,-1,-1,-1,-1,-1,-1,-1,-1,-1,-1,-1,-1,-1],"loss_changes":[2.4980175E0,3.0400887E0,3.1329885E0,1.2996348E0,3.024746E0,1.065795E0,1.9888105E0,3.992793E0,3.7274964E0,1.1692944E0,7.0956296E-1,0E0,1.0450921E0,2.3895478E0,2.053486E0,1.9647423E0,3.0897307E0,6.834297E0,4.2018404E0,1.3232765E0,0E0,6.6113067E-1,0E0,0E0,3.48567E-1,2.1282938E0,2.4885943E0,1.7624345E0,1.524084E0,3.3158066E0,1.0051279E1,0E0,6.1275196E-1,6.096899E0,2.3727818E0,8.596258E0,5.8711543E0,0E0,1.3462324E0,0E0,0E0,5.1073897E-1,4.120283E-1,1.6838406E0,1.3363788E0,9.2520475E-1,1.2556776E0,2.132182E0,9.874735E-1,1.6438422E0,3.251998E0,0E0,0E0,0E0,0E0,0E0,0E0,0E0,0E0,0E0,0E0,0E0,0E0,0E0,0E0,0E0,0E0,0E0,0E0,0E0,0E0,0E0,0E0,0E0,0E0,0E0,0E0,0E0,0E0,0E0,0E0,0E0,0E0,0E0,0E0,0E0,0E0],"parents":[2147483647,0,0,1,1,2,2,3,3,4,4,5,5,6,6,7,7,8,8,9,9,10,10,12,12,13,13,14,14,15,15,16,16,17,17,18,18,19,19,21,21,24,24,25,25,26,26,27,27,28,28,29,29,30,30,32,32,33,33,34,34,35,35,36,36,38,38,41,41,42,42,43,43,44,44,45,45,46,46,47,47,48,48,49,49,50,50],"right_children":[2,4,6,8,10,12,14,16,18,20,22,-1,24,26,28,30,32,34,36,38,-1,40,-1,-1,42,44,46,48,50,52,54,-1,56,58,60,62,64,-1,66,-1,-1,68,70,72,74,76,78,80,82,84,86,-1,-1,-1,-1,-1,-1,-1,-1,-1,-1,-1,-1,-1,-1,-1,-1,-1,-1,-1,-1,-1,-1,-1,-1,-1,-1,-1,-1,-1,-1,-1,-1,-1,-1,-1,-1],"split_conditions":[5.3528E2,3.7525903E2,5.3792E2,1.2E1,7.0064E2,4.1216E2,6.34E2,1.9E1,1E0,1E0,8.3184E2,-1.436397E-2,6.7258354E1,1.8888E2,8.4584E2,1.1E1,3.6712E2,1.9E1,1.2E1,7.52E1,8.816529E-3,4.6368E2,-6.43888E-2,-9.4387485E-3,4.7048E2,2.4888E2,1.9546059E2,6.1272E2,5E0,5.4448E2,1.1225257E2,8.0582045E-2,5E0,1.2721927E2,1.7128E2,4.6528E2,9.4088E2,1.1515597E-2,2E0,4.1439873E-3,2.6441005E-1,5E0,2E0,2.7786215E2,4.7152E2,6.312E2,2.3232199E2,5.8696E2,7.0256E2,9.056E2,1.2E1,-1.7728126E-2,3.8207494E-2,1.5277958E-1,-5.1219147E-2,-1.0124349E-1,-3.902236E-1,-1.7760828E-1,-1.7390035E-2,2.6007268E-1,2.232568E-3,1.9490266E-1,-1.06018394E-1,9.015935E-2,-1.0553318E-1,-3.4475547E-1,-9.8416045E-2,-1.3588826E-2,2.0087874E-1,3.8557836E-1,9.183753E-2,6.114553E-3,1.5470833E-1,-1.3964535E-2,2.1013795E-1,-4.8353035E-2,-2.0993756E-1,7.237759E-2,-6.9084163E-3,8.373481E-2,-9.513015E-2,1.0466553E-1,3.273248E-2,-3.907454E-2,1.8994571E-1,-2.116477E-1,4.8178993E-2],"split_indices":[2,4,2,5,0,0,0,6,13,7,3,0,4,3,3,6,0,5,6,3,0,3,0,0,0,1,4,2,5,0,4,0,5,4,1,1,3,0,12,0,0,6,13,4,0,0,4,2,2,3,5,0,0,0,0,0,0,0,0,0,0,0,0,0,0,0,0,0,0,0,0,0,0,0,0,0,0,0,0,0,0,0,0,0,0,0,0],"split_type":[0,0,0,0,0,0,0,0,0,0,0,0,0,0,0,0,0,0,0,0,0,0,0,0,0,0,0,0,0,0,0,0,0,0,0,0,0,0,0,0,0,0,0,0,0,0,0,0,0,0,0,0,0,0,0,0,0,0,0,0,0,0,0,0,0,0,0,0,0,0,0,0,0,0,0,0,0,0,0,0,0,0,0,0,0,0,0],"sum_hessian":[1.4161439E3,9.767216E2,4.394223E2,9.5829987E2,1.8421751E1,1.042459E1,4.289977E2,7.222573E2,2.3604253E2,1.4386812E1,4.0349393E0,2.1479661E0,8.276624E0,3.00938E2,1.2805974E2,7.151734E2,7.0839233E0,9.741973E1,1.3862279E2,1.2224689E1,2.162124E0,2.680908E0,1.3540314E0,1.4987409E0,6.777883E0,1.0346833E2,1.9746965E2,1.02199844E2,2.5859901E1,6.2913E2,8.604339E1,1.9418911E0,5.142032E0,8.5536064E1,1.188367E1,6.0035576E1,7.858722E1,1.7488288E0,1.047586E1,1.5491271E0,1.1317809E0,2.9305792E0,3.8473036E0,9.231561E1,1.115272E1,1.0355751E2,9.391214E1,2.2184698E1,8.0015144E1,1.0070544E1,1.5789358E1,5.129926E2,1.16137375E2,3.8482964E1,4.756043E1,1.8499477E0,3.2920845E0,4.5610752E1,3.9925312E1,5.442765E0,6.440904E0,9.283885E0,5.075169E1,6.1808598E1,1.677862E1,6.234338E0,4.241522E0,1.4925421E0,1.4380372E0,2.4532113E0,1.3940923E0,8.584593E1,6.469676E0,3.0937266E0,8.058993E0,1.01147156E2,2.4103525E0,2.301978E1,7.089236E1,1.0080051E1,1.2104648E1,5.3043335E1,2.697181E1,6.3542275E0,3.716317E0,8.047706E0,7.741652E0],"tree_param":{"num_deleted":"0","num_feature":"14","num_nodes":"87","size_leaf_vector":"1"}},{"base_weights":[-9.340787E-3,2.1629203E-2,-7.2906226E-2,-1.5556305E-2,1.0054227E-1,3.292198E-2,-1.5331261E-1,-1.9110912E-1,1.6701126E-2,6.028214E-1,7.625505E-2,-3.4463413E-2,3.9263296E-1,-2.32124E-1,5.0530825E-2,-2.6457247E-1,2.6338592E-1,-1.7201458E-1,4.2023364E-2,9.972403E-1,1.5837137E-1,-1.6779727E-1,1.4618278E-1,-5.4229364E-2,9.1461295E-1,6.923387E-1,3.1955905E-2,-1.7546925E-1,-6.918315E-1,-3.0145368E-1,1.6804792E-1,-1.8269902E-1,-8.138259E-1,1.203305E0,-3.0223766E-1,-2.0296438E-2,-4.0969154E-1,4.2898437E-1,2.9168483E-2,4.0362966E-1,1.324686E-1,-3.7785882E-1,5.040156E-1,-5.6026393E-1,2.3391858E-1,4.5208663E-1,-3.270092E-2,-3.0641425E-1,2.0279652E-2,-5.1589176E-2,4.5318666E-1,-7.785663E-2,8.5948265E-1,-3.6361644E-1,3.6564684E-1,-6.762179E-2,-5.080982E-1,-9.20972E-1,1.7371355E-1,2.0959131E-1,-4.0707588E-1,-3.1090572E-1,2.7014673E-1,-3.631748E-3,-1.507431E-1,-3.170485E-2,-3.1775093E-1,3.6152914E-2,4.4261864E-1,-2.4718072E-1,2.718469E-1,-2.9943896E-2,2.9450178E-1,1.6709156E-1,-1.4451465E-1,2.2802322E-1,-1.0941638E-2,1.3649642E-2,-7.977125E-2,-1.6891778E-1,2.3271361E-1,5.4030582E-2,-2.432943E-1,2.8840926E-1,3.6809318E-2,1.9151306E-1,-1.9957413E-1,2.077462E-1,-1.1154619E-2,1.9880071E-1,-1.6584696E-1,4.9038947E-2,-1.8830822E-1,-3.2338914E-3,-2.3662746E-1,-5.8168326E-2,4.1696135E-2,-1.0524646E-1,9.2184775E-2,3.618474E-1,1.3394003E-1,-2.1470165E-1,9.8548375E-2,-1.727333E-1,1.8519174E-1,-3.7789878E-2,2.1683733E-1,1.4139962E-1,-1.7784196E-1,-2.9909894E-1,1.4463029E-4,2.0299347E-1,-2.5137693E-1,-2.588463E-1,-2.979287E-2,1.916101E-1,-1.8417607E-1,1.0739448E-2,1.6100267E-1],"categories":[],"categories_nodes":[],"categories_segments":[],"categories_sizes":[],"default_left":[0,0,0,0,0,0,0,0,0,0,0,0,0,0,0,0,0,0,0,0,0,0,0,0,0,0,0,0,0,0,0,0,0,0,0,0,0,0,0,0,0,0,0,0,0,0,0,0,0,0,0,0,0,0,0,0,0,0,0,0,0,0,0,0,0,0,0,0,0,0,0,0,0,0,0,0,0,0,0,0,0,0,0,0,0,0,0,0,0,0,0,0,0,0,0,0,0,0,0,0,0,0,0,0,0,0,0,0,0,0,0,0,0,0,0,0,0,0,0],"id":7,"left_children":[1,3,5,7,9,11,13,15,17,19,21,23,25,27,29,31,33,35,37,39,41,43,45,47,49,51,53,55,57,59,61,63,65,67,69,71,73,75,77,-1,79,81,83,85,87,89,91,93,95,-1,-1,97,99,101,103,105,107,109,111,-1,113,115,117,-1,-1,-1,-1,-1,-1,-1,-1,-1,-1,-1,-1,-1,-1,-1,-1,-1,-1,-1,-1,-1,-1,-1,-1,-1,-1,-1,-1,-1,-1,-1,-1,-1,-1,-1,-1,-1,-1,-1,-1,-1,-1,-1,-1,-1,-1,-1,-1,-1,-1,-1,-1,-1,-1,-1,-1],"loss_changes":[2.8115733E0,2.8202171E0,3.9860694E0,3.705344E0,3.7087536E0,4.9296074E0,4.2855673E0,3.4606488E0,2.6507947E0,2.3053079E0,5.054545E0,3.2712374E0,3.4456148E0,4.880046E0,3.1528692E0,3.8053422E0,8.143084E0,2.358786E0,2.4177184E0,2.0066156E0,1.6353171E0,1.0553644E1,1.2580454E1,3.1850207E0,2.5650291E0,2.316208E0,2.193116E0,6.146722E0,4.2713785E0,2.3051288E0,2.8648472E0,4.2386246E0,1.8195081E0,1.5009985E0,7.009557E0,3.374087E0,2.0453763E0,2.4372256E0,2.2957377E0,0E0,1.8649077E0,1.0225658E0,7.83427E-1,4.6695986E0,4.174807E0,1.8311354E1,1.7123442E1,5.502292E0,3.370956E0,0E0,0E0,5.31745E-1,1.5290298E0,2.0973792E0,2.4792795E0,6.1447163E0,3.766779E0,1.1598158E0,3.202738E0,0E0,2.4298475E0,3.4011488E0,2.9420612E0,0E0,0E0,0E0,0E0,0E0,0E0,0E0,0E0,0E0,0E0,0E0,0E0,0E0,0E0,0E0,0E0,0E0,0E0,0E0,0E0,0E0,0E0,0E0,0E0,0E0,0E0,0E0,0E0,0E0,0E0,0E0,0E0,0E0,0E0,0E0,0E0,0E0,0E0,0E0,0E0,0E0,0E0,0E0,0E0,0E0,0E0,0E0,0E0,0E0,0E0,0E0,0E0,0E0,0E0,0E0,0E0],"parents":[2147483647,0,0,1,1,2,2,3,3,4,4,5,5,6,6,7,7,8,8,9,9,10,10,11,11,12,12,13,13,14,14,15,15,16,16,17,17,18,18,19,19,20,20,21,21,22,22,23,23,24,24,25,25,26,26,27,27,28,28,29,29,30,30,31,31,32,32,33,33,34,34,35,35,36,36,37,37,38,38,40,40,41,41,42,42,43,43,44,44,45,45,46,46,47,47,48,48,51,51,52,52,53,53,54,54,55,55,56,56,57,57,58,58,60,60,61,61,62,62],"right_children":[2,4,6,8,10,12,14,16,18,20,22,24,26,28,30,32,34,36,38,40,42,44,46,48,50,52,54,56,58,60,62,64,66,68,70,72,74,76,78,-1,80,82,84,86,88,90,92,94,96,-1,-1,98,100,102,104,106,108,110,112,-1,114,116,118,-1,-1,-1,-1,-1,-1,-1,-1,-1,-1,-1,-1,-1,-1,-1,-1,-1,-1,-1,-1,-1,-1,-1,-1,-1,-1,-1,-1,-1,-1,-1,-1,-1,-1,-1,-1,-1,-1,-1,-1,-1,-1,-1,-1,-1,-1,-1,-1,-1,-1,-1,-1,-1,-1,-1,-1],"split_conditions":[1.1E1,5E0,3.7144E2,3.6016E2,2.9288E2,2.6608E2,1.6E1,5E0,1.2952E2,6E0,3.8008E2,2.899566E2,5.172E2,1.5E1,3.7656E2,1E0,2.6288E2,9.64E1,3.6592E2,1.9692921E2,1.212E2,6E0,5E0,5E0,7.424E1,1.2352E2,6.1552E2,6.0704E2,5.7984E2,4.36E2,7.386825E1,3.3848E2,1.1079194E2,8.775275E1,2.3384793E2,6.6672E2,7.216E1,4.8344E2,9.9664E2,4.0362966E-1,5.5392E2,9.544E1,3.576E2,1.176E2,2.0712E2,6.2032E2,2E0,5.48E2,1.476E2,-5.1589176E-2,4.5318666E-1,4.8344E2,1E0,1E0,1.2352E2,1.4E1,2E0,9.8448E2,8.5104E2,2.0959131E-1,5E0,4.1936E2,1E0,-3.631748E-3,-1.507431E-1,-3.170485E-2,-3.1775093E-1,3.6152914E-2,4.4261864E-1,-2.4718072E-1,2.718469E-1,-2.9943896E-2,2.9450178E-1,1.6709156E-1,-1.4451465E-1,2.2802322E-1,-1.0941638E-2,1.3649642E-2,-7.977125E-2,-1.6891778E-1,2.3271361E-1,5.4030582E-2,-2.432943E-1,2.8840926E-1,3.6809318E-2,1.9151306E-1,-1.9957413E-1,2.077462E-1,-1.1154619E-2,1.9880071E-1,-1.6584696E-1,4.9038947E-2,-1.8830822E-1,-3.2338914E-3,-2.3662746E-1,-5.8168326E-2,4.1696135E-2,-1.0524646E-1,9.2184775E-2,3.618474E-1,1.3394003E-1,-2.1470165E-1,9.8548375E-2,-1.727333E-1,1.8519174E-1,-3.7789878E-2,2.1683733E-1,1.4139962E-1,-1.7784196E-1,-2.9909894E-1,1.4463029E-4,2.0299347E-1,-2.5137693E-1,-2.588463E-1,-2.979287E-2,1.916101E-1,-1.8417607E-1,1.0739448E-2,1.6100267E-1],"split_indices":[5,6,1,0,0,3,5,5,1,5,2,4,2,5,2,7,3,1,0,4,3,5,5,6,1,1,0,0,0,1,4,0,4,4,4,2,3,2,3,0,1,3,2,3,3,0,13,0,1,0,0,2,10,13,1,6,6,3,3,0,6,2,10,0,0,0,0,0,0,0,0,0,0,0,0,0,0,0,0,0,0,0,0,0,0,0,0,0,0,0,0,0,0,0,0,0,0,0,0,0,0,0,0,0,0,0,0,0,0,0,0,0,0,0,0,0,0,0,0],"split_type":[0,0,0,0,0,0,0,0,0,0,0,0,0,0,0,0,0,0,0,0,0,0,0,0,0,0,0,0,0,0,0,0,0,0,0,0,0,0,0,0,0,0,0,0,0,0,0,0,0,0,0,0,0,0,0,0,0,0,0,0,0,0,0,0,0,0,0,0,0,0,0,0,0,0,0,0,0,0,0,0,0,0,0,0,0,0,0,0,0,0,0,0,0,0,0,0,0,0,0,0,0,0,0,0,0,0,0,0,0,0,0,0,0,0,0,0,0,0,0],"sum_hessian":[1.4263933E3,9.595477E2,4.668456E2,6.527575E2,3.0679025E2,2.0181456E2,2.6503104E2,1.0056014E2,5.521973E2,1.3051626E1,2.9373865E2,1.7073466E2,3.1079884E1,1.9103357E2,7.399748E1,8.692732E1,1.3632823E1,6.464358E1,4.8755374E2,6.256049E0,6.795577E0,6.510797E1,2.2863068E2,1.6817503E2,2.5596383E0,1.6472475E1,1.4607408E1,1.7130365E2,1.9729916E1,1.8129932E1,5.586755E1,7.681036E1,1.01169615E1,4.698216E0,8.934607E0,4.011931E1,2.452427E1,1.4635024E1,4.7291873E2,4.0639257E0,2.1921234E0,2.6269472E0,4.1686296E0,3.2733475E1,3.2374493E1,8.379979E1,1.4483089E2,3.7645794E1,1.3052924E2,1.1587005E0,1.4009378E0,3.032586E0,1.343989E1,6.642915E0,7.964493E0,1.3026987E2,4.1033783E1,1.55494E1,4.1805153E0,1.1955247E0,1.6934408E1,9.457328E0,4.641022E1,5.0765923E1,2.6044437E1,2.9713693E0,7.1455927E0,1.23327E0,3.464946E0,6.4626527E0,2.4719543E0,3.8003708E1,2.1156018E0,1.2336602E0,2.329061E1,8.181973E0,6.453051E0,4.489198E2,2.3998936E1,1.1131501E0,1.0789734E0,1.4033227E0,1.2236243E0,1.2037287E0,2.9649012E0,2.2269223E0,3.0506554E1,1.1450884E1,2.0923609E1,6.9563156E1,1.4236635E1,1.0946612E2,3.5364758E1,2.397411E1,1.3671683E1,4.6321606E1,8.4207634E1,1.8268926E0,1.2056936E0,6.2627373E0,7.1771526E0,4.380597E0,2.262318E0,1.4082981E0,6.5561943E0,1.22097824E2,8.172039E0,2.9030802E0,3.8130703E1,1.4288546E1,1.260855E0,3.0135024E0,1.1670128E0,6.0991693E0,1.0835238E1,2.019783E0,7.437545E0,2.529958E1,2.1110641E1],"tree_param":{"num_deleted":"0","num_feature":"14","num_nodes":"119","size_leaf_vector":"1"}},{"base_weights":[-1.1411187E-2,7.116756E-2,-3.5640117E-2,-6.165973E-1,7.98805E-2,-5.1811527E-2,7.903974E-2,-2.828875E-1,-4.9343027E-2,5.7818472E-2,2.7284795E-1,-8.234917E-2,1.9295024E-2,-1.134236E-1,1.613724E-1,4.2724226E-2,2.8341845E-1,5.6766945E-1,1.13200694E-1,4.7366034E-2,-1.1045093E-1,1.5655199E-1,-5.1599704E-2,2.7577937E-1,-2.7938437E-1,3.6018887E-1,-4.1583918E-2,6.5659076E-2,-1.8614227E-1,5.3796816E-1,-3.8227192E-1,8.208835E-1,-1.58296E-1,-2.5153086E-1,2.737993E-1,-4.3253642E-1,1.0670767E-1,-1.6895643E-1,-5.567139E-2,1.731609E-1,-1.6893838E-1,-4.1683105E-1,-3.3319175E-2,4.7884476E-1,-7.543064E-2,-3.5881642E-2,-4.81809E-1,-1.665256E-1,4.582567E-1,1.4298774E-1,-2.8025463E-1,7.816616E-3,7.9512075E-2,-1.16040625E-1,4.983745E-2,2.7139074E-1,3.1087032E-2,-2.549585E-1,2.4537435E-1,5.5786844E-2,4.0189698E-1,7.2984554E-2,-1.2886456E-1,-2.7760675E-2,1.14255875E-1,3.0880257E-2,-2.4482991E-1,7.7721015E-2,-2.0297084E-2,-5.865691E-2,1.6944152E-1,5.2766398E-2,-4.287216E-2,1.1661891E-1,3.363185E-2,-1.7867078E-1,7.116276E-2,-2.1588696E-2,4.4674568E-2,2.1904033E-1,-1.2951282E-2,1.7485486E-1,-1.1941801E-1,-2.1090569E-1,8.577004E-2,-7.5207977E-3,-2.696011E-1,1.1316239E-1,-1.265705E-1,1.9731095E-1,8.0372885E-2,-2.0058101E-2,1.991549E-1,-1.4966795E-1,1.0301488E-1],"categories":[],"categories_nodes":[],"categories_segments":[],"categories_sizes":[],"default_left":[0,0,0,0,0,0,0,0,0,0,0,0,0,0,0,0,0,0,0,0,0,0,0,0,0,0,0,0,0,0,0,0,0,0,0,0,0,0,0,0,0,0,0,0,0,0,0,0,0,0,0,0,0,0,0,0,0,0,0,0,0,0,0,0,0,0,0,0,0,0,0,0,0,0,0,0,0,0,0,0,0,0,0,0,0,0,0,0,0,0,0,0,0,0,0],"id":8,"left_children":[1,3,5,7,9,11,13,-1,-1,15,17,19,21,23,25,27,29,31,33,35,37,39,41,43,45,47,49,51,53,55,57,59,-1,61,63,65,67,69,71,73,-1,75,77,79,81,83,85,87,89,91,93,-1,-1,-1,-1,-1,-1,-1,-1,-1,-1,-1,-1,-1,-1,-1,-1,-1,-1,-1,-1,-1,-1,-1,-1,-1,-1,-1,-1,-1,-1,-1,-1,-1,-1,-1,-1,-1,-1,-1,-1,-1,-1,-1,-1],"loss_changes":[2.827833E0,1.9707986E0,2.0300388E0,4.537388E-1,1.3360488E0,2.0818634E0,2.1639307E0,0E0,0E0,9.625595E-1,1.4564948E0,2.4489422E0,2.8167276E0,2.7354398E0,3.858353E0,1.4265815E0,3.2171364E0,3.5119972E0,1.3697822E0,3.4656057E0,1.757503E0,1.2755444E0,1.2618841E0,9.494645E-1,1.4293935E0,2.5669756E0,2.1558833E0,1.9327948E0,1.8174999E0,2.0198712E0,3.7819924E0,2.8496509E0,0E0,7.484734E-1,6.587392E-1,2.8385274E0,2.8777208E0,5.297653E0,5.806754E0,1.2343533E0,0E0,1.1958696E0,1.29984E0,1.1138378E0,1.4119406E0,3.293042E0,3.0135982E0,1.3119295E0,1.3771486E0,3.0771592E0,3.0733056E0,0E0,0E0,0E0,0E0,0E0,0E0,0E0,0E0,0E0,0E0,0E0,0E0,0E0,0E0,0E0,0E0,0E0,0E0,0E0,0E0,0E0,0E0,0E0,0E0,0E0,0E0,0E0,0E0,0E0,0E0,0E0,0E0,0E0,0E0,0E0,0E0,0E0,0E0,0E0,0E0,0E0,0E0,0E0,0E0],"parents":[2147483647,0,0,1,1,2,2,3,3,4,4,5,5,6,6,9,9,10,10,11,11,12,12,13,13,14,14,15,15,16,16,17,17,18,18,19,19,20,20,21,21,22,22,23,23,24,24,25,25,26,26,27,27,28,28,29,29,30,30,31,31,33,33,34,34,35,35,36,36,37,37,38,38,39,39,41,41,42,42,43,43,44,44,45,45,46,46,47,47,48,48,49,49,50,50],"right_children":[2,4,6,8,10,12,14,-1,-1,16,18,20,22,24,26,28,30,32,34,36,38,40,42,44,46,48,50,52,54,56,58,60,-1,62,64,66,68,70,72,74,-1,76,78,80,82,84,86,88,90,92,94,-1,-1,-1,-1,-1,-1,-1,-1,-1,-1,-1,-1,-1,-1,-1,-1,-1,-1,-1,-1,-1,-1,-1,-1,-1,-1,-1,-1,-1,-1,-1,-1,-1,-1,-1,-1,-1,-1,-1,-1,-1,-1,-1,-1],"split_conditions":[1.7864E2,1.5686937E1,1E0,8E0,1E0,9.0232E2,4.8656E2,-2.828875E-1,-4.9343027E-2,1.6E1,4.6776E2,3.6568E2,9.58889E1,4.1664E2,6.3512E2,2.8368E2,1.944708E2,1.4E1,5.3344E2,2.6288E2,5E0,2.3E1,1.0279975E2,1.0647111E2,5E0,1.8112E2,5.4216E2,6.1136E2,2.1864854E2,1.5096E2,2.1528E2,1.236E2,-1.58296E-1,4.5376E2,7.704E1,2.0344E2,6E0,1.5E1,5E0,3.968E2,-1.6893838E-1,9.8992E2,2E0,9.1904E2,3.3584E2,4.8496E2,5.9432E2,1.4328E2,1.280753E2,4.4952E2,6.8616E2,7.816616E-3,7.9512075E-2,-1.16040625E-1,4.983745E-2,2.7139074E-1,3.1087032E-2,-2.549585E-1,2.4537435E-1,5.5786844E-2,4.0189698E-1,7.2984554E-2,-1.2886456E-1,-2.7760675E-2,1.14255875E-1,3.0880257E-2,-2.4482991E-1,7.7721015E-2,-2.0297084E-2,-5.865691E-2,1.6944152E-1,5.2766398E-2,-4.287216E-2,1.1661891E-1,3.363185E-2,-1.7867078E-1,7.116276E-2,-2.1588696E-2,4.4674568E-2,2.1904033E-1,-1.2951282E-2,1.7485486E-1,-1.1941801E-1,-2.1090569E-1,8.577004E-2,-7.5207977E-3,-2.696011E-1,1.1316239E-1,-1.265705E-1,1.9731095E-1,8.0372885E-2,-2.0058101E-2,1.991549E-1,-1.4966795E-1,1.0301488E-1],"split_indices":[3,4,11,5,7,1,2,0,0,5,2,2,4,0,2,1,4,5,2,3,5,5,4,4,5,1,1,0,4,1,1,3,0,0,1,3,5,6,6,2,0,3,13,1,2,0,3,1,4,1,0,0,0,0,0,0,0,0,0,0,0,0,0,0,0,0,0,0,0,0,0,0,0,0,0,0,0,0,0,0,0,0,0,0,0,0,0,0,0,0,0,0,0,0,0],"split_type":[0,0,0,0,0,0,0,0,0,0,0,0,0,0,0,0,0,0,0,0,0,0,0,0,0,0,0,0,0,0,0,0,0,0,0,0,0,0,0,0,0,0,0,0,0,0,0,0,0,0,0,0,0,0,0,0,0,0,0,0,0,0,0,0,0,0,0,0,0,0,0,0,0,0,0,0,0,0,0,0,0,0,0,0,0,0,0,0,0,0,0,0,0,0,0],"sum_hessian":[1.4110873E3,3.1966052E2,1.0914268E3,3.1261592E0,3.1653436E2,9.57022E2,1.3440483E2,1.1850802E0,1.9410791E0,2.852242E2,3.1310144E1,6.6938684E2,2.8763513E2,4.015639E1,9.4248436E1,2.6845224E2,1.6771988E1,1.0100928E1,2.1209215E1,1.190726E2,5.503142E2,9.755461E1,1.9008054E2,1.1806548E1,2.8349844E1,4.7218437E1,4.703E1,2.4464893E2,2.3803303E1,1.2271443E1,4.5005455E0,8.407791E0,1.693137E0,6.3107705E0,1.4898445E1,1.2411388E1,1.0666122E2,2.6509927E2,2.8521494E2,9.6096275E1,1.4583354E0,8.021192E0,1.8205934E2,7.2508054E0,4.5557427E0,1.3403557E1,1.4946287E1,7.301986E0,3.991645E1,2.674677E1,2.028323E1,2.0504993E2,3.9599003E1,1.5102511E1,8.70079E0,6.067004E0,6.204439E0,3.4487953E0,1.0517505E0,4.3914905E0,4.0163007E0,1.5727061E0,4.738065E0,3.3998516E0,1.1498593E1,5.4853053E0,6.9260826E0,5.666271E1,4.9998505E1,2.5654434E2,8.554924E0,7.776875E1,2.0744618E2,2.0025259E1,7.607102E1,6.369825E0,1.6513662E0,1.507068E2,3.1352543E1,4.625489E0,2.6253161E0,1.2331376E0,3.3226054E0,3.9758387E0,9.427717E0,7.63788E0,7.3084073E0,2.1810777E0,5.1209087E0,1.8293335E1,2.1623116E1,1.9686846E1,7.059924E0,1.5166202E1,5.1170287E0],"tree_param":{"num_deleted":"0","num_feature":"14","num_nodes":"95","size_leaf_vector":"1"}},{"base_weights":[-8.442176E-3,8.792855E-3,-9.578638E-2,-1.0668049E-2,1.2130075E-1,-2.5473717E-1,-9.00362E-3,1.1375396E-5,-2.13757E-1,7.406188E-2,7.33971E-1,-4.4374377E-1,3.7182236E-1,9.1781974E-1,-4.0745776E-2,-9.209219E-3,2.2004448E-1,-4.810803E-1,-2.4245381E-2,2.1883121E-1,-1.429778E-1,-9.891644E-2,9.8492604E-1,-3.4559795E-1,-1.1082793E0,-3.201262E-1,7.466695E-1,1.1753829E0,-1.51713295E-2,-1.7130375E-1,1.1073808E-1,-2.542112E-1,-2.1449361E-5,8.4926784E-2,1.119251E0,-6.369017E-1,4.7647282E-1,1.0788565E-1,-6.912896E-1,8.355802E-2,1.1194205E0,7.765426E-2,-7.426601E-1,1.0875108E0,9.878973E-2,-4.1148517E-1,3.6247644E-1,-3.5641745E-1,-9.819146E-2,-7.7716887E-1,2.5959542E-1,9.4241095E-1,-1.4755735E-1,4.2636642E-1,8.3243944E-2,1.688651E-1,-5.573134E-1,-1.9706069E-1,4.5968062E-1,-1.5811875E-1,4.8649263E-2,4.720298E-3,-4.4281963E-2,5.9029352E-2,-1.8234098E-1,-2.8680608E-2,4.6452835E-1,-6.0433663E-2,-2.7340508E-1,-3.8737882E-2,2.4687104E-1,2.0768781E-1,3.2514837E-3,-2.9070666E-1,-5.3813934E-2,-2.8273303E-2,9.7221814E-2,3.842671E-1,-8.139281E-2,1.996676E-1,-9.871155E-3,1.0684097E-2,-2.952374E-1,9.041677E-2,3.461013E-1,1.0590134E-2,-1.5974474E-1,2.8391936E-1,-2.3488106E-1,-4.8857123E-2,-2.7855873E-1,3.484151E-1,7.96693E-2,-5.3192146E-2,1.9459866E-1,-2.4270225E-1,1.8653393E-3,1.1361432E-1,-1.6068548E-1,2.8266716E-1,-7.99359E-2],"categories":[],"categories_nodes":[],"categories_segments":[],"categories_sizes":[],"default_left":[0,0,0,0,0,0,0,0,0,0,0,0,0,0,0,0,0,0,0,0,0,0,0,0,0,0,0,0,0,0,0,0,0,0,0,0,0,0,0,0,0,0,0,0,0,0,0,0,0,0,0,0,0,0,0,0,0,0,0,0,0,0,0,0,0,0,0,0,0,0,0,0,0,0,0,0,0,0,0,0,0,0,0,0,0,0,0,0,0,0,0,0,0,0,0,0,0,0,0,0,0],"id":9,"left_children":[1,3,5,7,9,11,13,15,17,19,21,23,25,27,29,31,33,35,37,39,41,-1,43,45,47,49,51,53,-1,55,57,59,61,63,65,67,69,71,73,75,77,79,81,83,-1,85,87,-1,-1,89,-1,91,-1,-1,-1,93,95,97,99,-1,-1,-1,-1,-1,-1,-1,-1,-1,-1,-1,-1,-1,-1,-1,-1,-1,-1,-1,-1,-1,-1,-1,-1,-1,-1,-1,-1,-1,-1,-1,-1,-1,-1,-1,-1,-1,-1,-1,-1,-1,-1],"loss_changes":[2.1142442E0,2.5705638E0,3.1903942E0,2.1717453E0,4.9561806E0,9.840506E0,4.4723487E0,1.9340851E0,2.5226E0,5.1165295E0,3.6029449E0,3.740528E0,5.2912703E0,1.3151422E0,2.9206123E0,2.0595837E0,4.5634117E0,3.3918662E0,2.747374E0,1.1782138E1,8.705763E0,0E0,3.2704926E-1,2.7869635E0,8.982372E-2,4.7599454E0,3.5992112E0,4.9257135E-1,0E0,1.0492789E1,7.450139E0,3.8426583E0,2.0553129E0,2.7858453E0,2.7167034E0,1.9950633E0,8.3403075E-1,1.477104E0,5.582051E-1,3.7010503E0,3.1880684E0,3.1865094E0,3.3565664E0,8.78582E-2,0E0,2.8405056E0,4.3158636E0,0E0,0E0,4.040525E-1,0E0,1.397788E0,0E0,0E0,0E0,7.2342987E0,5.299734E0,7.436302E0,1.1608877E1,0E0,0E0,0E0,0E0,0E0,0E0,0E0,0E0,0E0,0E0,0E0,0E0,0E0,0E0,0E0,0E0,0E0,0E0,0E0,0E0,0E0,0E0,0E0,0E0,0E0,0E0,0E0,0E0,0E0,0E0,0E0,0E0,0E0,0E0,0E0,0E0,0E0,0E0,0E0,0E0,0E0,0E0],"parents":[2147483647,0,0,1,1,2,2,3,3,4,4,5,5,6,6,7,7,8,8,9,9,10,10,11,11,12,12,13,13,14,14,15,15,16,16,17,17,18,18,19,19,20,20,22,22,23,23,24,24,25,25,26,26,27,27,29,29,30,30,31,31,32,32,33,33,34,34,35,35,36,36,37,37,38,38,39,39,40,40,41,41,42,42,43,43,45,45,46,46,49,49,51,51,55,55,56,56,57,57,58,58],"right_children":[2,4,6,8,10,12,14,16,18,20,22,24,26,28,30,32,34,36,38,40,42,-1,44,46,48,50,52,54,-1,56,58,60,62,64,66,68,70,72,74,76,78,80,82,84,-1,86,88,-1,-1,90,-1,92,-1,-1,-1,94,96,98,100,-1,-1,-1,-1,-1,-1,-1,-1,-1,-1,-1,-1,-1,-1,-1,-1,-1,-1,-1,-1,-1,-1,-1,-1,-1,-1,-1,-1,-1,-1,-1,-1,-1,-1,-1,-1,-1,-1,-1,-1,-1,-1],"split_conditions":[1.3E1,6.3056E2,1.4E1,2.8542532E2,1.3E1,2E0,1.5E1,2.4886452E2,5.5392E2,6E0,1.2721927E2,6.584E2,2.3672E2,4.948E2,4.9888E2,2.876E2,1.2E1,5.8696E2,1.3E1,6E0,8.5104E2,-9.891644E-2,8.3072E2,6.2888E2,9.044E2,2.0184E2,6.4304E2,1E0,-1.51713295E-2,1.2E1,1.2E1,6E0,6.3232E2,1E1,1.3728E2,4.6528E2,4.712E2,2.9952E2,3.3728E2,6.1552E2,6.9224E2,6.408E2,4.1744E2,1.9272E2,9.878973E-2,6.7258354E1,2.145683E2,-3.5641745E-1,-9.819146E-2,4.3904E2,2.5959542E-1,8.5824E2,-1.4755735E-1,4.2636642E-1,8.3243944E-2,1.3274757E2,8.8136E2,1.2182348E2,6.2552E2,-1.5811875E-1,4.8649263E-2,4.720298E-3,-4.4281963E-2,5.9029352E-2,-1.8234098E-1,-2.8680608E-2,4.6452835E-1,-6.0433663E-2,-2.7340508E-1,-3.8737882E-2,2.4687104E-1,2.0768781E-1,3.2514837E-3,-2.9070666E-1,-5.3813934E-2,-2.8273303E-2,9.7221814E-2,3.842671E-1,-8.139281E-2,1.996676E-1,-9.871155E-3,1.0684097E-2,-2.952374E-1,9.041677E-2,3.461013E-1,1.0590134E-2,-1.5974474E-1,2.8391936E-1,-2.3488106E-1,-4.8857123E-2,-2.7855873E-1,3.484151E-1,7.96693E-2,-5.3192146E-2,1.9459866E-1,-2.4270225E-1,1.8653393E-3,1.1361432E-1,-1.6068548E-1,2.8266716E-1,-7.99359E-2],"split_indices":[5,2,5,4,6,13,5,4,1,5,4,2,3,2,0,0,5,2,6,6,3,0,1,2,3,1,0,10,0,6,6,6,0,5,1,1,3,2,2,0,0,2,0,3,0,4,4,0,0,2,0,3,0,0,0,4,1,4,2,0,0,0,0,0,0,0,0,0,0,0,0,0,0,0,0,0,0,0,0,0,0,0,0,0,0,0,0,0,0,0,0,0,0,0,0,0,0,0,0,0,0],"split_type":[0,0,0,0,0,0,0,0,0,0,0,0,0,0,0,0,0,0,0,0,0,0,0,0,0,0,0,0,0,0,0,0,0,0,0,0,0,0,0,0,0,0,0,0,0,0,0,0,0,0,0,0,0,0,0,0,0,0,0,0,0,0,0,0,0,0,0,0,0,0,0,0,0,0,0,0,0,0,0,0,0,0,0,0,0,0,0,0,0,0,0,0,0,0,0,0,0,0,0,0,0],"sum_hessian":[1.4028993E3,1.1724476E3,2.3045169E2,1.0003232E3,1.721244E2,8.070237E1,1.4974933E2,9.5129913E2,4.9024082E1,1.6084372E2,1.1280689E1,6.2223835E1,1.8478529E1,4.0344543E0,1.4571487E2,9.1395746E2,3.734169E1,1.9698723E1,2.932536E1,9.648095E1,6.436277E1,2.0934734E0,9.187216E0,5.5540997E1,6.682838E0,6.5442185E0,1.1934311E1,3.0180066E0,1.016448E0,7.8192764E1,6.75221E1,3.2071346E1,8.818861E2,3.3415077E1,3.9266117E0,1.7229805E1,2.4689188E0,2.5176544E1,4.1488166E0,8.483159E1,1.16493635E1,4.768811E1,1.6674658E1,7.374593E0,1.8126228E0,5.119601E1,4.344986E0,5.590501E0,1.0923371E0,4.971779E0,1.5724399E0,1.0512037E1,1.4222741E0,1.9117596E0,1.106247E0,4.1863407E1,3.632936E1,3.610739E1,3.1414713E1,1.9214336E1,1.2857012E1,7.97627E2,8.425906E1,2.9386702E1,4.028375E0,1.2279496E0,2.698662E0,7.331392E0,9.898413E0,1.1266596E0,1.3422593E0,2.7119524E0,2.246459E1,2.1107116E0,2.038105E0,4.9124252E1,3.5707336E1,1.0508286E1,1.1410768E0,6.753844E0,4.0934265E1,4.1502695E0,1.2524388E1,1.0037223E0,6.37087E0,1.1061051E1,4.013496E1,2.9929545E0,1.3520315E0,1.3932158E0,3.578563E0,7.4016037E0,3.1104336E0,2.4684244E1,1.7179161E1,2.4811853E1,1.1517508E1,1.3325866E1,2.2781527E1,1.869415E1,1.2720561E1],"tree_param":{"num_deleted":"0","num_feature":"14","num_nodes":"101","size_leaf_vector":"1"}},{"base_weights":[-8.301592E-3,-1.1591287E-2,6.8145984E-1,-2.6806619E-2,6.2915996E-2,2.956397E-1,3.6229765E-1,6.1686337E-3,-9.197256E-2,-3.0367093E-2,1.7877948E-1,-2.4191548E-1,8.8774645E-1,4.0061183E-2,-1.13382205E-1,-2.8370988E-1,-3.0914912E-2,-1.6834262E-1,1.3499074E-1,4.8170665E-1,2.4376394E-2,3.4857413E-1,5.555631E-2,6.7796335E-2,-1.2688668E-1,5.262598E-1,-1.510696E-1,5.5027492E-2,-5.2422273E-1,-7.764255E-1,-1.2990746E-2,-2.3105048E-1,1.6221824E-1,3.4177133E-1,6.512235E-2,8.190657E-1,-2.3893937E-2,2.009748E-1,-4.4049639E-1,3.0189935E-2,-2.7543982E-2,-1.4222345E-1,-5.000861E-3,3.0403508E-2,2.239243E-1,-7.1807094E-2,4.099116E-2,-2.2018778E-1,7.012646E-2,-2.1200033E-1,5.950984E-2,-8.963397E-2,-3.328896E-1,1.148936E-2,-6.7549415E-2,-8.491458E-2,1.380356E-1,-8.132829E-2,1.735155E-1,2.6637474E-1,1.6779192E-3,-1.4646268E-1,3.0059475E-1,-6.989248E-2,3.2964635E-1,-1.0948636E-2,1.5706885E-1,-2.596027E-1,-1.4006676E-2],"categories":[],"categories_nodes":[],"categories_segments":[],"categories_sizes":[],"default_left":[0,0,0,0,0,0,0,0,0,0,0,0,0,0,0,0,0,0,0,0,0,0,0,0,0,0,0,0,0,0,0,0,0,0,0,0,0,0,0,0,0,0,0,0,0,0,0,0,0,0,0,0,0,0,0,0,0,0,0,0,0,0,0,0,0,0,0,0,0],"id":10,"left_children":[1,3,5,7,9,-1,11,13,15,17,19,-1,21,23,25,27,29,31,33,35,37,-1,-1,39,41,43,45,47,49,51,53,55,57,-1,59,61,63,65,67,-1,-1,-1,-1,-1,-1,-1,-1,-1,-1,-1,-1,-1,-1,-1,-1,-1,-1,-1,-1,-1,-1,-1,-1,-1,-1,-1,-1,-1,-1],"loss_changes":[3.1410437E0,1.5607015E0,2.8052092E-1,2.456081E0,2.5292306E0,0E0,3.6554255E0,3.082735E0,4.4868355E0,2.9936292E0,4.8664293E0,0E0,5.1257944E-1,2.752682E0,4.1308837E0,7.5752754E0,3.8969066E0,1.518136E0,4.1206493E0,6.016526E0,5.846424E0,0E0,0E0,2.6761854E0,3.2361927E0,8.199928E-1,4.0838404E0,5.722601E0,7.2937202E0,7.5829315E-1,3.126716E0,2.3028772E0,2.3166552E0,0E0,2.7848053E0,5.5385275E0,3.7870226E0,3.9653645E0,3.242502E0,0E0,0E0,0E0,0E0,0E0,0E0,0E0,0E0,0E0,0E0,0E0,0E0,0E0,0E0,0E0,0E0,0E0,0E0,0E0,0E0,0E0,0E0,0E0,0E0,0E0,0E0,0E0,0E0,0E0,0E0],"parents":[2147483647,0,0,1,1,2,2,3,3,4,4,6,6,7,7,8,8,9,9,10,10,12,12,13,13,14,14,15,15,16,16,17,17,18,18,19,19,20,20,23,23,24,24,25,25,26,26,27,27,28,28,29,29,30,30,31,31,32,32,34,34,35,35,36,36,37,37,38,38],"right_children":[2,4,6,8,10,-1,12,14,16,18,20,-1,22,24,26,28,30,32,34,36,38,-1,-1,40,42,44,46,48,50,52,54,56,58,-1,60,62,64,66,68,-1,-1,-1,-1,-1,-1,-1,-1,-1,-1,-1,-1,-1,-1,-1,-1,-1,-1,-1,-1,-1,-1,-1,-1,-1,-1,-1,-1,-1,-1],"split_conditions":[8.6872E2,9.2712E2,6E0,1.1E1,6E0,2.956397E-1,1.2E1,2E0,1.2E1,2E0,6E0,-2.4191548E-1,7.8456E2,8.6736E2,3.3384E2,2.6392E2,2.7776E2,1E0,2E0,4.8936E2,1.3E1,3.4857413E-1,5.555631E-2,2.145683E2,4.0208E2,2E0,6E0,3.8888E2,2E0,1.3528E2,6.2544E2,5E0,9.7992E2,3.4177133E-1,3.4272E2,2E0,6.4216E2,4.7872E2,1.4E1,3.0189935E-2,-2.7543982E-2,-1.4222345E-1,-5.000861E-3,3.0403508E-2,2.239243E-1,-7.1807094E-2,4.099116E-2,-2.2018778E-1,7.012646E-2,-2.1200033E-1,5.950984E-2,-8.963397E-2,-3.328896E-1,1.148936E-2,-6.7549415E-2,-8.491458E-2,1.380356E-1,-8.132829E-2,1.735155E-1,2.6637474E-1,1.6779192E-3,-1.4646268E-1,3.0059475E-1,-6.989248E-2,3.2964635E-1,-1.0948636E-2,1.5706885E-1,-2.596027E-1,-1.4006676E-2],"split_indices":[0,3,5,5,5,0,5,13,5,12,6,0,1,3,2,1,2,9,6,0,5,0,0,4,0,12,5,2,13,1,0,5,3,0,0,6,2,0,6,0,0,0,0,0,0,0,0,0,0,0,0,0,0,0,0,0,0,0,0,0,0,0,0,0,0,0,0,0,0],"split_type":[0,0,0,0,0,0,0,0,0,0,0,0,0,0,0,0,0,0,0,0,0,0,0,0,0,0,0,0,0,0,0,0,0,0,0,0,0,0,0,0,0,0,0,0,0,0,0,0,0,0,0,0,0,0,0,0,0,0,0,0,0,0,0,0,0,0,0,0,0],"sum_hessian":[1.3797844E3,1.3742136E3,5.5708737E0,1.1417035E3,2.325101E2,1.783963E0,3.7869108E0,7.5869446E2,3.8300903E2,1.2921526E2,1.03294846E2,1.0087125E0,2.7781982E0,5.916322E2,1.6706226E2,9.1627525E1,2.913815E2,7.043E1,5.878525E1,3.4158554E1,6.91363E1,1.5280565E0,1.2501419E0,5.078557E2,8.377648E1,8.574216E0,1.5848804E2,3.8365257E1,5.3262268E1,5.847611E0,2.8553387E2,5.9452766E1,1.0977238E1,2.8282447E0,5.595701E1,2.011617E1,1.4042382E1,5.0514317E1,1.8621979E1,4.2150766E2,8.634804E1,1.9391293E1,6.4385185E1,3.4246743E0,5.1495414E0,1.21401985E2,3.708606E1,6.511933E0,3.1853325E1,4.2542767E1,1.07195015E1,3.182391E0,2.6652198E0,2.3060858E2,5.4925297E1,5.5842125E1,3.6106427E0,5.548615E0,5.4286222E0,2.836484E0,5.3120525E1,2.2643342E0,1.7851835E1,1.2505919E1,1.5364628E0,2.9606571E1,2.0907747E1,8.381984E0,1.0239994E1],"tree_param":{"num_deleted":"0","num_feature":"14","num_nodes":"69","size_leaf_vector":"1"}},{"base_weights":[5.7852166E-3,5.4794654E-2,-4.0417958E-2,8.280098E-2,-1.6815639E-1,-6.0179815E-2,1.3943961E-1,6.6455096E-2,4.1054475E-1,-6.650157E-1,-6.995007E-2,-1.7177273E-1,-2.3168005E-2,3.7777787E-1,-4.241878E-2,5.015409E-2,3.645866E-1,2.6198784E-1,1.0795274E0,-2.932716E-1,-1.1990323E0,-1.6891362E-1,5.025179E-1,-3.8762063E-2,-7.897183E-1,-2.9443496E-1,3.738613E-2,7.5746006E-1,2.9281138E-2,2.0908815E-1,-4.3110955E-1,1.4856875E-1,-3.243043E-3,-2.540354E-1,4.8391986E-1,3.9643174E-1,-6.1050546E-1,5.889575E-2,3.953301E-1,-6.6981924E-1,1.5122588E-5,-4.2766097E-1,-9.1726914E-2,-5.066621E-1,-2.489307E-2,3.3472586E-1,-2.4554794E-1,-1.8950152E-1,5.240987E-1,-9.132764E-1,2.4692485E-1,-1.8317817E-1,-6.751479E-1,1.5914585E-1,-9.172958E-2,9.306299E-1,-8.907266E-2,3.8985884E-1,-3.111388E-1,-1.9488245E-2,3.88243E-1,-8.2371414E-1,-1.1802126E-1,3.407049E-2,2.3604225E-1,4.2865495E-3,-1.2389703E-1,-1.9057938E-1,7.217263E-2,1.6864383E-1,-7.675277E-2,2.2722133E-1,4.5147106E-2,-2.529424E-1,-2.087092E-2,-2.397167E-1,-6.83246E-2,-1.2553905E-1,1.9671305E-1,1.3596612E-1,-1.9933723E-1,1.1842871E-1,-4.504495E-2,-2.7801445E-1,1.0247735E-1,-9.050075E-3,-2.3751529E-1,-1.1309772E-1,2.5391838E-1,6.257748E-3,-3.159003E-1,1.3791828E-1,-2.7341777E-2,-6.853582E-2,1.292518E-1,-2.3563467E-1,1.753018E-1,2.4514632E-2,1.17266126E-1,-6.666119E-2,4.5289084E-2,1.9936683E-3,3.180938E-1,-4.559936E-2,2.3851529E-1,5.7659183E-2,-2.3856555E-1,1.2264185E-1,-1.2225933E-1,-3.8008276E-2,-3.126961E-1,-8.8787176E-2,9.607222E-2],"categories":[],"categories_nodes":[],"categories_segments":[],"categories_sizes":[],"default_left":[0,0,0,0,0,0,0,0,0,0,0,0,0,0,0,0,0,0,0,0,0,0,0,0,0,0,0,0,0,0,0,0,0,0,0,0,0,0,0,0,0,0,0,0,0,0,0,0,0,0,0,0,0,0,0,0,0,0,0,0,0,0,0,0,0,0,0,0,0,0,0,0,0,0,0,0,0,0,0,0,0,0,0,0,0,0,0,0,0,0,0,0,0,0,0,0,0,0,0,0,0,0,0,0,0,0,0,0,0,0,0,0,0],"id":11,"left_children":[1,3,5,7,9,11,13,15,17,19,21,23,25,27,29,31,33,35,37,39,41,43,45,47,49,51,53,55,57,59,61,63,65,67,69,71,73,-1,-1,75,77,-1,-1,79,81,-1,83,85,87,89,91,93,95,97,99,101,-1,103,105,107,-1,109,111,-1,-1,-1,-1,-1,-1,-1,-1,-1,-1,-1,-1,-1,-1,-1,-1,-1,-1,-1,-1,-1,-1,-1,-1,-1,-1,-1,-1,-1,-1,-1,-1,-1,-1,-1,-1,-1,-1,-1,-1,-1,-1,-1,-1,-1,-1,-1,-1,-1,-1],"loss_changes":[3.12261E0,4.192003E0,2.5315936E0,3.1609693E0,3.61326E0,2.6406963E0,3.0752158E0,2.7423437E0,2.507647E0,2.0823054E0,3.6961398E0,1.3064678E1,7.9284153E0,4.03302E0,4.0916147E0,2.8369508E0,2.2851577E0,3.09204E0,7.4743795E-1,9.4450396E-1,5.167556E-1,2.6674151E0,4.699328E0,1.1312055E1,3.8334217E0,3.6067858E0,6.223214E0,2.9470186E0,2.2104876E0,6.3559036E0,1.9195538E0,4.1521325E0,2.526498E0,1.1695688E0,1.5846109E0,1.8088458E0,3.99117E-1,0E0,0E0,3.195584E-2,1.8679906E0,0E0,0E0,2.7880235E0,2.1448996E0,0E0,2.3823538E0,1.0048712E1,8.503563E0,3.334732E0,3.14338E-1,2.031241E0,3.174179E0,3.6217213E0,6.1229563E0,1.5273848E0,0E0,2.033007E0,2.4214935E0,3.8343618E0,0E0,9.5161676E-1,8.9762366E-1,0E0,0E0,0E0,0E0,0E0,0E0,0E0,0E0,0E0,0E0,0E0,0E0,0E0,0E0,0E0,0E0,0E0,0E0,0E0,0E0,0E0,0E0,0E0,0E0,0E0,0E0,0E0,0E0,0E0,0E0,0E0,0E0,0E0,0E0,0E0,0E0,0E0,0E0,0E0,0E0,0E0,0E0,0E0,0E0,0E0,0E0,0E0,0E0,0E0,0E0],"parents":[2147483647,0,0,1,1,2,2,3,3,4,4,5,5,6,6,7,7,8,8,9,9,10,10,11,11,12,12,13,13,14,14,15,15,16,16,17,17,18,18,19,19,20,20,21,21,22,22,23,23,24,24,25,25,26,26,27,27,28,28,29,29,30,30,31,31,32,32,33,33,34,34,35,35,36,36,39,39,40,40,43,43,44,44,46,46,47,47,48,48,49,49,50,50,51,51,52,52,53,53,54,54,55,55,57,57,58,58,59,59,61,61,62,62],"right_children":[2,4,6,8,10,12,14,16,18,20,22,24,26,28,30,32,34,36,38,40,42,44,46,48,50,52,54,56,58,60,62,64,66,68,70,72,74,-1,-1,76,78,-1,-1,80,82,-1,84,86,88,90,92,94,96,98,100,102,-1,104,106,108,-1,110,112,-1,-1,-1,-1,-1,-1,-1,-1,-1,-1,-1,-1,-1,-1,-1,-1,-1,-1,-1,-1,-1,-1,-1,-1,-1,-1,-1,-1,-1,-1,-1,-1,-1,-1,-1,-1,-1,-1,-1,-1,-1,-1,-1,-1,-1,-1,-1,-1,-1,-1],"split_conditions":[5E0,9.6616E2,9.6128E2,9.4088E2,9.7832E2,5E0,9.8264E2,7.0064E2,5.1128E2,4.8256E2,6E0,6.4488E2,3.6584E2,2E0,1.2E1,4.1304E2,2.5248E2,5.0632E2,4.4984E2,8.796E2,5.0864E2,3.792E2,4.6144E2,2E0,8.0424E2,3.4272E2,4.948E2,1E0,1E0,1.2E1,9.037132E1,1.4E1,1.4E1,7.6704E2,9.0896E2,9.524E2,9.584E2,5.889575E-2,3.953301E-1,4.7416E2,2E0,-4.2766097E-1,-9.1726914E-2,2E0,4.0304E2,3.3472586E-1,4.9888E2,8.9456E2,2E0,2E0,1E0,9.292E2,9.4712E2,4.6192E2,6.1784E2,8.0464E2,-8.907266E-2,8E0,9.7624E2,5E0,3.88243E-1,5E0,1.7E1,3.407049E-2,2.3604225E-1,4.2865495E-3,-1.2389703E-1,-1.9057938E-1,7.217263E-2,1.6864383E-1,-7.675277E-2,2.2722133E-1,4.5147106E-2,-2.529424E-1,-2.087092E-2,-2.397167E-1,-6.83246E-2,-1.2553905E-1,1.9671305E-1,1.3596612E-1,-1.9933723E-1,1.1842871E-1,-4.504495E-2,-2.7801445E-1,1.0247735E-1,-9.050075E-3,-2.3751529E-1,-1.1309772E-1,2.5391838E-1,6.257748E-3,-3.159003E-1,1.3791828E-1,-2.7341777E-2,-6.853582E-2,1.292518E-1,-2.3563467E-1,1.753018E-1,2.4514632E-2,1.17266126E-1,-6.666119E-2,4.5289084E-2,1.9936683E-3,3.180938E-1,-4.559936E-2,2.3851529E-1,5.7659183E-2,-2.3856555E-1,1.2264185E-1,-1.2225933E-1,-3.8008276E-2,-3.126961E-1,-8.8787176E-2,9.607222E-2],"split_indices":[5,3,3,3,3,6,3,0,2,2,6,0,0,12,5,0,1,2,0,1,2,0,0,13,2,0,2,7,10,6,4,6,6,0,3,3,3,0,0,0,12,0,0,6,2,0,0,1,6,6,10,3,1,2,0,1,0,5,1,6,0,6,5,0,0,0,0,0,0,0,0,0,0,0,0,0,0,0,0,0,0,0,0,0,0,0,0,0,0,0,0,0,0,0,0,0,0,0,0,0,0,0,0,0,0,0,0,0,0,0,0,0,0],"split_type":[0,0,0,0,0,0,0,0,0,0,0,0,0,0,0,0,0,0,0,0,0,0,0,0,0,0,0,0,0,0,0,0,0,0,0,0,0,0,0,0,0,0,0,0,0,0,0,0,0,0,0,0,0,0,0,0,0,0,0,0,0,0,0,0,0,0,0,0,0,0,0,0,0,0,0,0,0,0,0,0,0,0,0,0,0,0,0,0,0,0,0,0,0,0,0,0,0,0,0,0,0,0,0,0,0,0,0,0,0,0,0,0,0],"sum_hessian":[1.3770282E3,6.6813086E2,7.0889734E2,5.9412726E2,7.4003555E1,6.3931775E2,6.957964E1,5.670491E2,2.707822E1,1.1260619E1,6.274293E1,1.5832298E2,4.8099472E2,2.9647366E1,3.993228E1,5.387594E2,2.8289642E1,2.3296524E1,3.7816973E0,7.552377E0,3.7082422E0,5.409617E1,8.646763E0,1.3115504E2,2.7167948E1,8.7072044E1,3.939227E2,1.362721E1,1.6020155E1,2.4525099E1,1.5407183E1,1.8887225E2,3.4988718E2,4.3921266E0,2.3897516E1,2.0658808E1,2.6377158E0,1.190879E0,2.5908184E0,2.7446778E0,4.8076997E0,2.4828296E0,1.2254128E0,1.54188385E1,3.867733E1,4.4814935E0,4.1652694E0,1.0397332E2,2.718172E1,2.4380972E1,2.7869773E0,6.8527275E1,1.8544767E1,2.026168E2,1.913059E2,1.1805612E1,1.8215988E0,7.7092147E0,8.310941E0,2.1068808E1,3.4562905E0,6.111983E0,9.295199E0,1.8016985E2,8.702417E0,3.3645657E2,1.3430587E1,2.319761E0,2.0723655E0,2.1829277E1,2.0682387E0,7.528896E0,1.3129911E1,1.4538138E0,1.1839021E0,1.4989421E0,1.2457356E0,3.155557E0,1.6521425E0,1.9125328E0,1.3506306E1,8.396017E0,3.0281315E1,1.6604959E0,2.5047734E0,8.305E1,2.0923315E1,7.1161947E0,2.0065525E1,3.2830014E0,2.109797E1,1.4894953E0,1.2974819E0,6.440622E1,4.121053E0,1.7397533E1,1.1472337E0,1.5288635E2,4.9730457E1,1.2447257E2,6.683331E1,1.58239E0,1.0223221E1,3.5657158E0,4.143499E0,4.3700333E0,3.9409075E0,9.989544E0,1.1079265E1,1.8363584E0,4.2756243E0,6.8420177E0,2.453182E0],"tree_param":{"num_deleted":"0","num_feature":"14","num_nodes":"113","size_leaf_vector":"1"}},{"base_weights":[1.9514225E-2,6.931465E-2,-3.2446475E-3,5.3866904E-2,5.114643E-1,1.7235336E-1,-1.8126862E-2,-7.875042E-3,1.6625012E-1,4.1849288E-1,2.7137002E-1,2.2758015E-1,-1.6896829E-1,-3.2223043E-1,-8.807304E-3,-3.986542E-1,1.1768505E-2,1.8953374E-1,-2.7560964E-1,6.7544097E-1,-8.027984E-2,1.8337981E-1,3.1821853E-1,-2.543312E-1,2.2248816E-1,-6.3669866E-1,-9.5153145E-2,6.143054E-2,-4.1984376E-2,-6.785421E-1,1.5180844E-1,-1.3816667E-2,2.1726306E-1,6.66606E-2,3.3373082E-1,8.553001E-1,-1.2100606E-2,3.971195E-1,-3.594945E-1,2.4083652E-1,-3.2086587E-1,4.5786163E-1,-1.4335991E-1,-9.746926E-2,-9.208557E-1,2.4208598E-2,-1.9807868E-1,3.1972912E-1,2.345122E-2,4.4220713E-1,-4.808749E-2,5.204301E-2,-2.5244647E-1,-5.2769866E-2,1.66616E-1,-8.32274E-3,1.2795344E-1,1.0353585E-3,2.2439294E-1,3.6074292E-2,-2.6880872E-1,1.9259506E-1,4.462125E-2,3.3605468E-1,3.613272E-2,1.702314E-1,6.113572E-3,-1.998275E-1,4.5468867E-2,8.10791E-2,-1.61205E-1,-1.6775884E-1,6.676034E-2,2.7155923E-2,1.9394295E-1,-1.8248735E-1,9.236712E-2,-7.973938E-2,-3.7993625E-1,-8.972293E-2,6.773348E-2,1.1559347E-2,2.0106712E-1,1.2065862E-1,7.578617E-4,-6.263639E-2,1.8462618E-1,-6.0318854E-2,-7.4869036E-3],"categories":[],"categories_nodes":[],"categories_segments":[],"categories_sizes":[],"default_left":[0,0,0,0,0,0,0,0,0,0,0,0,0,0,0,0,0,0,0,0,0,0,0,0,0,0,0,0,0,0,0,0,0,0,0,0,0,0,0,0,0,0,0,0,0,0,0,0,0,0,0,0,0,0,0,0,0,0,0,0,0,0,0,0,0,0,0,0,0,0,0,0,0,0,0,0,0,0,0,0,0,0,0,0,0,0,0,0,0],"id":12,"left_children":[1,3,5,7,9,11,13,15,17,-1,19,21,23,25,27,29,31,33,-1,35,37,39,-1,-1,41,43,45,47,49,51,53,55,57,59,61,63,-1,65,67,69,71,73,-1,75,77,79,-1,81,83,85,87,-1,-1,-1,-1,-1,-1,-1,-1,-1,-1,-1,-1,-1,-1,-1,-1,-1,-1,-1,-1,-1,-1,-1,-1,-1,-1,-1,-1,-1,-1,-1,-1,-1,-1,-1,-1,-1,-1],"loss_changes":[1.5638065E0,2.92824E0,2.4799862E0,2.9104595E0,2.6954293E0,1.4361212E0,2.4760146E0,2.089208E0,3.930725E0,0E0,1.8497332E0,2.1713789E0,3.0850308E0,1.7945669E0,1.9825528E0,2.1098428E0,1.3674941E0,2.5718904E0,0E0,8.051443E-1,1.162507E0,1.8798904E0,0E0,0E0,1.4890025E0,1.5524879E0,1.1128669E0,2.6705637E0,1.7283432E0,1.3701954E0,7.864486E-1,1.4327964E0,3.2648275E0,4.2502975E0,3.7315426E0,8.050566E-1,0E0,2.0007461E-1,9.395344E-1,1.4373581E0,1.0042083E0,3.764534E-1,0E0,1.1847616E0,1.2255898E0,1.0052696E0,0E0,3.4153717E0,1.8937285E0,9.503981E-1,2.016836E0,0E0,0E0,0E0,0E0,0E0,0E0,0E0,0E0,0E0,0E0,0E0,0E0,0E0,0E0,0E0,0E0,0E0,0E0,0E0,0E0,0E0,0E0,0E0,0E0,0E0,0E0,0E0,0E0,0E0,0E0,0E0,0E0,0E0,0E0,0E0,0E0,0E0,0E0],"parents":[2147483647,0,0,1,1,2,2,3,3,4,4,5,5,6,6,7,7,8,8,10,10,11,11,12,12,13,13,14,14,15,15,16,16,17,17,19,19,20,20,21,21,24,24,25,25,26,26,27,27,28,28,29,29,30,30,31,31,32,32,33,33,34,34,35,35,37,37,38,38,39,39,40,40,41,41,43,43,44,44,45,45,47,47,48,48,49,49,50,50],"right_children":[2,4,6,8,10,12,14,16,18,-1,20,22,24,26,28,30,32,34,-1,36,38,40,-1,-1,42,44,46,48,50,52,54,56,58,60,62,64,-1,66,68,70,72,74,-1,76,78,80,-1,82,84,86,88,-1,-1,-1,-1,-1,-1,-1,-1,-1,-1,-1,-1,-1,-1,-1,-1,-1,-1,-1,-1,-1,-1,-1,-1,-1,-1,-1,-1,-1,-1,-1,-1,-1,-1,-1,-1,-1,-1],"split_conditions":[9.918403E1,6.9224E2,3.0536E2,8.3584E2,6.3736E2,1.5E1,1.0279975E2,1.9375366E1,2.3E1,4.1849288E-1,5E0,1.7E1,1.6E1,4.4208E2,2.3216E2,8E0,9.249779E1,6E0,-2.7560964E-1,1E0,6.7432E2,8.34E2,3.1821853E-1,-2.543312E-1,2.908E2,3.7632E2,1.0222642E2,3.8048E2,1.0296E2,3.3736E2,2.2072E2,1.7E1,8E0,5E0,5.121406E1,7.6368E2,-1.2100606E-2,8E0,1.2E1,9.3952E2,6.2464E2,3.7112E2,-1.4335991E-1,5E0,1.392E2,1.00728386E2,-1.9807868E-1,3.6128E2,1.089479E2,4.6456E2,3.5288E2,5.204301E-2,-2.5244647E-1,-5.2769866E-2,1.66616E-1,-8.32274E-3,1.2795344E-1,1.0353585E-3,2.2439294E-1,3.6074292E-2,-2.6880872E-1,1.9259506E-1,4.462125E-2,3.3605468E-1,3.613272E-2,1.702314E-1,6.113572E-3,-1.998275E-1,4.5468867E-2,8.10791E-2,-1.61205E-1,-1.6775884E-1,6.676034E-2,2.7155923E-2,1.9394295E-1,-1.8248735E-1,9.236712E-2,-7.973938E-2,-3.7993625E-1,-8.972293E-2,6.773348E-2,1.1559347E-2,2.0106712E-1,1.2065862E-1,7.578617E-4,-6.263639E-2,1.8462618E-1,-6.0318854E-2,-7.4869036E-3],"split_indices":[4,0,0,1,2,5,4,4,5,0,5,6,5,0,3,5,4,5,0,9,2,1,0,0,0,0,4,0,1,0,3,6,5,5,4,1,0,5,6,3,2,2,0,5,3,4,0,0,4,0,3,0,0,0,0,0,0,0,0,0,0,0,0,0,0,0,0,0,0,0,0,0,0,0,0,0,0,0,0,0,0,0,0,0,0,0,0,0,0],"split_type":[0,0,0,0,0,0,0,0,0,0,0,0,0,0,0,0,0,0,0,0,0,0,0,0,0,0,0,0,0,0,0,0,0,0,0,0,0,0,0,0,0,0,0,0,0,0,0,0,0,0,0,0,0,0,0,0,0,0,0,0,0,0,0,0,0,0,0,0,0,0,0,0,0,0,0,0,0,0,0,0,0,0,0,0,0,0,0,0,0],"sum_hessian":[1.3785477E3,4.317522E2,9.4679553E2,4.182609E2,1.3491298E1,7.314641E1,8.736491E2,2.705526E2,1.4770831E2,1.8550105E0,1.1636287E1,6.324623E1,9.900178E0,2.4979376E1,8.4866974E2,1.2025656E1,2.5852695E2,1.4541296E2,2.2953384E0,4.9861107E0,6.650176E0,6.121856E1,2.027673E0,3.1947176E0,6.7054605E0,9.7177925E0,1.5261582E1,2.7199292E2,5.766768E2,7.817897E0,4.207759E0,2.307323E2,2.7794643E1,7.930117E1,6.611179E1,3.8290312E0,1.1570796E0,2.2982945E0,4.3518815E0,5.5425446E1,5.793116E0,5.277915E0,1.4275459E0,3.8171692E0,5.9006233E0,1.3390431E1,1.8711514E0,3.391531E1,2.380776E2,6.2889123E0,5.7038794E2,1.244738E0,6.5731587E0,2.6334949E0,1.5742643E0,2.2456714E2,6.1651545E0,2.0530067E1,7.264576E0,7.594867E1,3.3525054E0,2.386892E1,4.2242878E1,2.4291008E0,1.3999306E0,1.2341704E0,1.0641242E0,2.5304415E0,1.8214401E0,5.4034817E1,1.3906279E0,4.0067325E0,1.7863834E0,2.2926738E0,2.985241E0,1.4673892E0,2.3497798E0,2.6489038E0,3.2517192E0,4.9567966E0,8.433635E0,1.9433754E1,1.4481554E1,1.1510787E1,2.2656682E2,1.2784988E0,5.0104136E0,7.390865E1,4.9647928E2],"tree_param":{"num_deleted":"0","num_feature":"14","num_nodes":"89","size_leaf_vector":"1"}},{"base_weights":[2.018977E-2,-7.214296E-2,4.183805E-2,-4.6648517E-1,-5.4492157E-2,8.717319E-2,-3.5563507E-4,-6.3653845E-1,4.407291E-2,-4.292167E-2,-5.447397E-1,1.421354E-1,-2.5823258E-2,-4.2841935E-1,1.9273933E-2,-1.4031649E-1,-3.4329134E-1,1.0390853E-1,-1.1381564E-1,-1.0530852E-1,4.189379E-2,5.208393E-2,-8.793185E-1,-1.8528618E-1,1.7327343E-1,4.139463E-1,-4.8238806E-2,-8.329243E-1,6.3044393E-1,-4.139947E-2,1.0678547E-1,-1.2189217E-1,1.3612969E-1,-2.7789018E-1,7.6241516E-2,4.9854335E-1,-2.995341E-2,-3.717621E-1,-5.733726E-2,-3.471363E-1,2.2765158E-1,2.8697556E-1,6.2278442E-2,2.5424141E-2,9.2776316E-1,-1.9589345E-1,3.6828645E-2,-2.906792E-1,-9.688937E-1,1.1809908E0,7.0970975E-2,-3.4238175E-1,1.7691553E-2,2.3075013E-1,1.9409742E-2,-4.0141404E-2,1.1127566E-1,2.766775E-1,-9.292119E-2,9.524437E-2,-5.589961E-2,2.0788082E-1,-1.3272679E-1,3.0146625E-2,-6.438251E-2,1.3746068E-1,-1.3432546E-1,2.2278808E-1,-2.530091E-1,5.6282237E-2,2.680974E-1,8.2027465E-2,-1.0974222E-2,1.1449082E-1,-1.18847914E-1,9.289373E-2,3.7842432E-1,-7.729276E-2,5.606669E-2,4.493051E-2,-1.0882311E-2,-1.9988413E-1,1.1855412E-1,-3.2218677E-1,7.3042293E-3,4.04771E-1,1.09624036E-1,3.3344054E-1,-1.7020199E-1,-1.8193574E-1,-3.2161143E-2,1.1577479E-2,-6.619998E-2,8.279223E-2,-2.7600607E-1,-6.1560366E-3,1.4508522E-1],"categories":[],"categories_nodes":[],"categories_segments":[],"categories_sizes":[],"default_left":[0,0,0,0,0,0,0,0,0,0,0,0,0,0,0,0,0,0,0,0,0,0,0,0,0,0,0,0,0,0,0,0,0,0,0,0,0,0,0,0,0,0,0,0,0,0,0,0,0,0,0,0,0,0,0,0,0,0,0,0,0,0,0,0,0,0,0,0,0,0,0,0,0,0,0,0,0,0,0,0,0,0,0,0,0,0,0,0,0,0,0,0,0,0,0,0,0],"id":13,"left_children":[1,3,5,7,9,11,13,15,17,19,21,23,25,27,29,31,-1,-1,-1,33,35,-1,37,39,41,43,45,47,49,51,53,-1,55,57,59,61,63,-1,-1,65,67,69,71,73,75,77,79,81,83,85,87,89,91,93,95,-1,-1,-1,-1,-1,-1,-1,-1,-1,-1,-1,-1,-1,-1,-1,-1,-1,-1,-1,-1,-1,-1,-1,-1,-1,-1,-1,-1,-1,-1,-1,-1,-1,-1,-1,-1,-1,-1,-1,-1,-1,-1],"loss_changes":[2.7530646E0,1.7959545E0,2.13314E0,9.899137E-1,1.4037733E0,3.3422322E0,4.869889E0,1.9497058E0,6.0544616E-1,1.3107477E0,1.5263689E0,3.7208252E0,1.7623804E0,1.1409227E1,2.946843E0,4.5058548E-1,0E0,0E0,0E0,4.487058E0,3.4712808E0,0E0,7.6976776E-1,2.2112534E0,4.1582575E0,1.7085787E0,2.130961E0,1.105792E0,2.2550814E0,5.839436E0,2.4562216E0,0E0,2.641644E-1,3.0867639E0,4.508783E0,2.9366033E0,2.23681E0,0E0,0E0,2.094437E0,5.9141717E0,9.669721E0,3.531876E0,1.0475805E0,3.7410188E-1,1.5127239E0,8.980764E-1,1.6031954E0,1.5514364E0,2.3362637E-2,3.8385568E0,3.280797E0,1.3790457E0,5.1371703E0,2.5001535E0,0E0,0E0,0E0,0E0,0E0,0E0,0E0,0E0,0E0,0E0,0E0,0E0,0E0,0E0,0E0,0E0,0E0,0E0,0E0,0E0,0E0,0E0,0E0,0E0,0E0,0E0,0E0,0E0,0E0,0E0,0E0,0E0,0E0,0E0,0E0,0E0,0E0,0E0,0E0,0E0,0E0,0E0],"parents":[2147483647,0,0,1,1,2,2,3,3,4,4,5,5,6,6,7,7,8,8,9,9,10,10,11,11,12,12,13,13,14,14,15,15,19,19,20,20,22,22,23,23,24,24,25,25,26,26,27,27,28,28,29,29,30,30,32,32,33,33,34,34,35,35,36,36,39,39,40,40,41,41,42,42,43,43,44,44,45,45,46,46,47,47,48,48,49,49,50,50,51,51,52,52,53,53,54,54],"right_children":[2,4,6,8,10,12,14,16,18,20,22,24,26,28,30,32,-1,-1,-1,34,36,-1,38,40,42,44,46,48,50,52,54,-1,56,58,60,62,64,-1,-1,66,68,70,72,74,76,78,80,82,84,86,88,90,92,94,96,-1,-1,-1,-1,-1,-1,-1,-1,-1,-1,-1,-1,-1,-1,-1,-1,-1,-1,-1,-1,-1,-1,-1,-1,-1,-1,-1,-1,-1,-1,-1,-1,-1,-1,-1,-1,-1,-1,-1,-1,-1,-1],"split_conditions":[7.587075E1,1.1168E2,4.7312E2,1.2352E2,7.452226E1,8.3072E2,4.8096E2,8.904E1,8.712E1,4.8256E2,1E0,9.992E1,3.1464E2,1.2E1,7.0384E2,2E0,-3.4329134E-1,1.0390853E-1,-1.1381564E-1,6E0,4.796E2,5.208393E-2,6E0,1.2E1,5E0,3.004E2,9.0352E2,1.9768E2,1.2E1,5.1464E2,4.364E2,-1.2189217E-1,6.84E1,1.0016E2,1.2E1,1.3E1,2E0,-3.717621E-1,-5.733726E-2,8.047718E1,1.3E1,6E0,6E0,8.8E2,8E0,6.4696E2,9.4512E2,2E0,8E0,1.6376813E2,2E0,5.0216E2,5.6856E2,1.7E1,1.6E1,-4.0141404E-2,1.1127566E-1,2.766775E-1,-9.292119E-2,9.524437E-2,-5.589961E-2,2.0788082E-1,-1.3272679E-1,3.0146625E-2,-6.438251E-2,1.3746068E-1,-1.3432546E-1,2.2278808E-1,-2.530091E-1,5.6282237E-2,2.680974E-1,8.2027465E-2,-1.0974222E-2,1.1449082E-1,-1.18847914E-1,9.289373E-2,3.7842432E-1,-7.729276E-2,5.606669E-2,4.493051E-2,-1.0882311E-2,-1.9988413E-1,1.1855412E-1,-3.2218677E-1,7.3042293E-3,4.04771E-1,1.09624036E-1,3.3344054E-1,-1.7020199E-1,-1.8193574E-1,-3.2161143E-2,1.1577479E-2,-6.619998E-2,8.279223E-2,-2.7600607E-1,-6.1560366E-3,1.4508522E-1],"split_indices":[4,3,0,1,4,1,0,1,3,2,13,3,0,5,1,12,0,0,0,5,0,0,6,5,5,0,1,3,6,0,2,0,3,1,5,5,12,0,0,4,6,6,6,3,6,2,1,12,5,4,12,2,1,5,5,0,0,0,0,0,0,0,0,0,0,0,0,0,0,0,0,0,0,0,0,0,0,0,0,0,0,0,0,0,0,0,0,0,0,0,0,0,0,0,0,0,0],"split_type":[0,0,0,0,0,0,0,0,0,0,0,0,0,0,0,0,0,0,0,0,0,0,0,0,0,0,0,0,0,0,0,0,0,0,0,0,0,0,0,0,0,0,0,0,0,0,0,0,0,0,0,0,0,0,0,0,0,0,0,0,0,0,0,0,0,0,0,0,0,0,0,0,0,0,0,0,0,0,0,0,0,0,0,0,0,0,0,0,0,0,0,0,0,0,0,0,0],"sum_hessian":[1.374818E3,2.6067456E2,1.1141434E3,1.007852E1,2.5059604E2,5.365642E2,5.775792E2,7.3752656E0,2.7032542E0,2.458805E2,4.715553E0,3.608073E2,1.7575688E2,2.4411446E1,5.531678E2,4.375542E0,2.9997237E0,1.6835233E0,1.019731E0,1.4153293E2,1.04347565E2,1.6512842E0,3.0642686E0,3.0903315E1,3.29904E2,7.676916E0,1.6807997E2,1.781802E1,6.5934267E0,3.2698782E2,2.2617993E2,1.9905372E0,2.385005E0,7.2286575E1,6.924635E1,1.3378292E1,9.096927E1,1.4863324E0,1.5779362E0,2.2315966E1,8.587348E0,1.6218147E2,1.6772253E2,4.969053E0,2.7078636E0,6.0962444E1,1.0711752E2,4.201258E0,1.3616761E1,2.7633076E0,3.8301194E0,5.2874664E1,2.7411316E2,9.283252E1,1.3334741E2,1.3095442E0,1.0754607E0,1.145872E0,7.114071E1,3.59803E1,3.3266052E1,1.1306161E1,2.0721319E0,5.3577427E1,3.7391846E1,2.083703E0,2.0232264E1,6.006069E0,2.5812788E0,1.4048135E2,2.1700113E1,5.2922745E1,1.1479979E2,2.7447052E0,2.2243476E0,1.6251625E0,1.082701E0,5.277577E1,8.186677E0,4.1678314E1,6.543921E1,2.7330756E0,1.4681828E0,1.2240711E1,1.3760502E0,1.7483141E0,1.0149934E0,1.174434E0,2.6556854E0,2.4163671E1,2.8710995E1,2.5278613E2,2.1327042E1,9.0053696E1,2.778825E0,1.2366581E2,9.681597E0],"tree_param":{"num_deleted":"0","num_feature":"14","num_nodes":"97","size_leaf_vector":"1"}}]},"name":"gbtree"},"learner_model_param":{"base_score":"4.9535316E-1","boost_from_average":"1","num_class":"0","num_feature":"14","num_target":"1"},"objective":{"name":"binary:logistic","reg_loss_param":{"scale_pos_weight":"1"}}},"version":[3,0,0]}