{"learner":{"attributes":{"best_iteration":"6","best_score":"0.6298068452927983"},"feature_names":["killer_x","killer_y","victim_x","victim_y","distance","weapon_id","kill_weapon_id","is_first_kill","is_traded","is_early_round","is_post_plant","tactical_advantage","round_phase_encoded","site_encoded"],"feature_types":["float","float","float","float","float","int","int","int","int","int","int","int","int","int"],"gradient_booster":{"model":{"gbtree_model_param":{"num_parallel_tree":"1","num_trees":"17"},"iteration_indptr":[0,1,2,3,4,5,6,7,8,9,10,11,12,13,14,15,16,17],"tree_info":[0,0,0,0,0,0,0,0,0,0,0,0,0,0,0,0,0],"trees":[{"base_weights":[-1.3866463E-3,2.771216E-1,-2.067364E-1,1.527696E-1,6.8906367E-1,-3.5776973E-1,-1.1716682E-1,3.120481E-1,-1.5700556E-1,1.1871696E-1,1.0217668E0,-3.133949E-1,-5.047338E-1,-3.3076945E-1,1.8113105E-1,-1.2585438E0,3.4416533E-1,-2.1410577E-1,3.6112458E-1,5.691564E-1,-1.12033E0,1.077938E0,-7.573144E-1,-1.8590759E-1,-5.071426E-1,-7.8288704E-1,-1.3222697E-1,6.275057E-1,-5.4811543E-1,-4.6401885E-1,-1.7522584E-3,2.446526E-1,5.899106E-1,-9.114614E-2,-5.6273204E-1,8.6650014E-1,2.8736535E-2,7.4195266E-1,-5.797843E-1,-3.4145227E-1,-1.3936317E0,7.5815636E-1,1.3237917E0,-3.836824E-1,6.504509E-2,-7.04952E-1,4.40404E-2,2.0987627E-1,-7.5511837E-1,2.3737943E-1,-9.639731E-1,-2.9988688E-1,2.9706877E-1,1.3029984E0,3.5770017E-1,5.891033E-1,-1.0908946E0,1.2045543E-1,-1.5455617E-2,1.5356849E-1,3.6255878E-1,-4.3214522E-2,1.8686466E-1,-3.0710578E-1,-8.5754216E-2,5.268782E-2,3.0955303E-1,-2.0195012E-1,6.400725E-2,-2.4929659E-1,2.671588E-1,-2.7512202E-1,1.1824945E-1,-2.8214654E-1,1.3644198E-1,-5.2254176E-1,-2.3324502E-1,3.3671278E-1,2.1897659E-2,4.1330916E-1,-2.016251E-1,-3.2943633E-1,-5.5628214E-2,1.6860476E-1,-2.5207318E-2,2.4665464E-1,-1.7418596E-1,-2.792331E-1,1.9731298E-1,-3.77197E-1,1.8416044E-1,-2.0457758E-1,-4.0408507E-1,-5.378177E-2,-3.769091E-1,-4.174133E-1,1.1052439E-1,4.1650692E-1,-2.4175568E-1,3.0685395E-2,4.8156857E-1,-3.908203E-1,3.504678E-1,-5.3050244E-1,-2.3816277E-1],"categories":[],"categories_nodes":[],"categories_segments":[],"categories_sizes":[],"default_left":[0,0,0,0,0,0,0,0,0,0,0,0,0,0,0,0,0,0,0,0,0,0,0,0,0,0,0,0,0,0,0,0,0,0,0,0,0,0,0,0,0,0,0,0,0,0,0,0,0,0,0,0,0,0,0,0,0,0,0,0,0,0,0,0,0,0,0,0,0,0,0,0,0,0,0,0,0,0,0,0,0,0,0,0,0,0,0,0,0,0,0,0,0,0,0,0,0,0,0,0,0,0,0,0,0],"id":0,"left_children":[1,3,5,7,9,11,13,15,17,19,21,23,-1,25,27,29,31,33,35,37,39,41,43,45,47,49,51,53,55,-1,-1,57,59,61,63,65,67,69,71,73,75,77,79,-1,-1,81,83,85,87,89,91,93,95,97,99,101,103,-1,-1,-1,-1,-1,-1,-1,-1,-1,-1,-1,-1,-1,-1,-1,-1,-1,-1,-1,-1,-1,-1,-1,-1,-1,-1,-1,-1,-1,-1,-1,-1,-1,-1,-1,-1,-1,-1,-1,-1,-1,-1,-1,-1,-1,-1,-1,-1],"loss_changes":[1.0288536E2,3.9004726E1,1.3965984E1,2.9048203E1,3.341729E1,2.2103374E1,4.1570694E1,2.0029808E1,6.001643E0,3.7611942E1,1.1958618E1,9.137264E0,0E0,3.40062E1,8.904527E1,2.878994E0,9.184956E0,7.707445E0,3.3766344E0,1.020768E1,3.35569E0,7.526367E0,2.3097925E0,2.7123587E1,2.6428303E1,2.1613838E1,1.9180185E1,3.0424858E1,6.4836044E1,0E0,0E0,1.27153225E1,4.653858E0,5.1890574E0,5.705902E0,7.3261404E-1,1.8606036E0,1.084741E1,2.6609476E0,3.2896109E0,1.4345646E0,1.2270525E1,7.3810883E0,0E0,0E0,1.4043255E1,1.0544397E1,1.923293E1,2.791084E1,1.1041581E1,9.721001E0,2.1837765E1,9.54717E0,9.758949E0,3.886806E1,3.9045532E1,1.2831749E1,0E0,0E0,0E0,0E0,0E0,0E0,0E0,0E0,0E0,0E0,0E0,0E0,0E0,0E0,0E0,0E0,0E0,0E0,0E0,0E0,0E0,0E0,0E0,0E0,0E0,0E0,0E0,0E0,0E0,0E0,0E0,0E0,0E0,0E0,0E0,0E0,0E0,0E0,0E0,0E0,0E0,0E0,0E0,0E0,0E0,0E0,0E0,0E0],"parents":[2147483647,0,0,1,1,2,2,3,3,4,4,5,5,6,6,7,7,8,8,9,9,10,10,11,11,13,13,14,14,15,15,16,16,17,17,18,18,19,19,20,20,21,21,22,22,23,23,24,24,25,25,26,26,27,27,28,28,31,31,32,32,33,33,34,34,35,35,36,36,37,37,38,38,39,39,40,40,41,41,42,42,45,45,46,46,47,47,48,48,49,49,50,50,51,51,52,52,53,53,54,54,55,55,56,56],"right_children":[2,4,6,8,10,12,14,16,18,20,22,24,-1,26,28,30,32,34,36,38,40,42,44,46,48,50,52,54,56,-1,-1,58,60,62,64,66,68,70,72,74,76,78,80,-1,-1,82,84,86,88,90,92,94,96,98,100,102,104,-1,-1,-1,-1,-1,-1,-1,-1,-1,-1,-1,-1,-1,-1,-1,-1,-1,-1,-1,-1,-1,-1,-1,-1,-1,-1,-1,-1,-1,-1,-1,-1,-1,-1,-1,-1,-1,-1,-1,-1,-1,-1,-1,-1,-1,-1,-1,-1],"split_conditions":[5E0,5E0,1E1,2E0,3.1352365E2,8E0,2E0,3E0,4.9841852E2,3.5146555E2,5.737993E2,2E0,-5.047338E-1,6E0,1.5E1,1.9037872E2,4.2605585E2,4.1872617E2,5.012929E2,8.727354E2,3.4794443E2,4.065819E2,4.6586612E2,5E0,5E0,2.4159215E2,1.6E1,9E0,1.1E1,-4.6401885E-1,-1.7522584E-3,3.419082E2,2.6950726E2,4.3367297E2,6.126035E2,5.7191658E1,4.4905093E2,1.7691846E2,9.265583E2,1.6083347E2,8.212121E2,3.5951382E2,9.161387E2,-3.836824E-1,6.504509E-2,3.4966907E2,2.5776056E2,3.6166962E2,1.4E1,1.9775775E2,1.357502E2,1.5E1,1.7461894E2,5.925547E2,1.5E1,1.6E1,1.6E1,1.2045543E-1,-1.5455617E-2,1.5356849E-1,3.6255878E-1,-4.3214522E-2,1.8686466E-1,-3.0710578E-1,-8.5754216E-2,5.268782E-2,3.0955303E-1,-2.0195012E-1,6.400725E-2,-2.4929659E-1,2.671588E-1,-2.7512202E-1,1.1824945E-1,-2.8214654E-1,1.3644198E-1,-5.2254176E-1,-2.3324502E-1,3.3671278E-1,2.1897659E-2,4.1330916E-1,-2.016251E-1,-3.2943633E-1,-5.5628214E-2,1.6860476E-1,-2.5207318E-2,2.4665464E-1,-1.7418596E-1,-2.792331E-1,1.9731298E-1,-3.77197E-1,1.8416044E-1,-2.0457758E-1,-4.0408507E-1,-5.378177E-2,-3.769091E-1,-4.174133E-1,1.1052439E-1,4.1650692E-1,-2.4175568E-1,3.0685395E-2,4.8156857E-1,-3.908203E-1,3.504678E-1,-5.3050244E-1,-2.3816277E-1],"split_indices":[5,6,5,13,3,5,13,5,1,1,1,13,0,6,5,4,1,3,0,2,2,3,3,6,6,1,5,6,6,0,0,3,4,1,2,4,2,3,2,4,2,1,2,0,0,3,3,1,6,3,4,5,1,3,6,5,5,0,0,0,0,0,0,0,0,0,0,0,0,0,0,0,0,0,0,0,0,0,0,0,0,0,0,0,0,0,0,0,0,0,0,0,0,0,0,0,0,0,0,0,0,0,0,0,0],"split_type":[0,0,0,0,0,0,0,0,0,0,0,0,0,0,0,0,0,0,0,0,0,0,0,0,0,0,0,0,0,0,0,0,0,0,0,0,0,0,0,0,0,0,0,0,0,0,0,0,0,0,0,0,0,0,0,0,0,0,0,0,0,0,0,0,0,0,0,0,0,0,0,0,0,0,0,0,0,0,0,0,0,0,0,0,0,0,0,0,0,0,0,0,0,0,0,0,0,0,0,0,0,0,0,0,0],"sum_hessian":[1.7969575E3,7.6248193E2,1.0344755E3,5.8673615E2,1.7574583E2,3.839909E2,6.504846E2,3.8749084E2,1.9924529E2,6.524846E1,1.1049738E2,3.7274118E2,1.1249734E1,3.7899103E2,2.7149356E2,6.9998345E0,3.80491E2,1.7999574E2,1.9249544E1,4.824886E1,1.6999598E1,1.0749746E2,2.999929E0,2.2599466E2,1.4674652E2,1.14747284E2,2.6424374E2,1.6849602E2,1.0299757E2,5.49987E0,1.4999645E0,2.7224356E2,1.0824744E2,1.3399683E2,4.5998913E1,6.9998345E0,1.224971E1,4.2249E1,5.999858E0,4.9998817E0,1.1999716E1,4.849885E1,5.8998604E1,1.7499586E0,1.2499704E0,6.8748375E1,1.5724628E2,3.7749107E1,1.0899742E2,1.7249592E1,9.7497696E1,1.902455E2,7.3998245E1,4.6998886E1,1.2149712E2,3.3249214E1,6.974835E1,1.7774579E2,9.4497765E1,9.774769E1,1.0499751E1,1.2549703E2,8.499799E0,1.6249615E1,2.9749296E1,1.7499586E0,5.2498755E0,1.9999527E0,1.0249758E1,3.249923E0,3.8999077E1,4.4998937E0,1.4999645E0,2.749935E0,2.2499468E0,6.499846E0,5.49987E0,3.124926E1,1.7249592E1,5.7748634E1,1.2499704E0,3.849909E1,3.0249285E1,3.0499279E1,1.26747E2,2.1249496E1,1.6499609E1,9.7247696E1,1.1749722E1,2.999929E0,1.4249662E1,5.7748634E1,3.9749058E1,1.6999597E2,2.0249521E1,2.2499468E0,7.17483E1,4.5498924E1,1.4999645E0,1.0174759E2,1.9749533E1,7.4998226E0,2.5749392E1,1.9749533E1,4.9998817E1],"tree_param":{"num_deleted":"0","num_feature":"14","num_nodes":"105","size_leaf_vector":"1"}},{"base_weights":[-8.741659E-3,2.0738663E-1,-1.6680525E-1,-1.1306887E0,2.3114245E-1,-1.4544895E-1,-8.6348677E-1,-4.6786034E-1,1.0761248E-1,1.5314049E-1,4.9742255E-1,-1.8971576E-1,3.440586E-1,-4.5915604E-1,-1.3548105E0,-8.797252E-2,1.8944497E-1,2.6645732E-1,-6.7263946E-2,-2.4805951E-1,6.645832E-1,-1.0986719E-1,-6.2079185E-1,1.9530399E-1,1.0262878E0,-1.9867618E-1,-1.1665895E0,-1.5105298E0,-5.446455E-1,2.2478959E-1,6.891613E-1,-2.590329E-1,1.19616844E-1,-6.949917E-1,9.780179E-1,8.9450866E-1,2.6987097E-1,-3.1375238E-1,8.92702E-2,-1.2470598E0,-1.1921971E-1,-2.2118051E-1,4.4473946E-1,1.4501001E0,8.972615E-2,2.3822838E-1,-6.863083E-1,-4.35769E-1,-5.9611652E-2,-1.990744E-1,-4.9657723E-1,8.591025E-2,-3.2155585E-1,8.690803E-2,-1.8944101E-2,-8.601569E-2,2.2531009E-1,5.294208E-2,-1.1927079E-1,4.922516E-2,-2.2889549E-1,1.339533E-1,-3.560362E-1,3.9076865E-1,-1.1551713E-1,5.9409652E-2,3.5169524E-1,-1.1613606E-1,2.1687065E-1,-8.3160385E-2,-4.4120172E-1,-7.072455E-2,1.5946665E-1,-3.9464816E-1,-8.737263E-2,4.6103876E-2,-2.1691068E-1,-2.0542926E-1,7.996656E-2,2.2870104E-1,-2.0974265E-1,6.655949E-2,4.790753E-1,-1.5873952E-1,3.3136776E-1,2.4302742E-1,-8.099394E-2,-3.4093416E-1,9.712974E-2],"categories":[],"categories_nodes":[],"categories_segments":[],"categories_sizes":[],"default_left":[0,0,0,0,0,0,0,0,0,0,0,0,0,0,0,0,0,0,0,0,0,0,0,0,0,0,0,0,0,0,0,0,0,0,0,0,0,0,0,0,0,0,0,0,0,0,0,0,0,0,0,0,0,0,0,0,0,0,0,0,0,0,0,0,0,0,0,0,0,0,0,0,0,0,0,0,0,0,0,0,0,0,0,0,0,0,0,0,0],"id":1,"left_children":[1,3,5,7,9,11,13,-1,15,17,19,21,23,25,27,-1,-1,29,31,33,35,37,39,41,43,45,47,49,51,53,55,57,59,61,63,65,67,69,71,73,75,77,79,81,83,85,87,-1,-1,-1,-1,-1,-1,-1,-1,-1,-1,-1,-1,-1,-1,-1,-1,-1,-1,-1,-1,-1,-1,-1,-1,-1,-1,-1,-1,-1,-1,-1,-1,-1,-1,-1,-1,-1,-1,-1,-1,-1,-1],"loss_changes":[6.1294685E1,2.43536E1,1.5292974E1,7.2789936E0,1.54088745E1,2.187887E1,5.4607296E0,0E0,1.1049728E0,1.4455495E1,2.1158394E1,3.1730953E1,8.30812E0,3.1421456E0,8.5647774E-1,0E0,0E0,6.5730114E0,7.094095E0,1.7987326E1,1.2271996E1,3.172417E1,4.513599E1,7.3773937E0,5.7338104E0,3.2713156E0,1.0183897E0,2.0096779E-1,1.9322375E0,6.544075E0,2.25564E0,5.9578733E0,4.069429E0,1.3852562E1,4.4179573E0,1.6542496E1,1.58122425E1,1.5913254E1,5.7009357E1,3.8035889E0,1.3484297E1,6.267773E0,1.6573936E1,1.4678783E0,4.1444592E0,2.6704812E0,3.6193874E0,0E0,0E0,0E0,0E0,0E0,0E0,0E0,0E0,0E0,0E0,0E0,0E0,0E0,0E0,0E0,0E0,0E0,0E0,0E0,0E0,0E0,0E0,0E0,0E0,0E0,0E0,0E0,0E0,0E0,0E0,0E0,0E0,0E0,0E0,0E0,0E0,0E0,0E0,0E0,0E0,0E0,0E0],"parents":[2147483647,0,0,1,1,2,2,3,3,4,4,5,5,6,6,8,8,9,9,10,10,11,11,12,12,13,13,14,14,17,17,18,18,19,19,20,20,21,21,22,22,23,23,24,24,25,25,26,26,27,27,28,28,29,29,30,30,31,31,32,32,33,33,34,34,35,35,36,36,37,37,38,38,39,39,40,40,41,41,42,42,43,43,44,44,45,45,46,46],"right_children":[2,4,6,8,10,12,14,-1,16,18,20,22,24,26,28,-1,-1,30,32,34,36,38,40,42,44,46,48,50,52,54,56,58,60,62,64,66,68,70,72,74,76,78,80,82,84,86,88,-1,-1,-1,-1,-1,-1,-1,-1,-1,-1,-1,-1,-1,-1,-1,-1,-1,-1,-1,-1,-1,-1,-1,-1,-1,-1,-1,-1,-1,-1,-1,-1,-1,-1,-1,-1,-1,-1,-1,-1,-1,-1],"split_conditions":[5E0,4E0,2.3E1,3.9062906E2,5E0,1.9E1,2E0,-4.6786034E-1,4.391343E2,2E0,2.6128168E2,1.5E1,1E0,8.1086426E2,1.9697108E2,-8.797252E-2,1.8944497E-1,5.1444324E2,3.3184787E2,2E0,3.9501248E2,1E1,1.6E1,2E0,6.6714496E2,2E0,8.81143E2,8.3480316E1,4.834717E2,4.2591214E2,4.5253384E1,2.774501E2,9.284267E2,8.493324E1,3.6569376E2,7.5382454E1,4.2390005E2,8E0,2E0,5.438338E2,1.7E1,1E0,4.1577994E2,2.7694708E2,8.5462683E2,2.895944E2,4.1577994E2,-4.35769E-1,-5.9611652E-2,-1.990744E-1,-4.9657723E-1,8.591025E-2,-3.2155585E-1,8.690803E-2,-1.8944101E-2,-8.601569E-2,2.2531009E-1,5.294208E-2,-1.1927079E-1,4.922516E-2,-2.2889549E-1,1.339533E-1,-3.560362E-1,3.9076865E-1,-1.1551713E-1,5.9409652E-2,3.5169524E-1,-1.1613606E-1,2.1687065E-1,-8.3160385E-2,-4.4120172E-1,-7.072455E-2,1.5946665E-1,-3.9464816E-1,-8.737263E-2,4.6103876E-2,-2.1691068E-1,-2.0542926E-1,7.996656E-2,2.2870104E-1,-2.0974265E-1,6.655949E-2,4.790753E-1,-1.5873952E-1,3.3136776E-1,2.4302742E-1,-8.099394E-2,-3.4093416E-1,9.712974E-2],"split_indices":[5,5,5,3,6,5,13,0,3,13,3,5,9,2,4,0,0,1,1,13,1,5,5,12,0,12,0,4,3,3,4,3,0,4,1,4,3,5,13,1,5,10,1,0,2,3,1,0,0,0,0,0,0,0,0,0,0,0,0,0,0,0,0,0,0,0,0,0,0,0,0,0,0,0,0,0,0,0,0,0,0,0,0,0,0,0,0,0,0],"split_type":[0,0,0,0,0,0,0,0,0,0,0,0,0,0,0,0,0,0,0,0,0,0,0,0,0,0,0,0,0,0,0,0,0,0,0,0,0,0,0,0,0,0,0,0,0,0,0,0,0,0,0,0,0,0,0,0,0,0,0,0,0,0,0,0,0,0,0,0,0,0,0,0,0,0,0,0,0,0,0,0,0,0,0,0,0,0,0,0,0],"sum_hessian":[1.7922222E3,7.569265E2,1.0352957E3,1.2391013E1,7.445355E2,1.00567615E3,2.961956E1,9.010946E0,3.3800664E0,5.770687E2,1.6746678E2,9.228354E2,8.284076E1,1.7309435E1,1.2310123E1,2.1642618E0,1.2158047E0,3.8098398E2,1.9608476E2,3.058476E1,1.3688202E2,7.7967114E2,1.4316422E2,6.906743E1,1.3773327E1,1.3587357E1,3.7220786E0,9.600391E0,2.7097325E0,3.481929E2,3.2791058E1,9.658615E1,9.9498604E1,2.273171E1,7.8530498E0,8.569641E1,5.118561E1,3.849587E2,3.9471243E2,6.3006886E1,8.015733E1,2.5913208E1,4.3154224E1,9.104872E0,4.668455E0,7.4361954E0,6.1511617E0,2.4866145E0,1.235464E0,2.2161987E0,7.384193E0,1.2291309E0,1.4806017E0,2.84139E2,6.405391E1,1.7383845E0,3.1052673E1,2.3243486E1,7.334267E1,9.5501175E1,3.9974256E0,6.8723755E0,1.5859335E1,6.3786955E0,1.4743545E0,2.4923964E1,6.077245E1,2.0949657E1,3.0235954E1,3.7437067E2,1.0588066E1,2.2778722E2,1.669252E2,5.8446007E1,4.56088E0,5.5719814E1,2.443752E1,1.3078434E1,1.2834773E1,3.403735E1,9.116876E0,1.2402706E0,7.8646016E0,3.1973023E0,1.4711528E0,3.2194657E0,4.2167296E0,4.1684027E0,1.9827589E0],"tree_param":{"num_deleted":"0","num_feature":"14","num_nodes":"89","size_leaf_vector":"1"}},{"base_weights":[1.1028678E-2,1.5295994E-1,-9.324351E-2,-8.563355E-1,1.6979718E-1,-7.933623E-2,-5.703483E-1,-1.1647153E0,1.15654305E-1,1.4250061E-1,6.0925156E-1,-1.1101098E-1,2.818936E-1,-2.7830502E-1,-9.9036485E-1,-4.0292248E-1,1.4639851E-2,-1.6288146E-1,1.8535039E-1,1.7332987E-1,-1.01441525E-1,3.9751515E-1,1.2707974E-1,-5.4406364E-2,-4.2737734E-1,1.4214252E-1,9.0789926E-1,-7.129255E-1,2.6168168E-1,6.977237E-2,-1.1657091E0,1.346195E-1,3.7090594E-1,-9.938034E-3,-7.839865E-1,-3.3726037E-1,5.5226886E-1,-1.6918252E-1,5.759E-2,-9.457535E-1,-8.7053515E-2,-1.6527708E-1,3.1230235E-1,1.2596021E0,1.3333997E-1,-1.14836045E-1,-3.7663662E-1,4.0620556E-1,-3.7365526E-1,-9.9124305E-2,-3.701067E-1,7.0189014E-2,-1.7009782E-2,-1.1324995E-1,1.4598097E-1,2.1605223E-2,-1.7410481E-1,4.8131075E-2,-3.4712183E-1,8.238754E-2,-3.593146E-1,2.659999E-1,-1.7730175E-1,-9.864698E-2,9.5137665E-3,-5.5740748E-2,1.1459806E-1,-3.4724724E-1,-1.39028E-1,4.5032255E-2,-1.833787E-1,-2.3810813E-1,9.69129E-2,1.9546533E-1,-8.6665116E-2,1.12375736E-1,4.002172E-1,-1.6622774E-1,3.271143E-1,1.9455059E-1,-1.899489E-1,-2.7097124E-1,4.1649295E-3],"categories":[],"categories_nodes":[],"categories_segments":[],"categories_sizes":[],"default_left":[0,0,0,0,0,0,0,0,0,0,0,0,0,0,0,0,0,0,0,0,0,0,0,0,0,0,0,0,0,0,0,0,0,0,0,0,0,0,0,0,0,0,0,0,0,0,0,0,0,0,0,0,0,0,0,0,0,0,0,0,0,0,0,0,0,0,0,0,0,0,0,0,0,0,0,0,0,0,0,0,0,0,0],"id":2,"left_children":[1,3,5,7,9,11,13,15,17,19,21,23,25,27,29,-1,-1,-1,-1,31,33,-1,35,37,39,41,43,45,47,-1,49,51,53,55,57,59,61,63,65,67,69,71,73,75,77,79,-1,-1,81,-1,-1,-1,-1,-1,-1,-1,-1,-1,-1,-1,-1,-1,-1,-1,-1,-1,-1,-1,-1,-1,-1,-1,-1,-1,-1,-1,-1,-1,-1,-1,-1,-1,-1],"loss_changes":[2.5850603E1,1.2716421E1,6.636531E0,3.8225842E0,8.651258E0,1.12403755E1,3.2032003E0,2.106701E0,1.6163715E0,5.185295E0,1.4429371E1,1.6118763E1,6.8049464E0,4.439082E0,2.6815891E0,0E0,0E0,0E0,0E0,4.618681E0,4.846745E0,0E0,5.3941274E0,9.852955E0,2.4025963E1,3.5030642E0,3.721919E0,3.2005444E0,6.6214266E0,0E0,1.6007519E-1,9.744187E0,8.793507E0,3.293257E0,3.4187226E0,7.29418E0,5.933161E0,1.2147088E1,3.073085E1,4.9844246E0,1.04847355E1,7.67107E0,8.920955E0,1.3957596E-1,4.273572E0,2.7859719E0,0E0,0E0,1.3168263E0,0E0,0E0,0E0,0E0,0E0,0E0,0E0,0E0,0E0,0E0,0E0,0E0,0E0,0E0,0E0,0E0,0E0,0E0,0E0,0E0,0E0,0E0,0E0,0E0,0E0,0E0,0E0,0E0,0E0,0E0,0E0,0E0,0E0,0E0],"parents":[2147483647,0,0,1,1,2,2,3,3,4,4,5,5,6,6,7,7,8,8,9,9,10,10,11,11,12,12,13,13,14,14,19,19,20,20,22,22,23,23,24,24,25,25,26,26,27,27,28,28,30,30,31,31,32,32,33,33,34,34,35,35,36,36,37,37,38,38,39,39,40,40,41,41,42,42,43,43,44,44,45,45,48,48],"right_children":[2,4,6,8,10,12,14,16,18,20,22,24,26,28,30,-1,-1,-1,-1,32,34,-1,36,38,40,42,44,46,48,-1,50,52,54,56,58,60,62,64,66,68,70,72,74,76,78,80,-1,-1,82,-1,-1,-1,-1,-1,-1,-1,-1,-1,-1,-1,-1,-1,-1,-1,-1,-1,-1,-1,-1,-1,-1,-1,-1,-1,-1,-1,-1,-1,-1,-1,-1,-1,-1],"split_conditions":[5E0,4E0,2.3E1,3.9062906E2,1.5E1,1.9E1,2E0,2.0780717E2,3E0,8.832988E2,1.6E1,1.5E1,1E0,3.6440027E2,6E0,-4.0292248E-1,1.4639851E-2,-1.6288146E-1,1.8535039E-1,5E0,9.167854E2,3.9751515E-1,3.3271017E2,1E1,1.6E1,2E0,6.6714496E2,3.0403818E2,4.3604434E2,6.977237E-2,2.152915E2,2E0,2.3692126E2,1E0,2.532334E2,3.417645E2,4.8390286E2,1.2355748E2,2E0,3.8955115E2,1.7E1,3.8883255E2,3.738139E2,2.3361572E2,8.5462683E2,3.5951382E2,-3.7663662E-1,4.0620556E-1,5.879556E2,-9.9124305E-2,-3.701067E-1,7.0189014E-2,-1.7009782E-2,-1.1324995E-1,1.4598097E-1,2.1605223E-2,-1.7410481E-1,4.8131075E-2,-3.4712183E-1,8.238754E-2,-3.593146E-1,2.659999E-1,-1.7730175E-1,-9.864698E-2,9.5137665E-3,-5.5740748E-2,1.1459806E-1,-3.4724724E-1,-1.39028E-1,4.5032255E-2,-1.833787E-1,-2.3810813E-1,9.69129E-2,1.9546533E-1,-8.6665116E-2,1.12375736E-1,4.002172E-1,-1.6622774E-1,3.271143E-1,1.9455059E-1,-1.899489E-1,-2.7097124E-1,4.1649295E-3],"split_indices":[5,5,5,3,6,5,13,4,6,2,6,5,9,1,6,0,0,0,0,6,0,0,3,5,5,12,0,3,0,0,1,13,3,9,3,1,1,4,13,1,5,0,1,3,2,2,0,0,0,0,0,0,0,0,0,0,0,0,0,0,0,0,0,0,0,0,0,0,0,0,0,0,0,0,0,0,0,0,0,0,0,0,0],"split_type":[0,0,0,0,0,0,0,0,0,0,0,0,0,0,0,0,0,0,0,0,0,0,0,0,0,0,0,0,0,0,0,0,0,0,0,0,0,0,0,0,0,0,0,0,0,0,0,0,0,0,0,0,0,0,0,0,0,0,0,0,0,0,0,0,0,0,0,0,0,0,0,0,0,0,0,0,0,0,0,0,0,0,0],"sum_hessian":[1.7447595E3,7.387435E2,1.00601605E3,1.1303513E1,7.2744E2,9.786552E2,2.736083E1,8.430513E0,2.872999E0,6.861446E2,4.1295414E1,9.0039594E2,7.82593E1,1.7119802E1,1.0241029E1,7.2571154E0,1.1733983E0,1.2078209E0,1.6651781E0,6.094164E2,7.672823E1,1.5917422E1,2.537799E1,7.647398E2,1.3565613E2,6.498006E1,1.3279249E1,9.30788E0,7.8119216E0,1.2432923E0,8.997736E0,5.1098273E2,9.843364E1,6.85525E1,8.175739E0,1.2229362E1,1.3148629E1,3.774306E2,3.873092E2,5.305879E1,8.2597336E1,2.3162384E1,4.181767E1,8.701815E0,4.5774355E0,5.0035706E0,4.30431E0,2.4567838E0,5.355138E0,1.1182185E0,7.879518E0,3.3619025E2,1.7479248E2,1.2876595E1,8.5557045E1,6.070437E1,7.8481255E0,2.4765706E0,5.6991687E0,7.5448885E0,4.684473E0,1.0346749E1,2.8018796E0,2.0995424E2,1.6747636E2,2.2152861E2,1.657806E2,3.589945E1,1.7159342E1,5.7360237E1,2.5237103E1,9.854859E0,1.3307525E1,2.6678974E1,1.5138696E1,1.1432719E0,7.5585423E0,2.9089808E0,1.6684544E0,1.9219612E0,3.0816092E0,1.7005641E0,3.6545737E0],"tree_param":{"num_deleted":"0","num_feature":"14","num_nodes":"83","size_leaf_vector":"1"}},{"base_weights":[-4.5414474E-3,3.866127E-2,-1.7009823E-1,9.503757E-3,3.1523144E-1,-3.5970867E-1,3.5463576E-3,-9.621686E-2,5.6499913E-2,1.3756603E-2,1.1273389E0,-1.7244914E-1,-8.0166304E-1,1.497068E-1,-1.5061998E-1,-1.2012649E-1,2.6968923E-1,1.307157E-1,-4.2994145E-2,1.7879799E-1,-1.0354941E0,1.3171074E0,2.038135E-1,2.8117785E-1,-3.2998013E-1,-8.9518195E-1,3.282161E-1,-2.2206558E-1,5.731596E-1,1.9932953E-1,-5.8710194E-1,-1.4168598E-1,1.6912131E-1,4.938832E-1,-2.7494937E-1,2.9320566E-2,2.5065133E-1,-3.4584785E-1,7.3113084E-2,-1.2452239E-1,7.593436E-1,-1.2221136E0,2.1706764E-2,1.4199017E0,6.747491E-1,-2.8792858E-1,8.257593E-1,-7.465911E-2,1.1328882E0,-2.4894246E-1,-1.1073745E0,-1.7065386E-1,-9.6566355E-1,-2.9421607E-1,4.560654E-1,1.6225518E-1,-9.396399E-1,1.0012094E0,-2.37351E-1,4.362755E-1,-5.6946385E-1,-8.336053E-1,2.3681124E-1,-5.4264072E-2,1.6937545E-2,2.1002518E-1,1.6204938E-2,5.753273E-2,2.8341228E-1,-1.7970663E-1,5.2271474E-2,8.499132E-2,-1.4976638E-2,2.1568328E-1,5.1247615E-2,1.2669742E-2,-2.4388151E-1,2.3155181E-1,-1.8336343E-3,1.6582128E-1,-1.2817189E-1,8.648652E-2,3.3249778E-1,-2.1992566E-1,-4.4260857E-1,4.346737E-1,1.3384794E-1,2.5787327E-1,-2.4842111E-2,-1.099013E-2,3.235575E-1,-7.522852E-2,3.1512386E-1,4.3231327E-2,3.7697023E-1,-2.105666E-1,-2.676552E-2,6.0088113E-2,-4.588689E-1,-2.9010865E-1,2.5627536E-1,-3.2736284E-1,-1.2826174E-1,-8.438958E-2,1.4953437E-1,6.885798E-2,-3.727125E-1,4.122226E-1,1.8830411E-1,-1.9176441E-1,2.1982531E-1,1.6917318E-2,2.8319073E-1,-2.9075348E-1,3.360282E-1,-5.9260804E-2,-3.6200318E-1,-8.0455676E-2,3.681218E-1],"categories":[],"categories_nodes":[],"categories_segments":[],"categories_sizes":[],"default_left":[0,0,0,0,0,0,0,0,0,0,0,0,0,0,0,0,0,0,0,0,0,0,0,0,0,0,0,0,0,0,0,0,0,0,0,0,0,0,0,0,0,0,0,0,0,0,0,0,0,0,0,0,0,0,0,0,0,0,0,0,0,0,0,0,0,0,0,0,0,0,0,0,0,0,0,0,0,0,0,0,0,0,0,0,0,0,0,0,0,0,0,0,0,0,0,0,0,0,0,0,0,0,0,0,0,0,0,0,0,0,0,0,0,0,0,0,0,0,0],"id":3,"left_children":[1,3,5,7,9,11,13,15,17,19,21,23,25,27,29,31,33,35,37,39,41,43,45,47,49,51,53,55,57,59,61,63,65,67,69,71,73,75,77,79,81,83,-1,85,87,-1,89,91,93,95,97,99,101,-1,-1,103,105,107,109,111,113,115,117,-1,-1,-1,-1,-1,-1,-1,-1,-1,-1,-1,-1,-1,-1,-1,-1,-1,-1,-1,-1,-1,-1,-1,-1,-1,-1,-1,-1,-1,-1,-1,-1,-1,-1,-1,-1,-1,-1,-1,-1,-1,-1,-1,-1,-1,-1,-1,-1,-1,-1,-1,-1,-1,-1,-1,-1],"loss_changes":[1.2354498E1,1.1044165E1,1.17705345E1,6.1678185E0,3.1964006E1,1.4004099E1,4.2491813E0,3.3748524E0,6.3503275E0,1.6856148E1,5.9267845E0,8.761002E0,5.6385994E0,1.5364609E1,1.4137011E1,2.264637E0,3.0347576E0,5.9805517E0,1.2960435E1,1.48928995E1,2.8240547E0,9.661217E-1,6.0092955E0,9.724117E0,5.4253454E0,2.2344856E0,8.665475E0,1.4564773E1,1.603333E1,9.6642685E0,8.544042E0,2.6113272E0,1.513308E0,2.1581712E0,1.2056804E0,5.407019E0,8.304537E0,1.854536E1,1.4770456E1,1.17289295E1,4.4445915E0,3.278122E-1,0E0,3.76091E-2,9.0085936E-1,0E0,1.1806989E0,4.894028E0,9.726763E-1,5.9596353E0,4.8626404E0,5.217307E0,2.4117622E0,0E0,0E0,5.342352E0,6.788849E0,3.3137894E0,6.917741E0,7.6763554E0,9.602584E0,7.3205566E0,5.451301E0,0E0,0E0,0E0,0E0,0E0,0E0,0E0,0E0,0E0,0E0,0E0,0E0,0E0,0E0,0E0,0E0,0E0,0E0,0E0,0E0,0E0,0E0,0E0,0E0,0E0,0E0,0E0,0E0,0E0,0E0,0E0,0E0,0E0,0E0,0E0,0E0,0E0,0E0,0E0,0E0,0E0,0E0,0E0,0E0,0E0,0E0,0E0,0E0,0E0,0E0,0E0,0E0,0E0,0E0,0E0,0E0],"parents":[2147483647,0,0,1,1,2,2,3,3,4,4,5,5,6,6,7,7,8,8,9,9,10,10,11,11,12,12,13,13,14,14,15,15,16,16,17,17,18,18,19,19,20,20,21,21,22,22,23,23,24,24,25,25,26,26,27,27,28,28,29,29,30,30,31,31,32,32,33,33,34,34,35,35,36,36,37,37,38,38,39,39,40,40,41,41,43,43,44,44,46,46,47,47,48,48,49,49,50,50,51,51,52,52,55,55,56,56,57,57,58,58,59,59,60,60,61,61,62,62],"right_children":[2,4,6,8,10,12,14,16,18,20,22,24,26,28,30,32,34,36,38,40,42,44,46,48,50,52,54,56,58,60,62,64,66,68,70,72,74,76,78,80,82,84,-1,86,88,-1,90,92,94,96,98,100,102,-1,-1,104,106,108,110,112,114,116,118,-1,-1,-1,-1,-1,-1,-1,-1,-1,-1,-1,-1,-1,-1,-1,-1,-1,-1,-1,-1,-1,-1,-1,-1,-1,-1,-1,-1,-1,-1,-1,-1,-1,-1,-1,-1,-1,-1,-1,-1,-1,-1,-1,-1,-1,-1,-1,-1,-1,-1,-1,-1,-1,-1,-1,-1],"split_conditions":[1.3E1,1.3E1,1.6E1,2.881572E2,4.3690668E2,1.5E1,1.6E1,9.0507227E2,6E0,4.325951E2,5.2134174E2,2.8025262E2,5.4002527E2,3.575736E2,2E0,2.3564806E2,1E0,4.0794724E2,6E0,3.4966907E2,2.6950726E2,8.6914246E2,4.8555566E2,3.6016055E2,5.497263E2,4.2435238E1,8E0,3.3357248E2,4.325951E2,4.3805643E2,4.2310962E2,1E1,1.5794751E2,2.609224E2,9.243307E2,2.737134E2,3.567113E2,4.30583E2,2.4978413E2,2.5416757E2,2E0,7.296629E2,2.1706764E-2,9.2504926E2,2.3398634E2,-2.8792858E-1,5.5037305E2,1.4E1,3.2502118E2,3.4650723E2,6E0,3.3584988E1,4.192292E2,-2.9421607E-1,4.560654E-1,2.5776056E2,2.3771172E2,7.1902765E2,5.410313E2,3.6066357E2,6.527731E2,3.246619E2,7.635806E2,-5.4264072E-2,1.6937545E-2,2.1002518E-1,1.6204938E-2,5.753273E-2,2.8341228E-1,-1.7970663E-1,5.2271474E-2,8.499132E-2,-1.4976638E-2,2.1568328E-1,5.1247615E-2,1.2669742E-2,-2.4388151E-1,2.3155181E-1,-1.8336343E-3,1.6582128E-1,-1.2817189E-1,8.648652E-2,3.3249778E-1,-2.1992566E-1,-4.4260857E-1,4.346737E-1,1.3384794E-1,2.5787327E-1,-2.4842111E-2,-1.099013E-2,3.235575E-1,-7.522852E-2,3.1512386E-1,4.3231327E-2,3.7697023E-1,-2.105666E-1,-2.676552E-2,6.0088113E-2,-4.588689E-1,-2.9010865E-1,2.5627536E-1,-3.2736284E-1,-1.2826174E-1,-8.438958E-2,1.4953437E-1,6.885798E-2,-3.727125E-1,4.122226E-1,1.8830411E-1,-1.9176441E-1,2.1982531E-1,1.6917318E-2,2.8319073E-1,-2.9075348E-1,3.360282E-1,-5.9260804E-2,-3.6200318E-1,-8.0455676E-2,3.681218E-1],"split_indices":[5,6,5,1,3,5,6,2,5,1,1,1,1,3,13,4,13,1,6,3,4,2,3,3,3,4,6,1,1,3,1,5,1,1,2,2,0,1,3,1,13,2,0,0,4,0,1,6,2,0,6,4,1,0,0,3,0,2,3,1,1,3,2,0,0,0,0,0,0,0,0,0,0,0,0,0,0,0,0,0,0,0,0,0,0,0,0,0,0,0,0,0,0,0,0,0,0,0,0,0,0,0,0,0,0,0,0,0,0,0,0,0,0,0,0,0,0,0,0],"split_type":[0,0,0,0,0,0,0,0,0,0,0,0,0,0,0,0,0,0,0,0,0,0,0,0,0,0,0,0,0,0,0,0,0,0,0,0,0,0,0,0,0,0,0,0,0,0,0,0,0,0,0,0,0,0,0,0,0,0,0,0,0,0,0,0,0,0,0,0,0,0,0,0,0,0,0,0,0,0,0,0,0,0,0,0,0,0,0,0,0,0,0,0,0,0,0,0,0,0,0,0,0,0,0,0,0,0,0,0,0,0,0,0,0,0,0,0,0,0,0],"sum_hessian":[1.7253776E3,1.3689191E3,3.5645853E2,1.2392998E3,1.296193E2,1.698835E2,1.8657504E2,3.810525E2,8.582473E2,9.526971E1,3.4349586E1,1.20301155E2,4.9582344E1,9.578916E1,9.078587E1,3.5831085E2,2.2741636E1,4.9139005E2,3.6685724E2,8.3037895E1,1.2231812E1,2.8140934E1,6.2086525E0,3.0806297E1,8.949486E1,4.5984013E1,3.5983305E0,5.1260418E1,4.4528744E1,5.0689156E1,4.0096718E1,3.33931E2,2.4379845E1,1.617612E1,6.565515E0,2.6695084E2,2.244392E2,1.0111931E2,2.6573795E2,5.505734E1,2.7980555E1,1.0380119E1,1.8516922E0,2.3215405E1,4.9255285E0,1.9734458E0,4.2352066E0,2.2371872E1,8.434425E0,8.224196E1,7.2528954E0,4.380024E0,4.160399E1,1.799524E0,1.7988065E0,3.3885693E1,1.7374725E1,2.8985521E1,1.5543222E1,3.9077724E1,1.1611432E1,3.0853897E1,9.242821E0,2.788582E2,5.5072834E1,3.4381232E0,2.0941721E1,1.0539055E1,5.6370654E0,3.6201437E0,2.9453714E0,6.286967E1,2.0408118E2,3.1520454E1,1.9291875E2,5.572773E1,4.539158E1,2.6171976E1,2.3956596E2,1.6752209E1,3.830513E1,1.2684769E1,1.5295786E1,4.8702626E0,5.509856E0,2.2069899E1,1.145507E0,3.8512332E0,1.0742954E0,1.1537789E0,3.0814278E0,2.0015974E1,2.3558984E0,1.1784174E0,7.256008E0,2.0555685E1,6.1686275E1,1.8984132E0,5.354482E0,2.4965873E0,1.8834363E0,3.290043E1,8.703563E0,1.4680435E1,1.920526E1,3.623304E0,1.3751421E1,1.3165133E1,1.5820389E1,1.1231621E1,4.3116016E0,2.2987944E1,1.6089779E1,9.73476E0,1.8766714E0,1.1971894E1,1.8882004E1,6.604133E0,2.6386876E0],"tree_param":{"num_deleted":"0","num_feature":"14","num_nodes":"119","size_leaf_vector":"1"}},{"base_weights":[6.8831067E-3,9.416985E-2,-5.8115005E-2,-7.4463546E-1,1.0658428E-1,-4.813784E-2,-4.193872E-1,-1.0172808E0,8.1524685E-2,6.0242478E-2,2.9023096E-1,-5.728367E-2,6.145362E-1,-2.8289193E-1,-2.939527E-1,-3.3422515E-1,-5.272874E-2,3.4975368E-1,1.4219361E-2,4.260229E-1,-3.2048476E-1,-7.812042E-2,1.8887436E-1,-6.2956296E-2,3.7037414E-1,-4.9044985E-1,6.0370845E-1,2.4902846E-1,1.0157248E0,-6.072936E-2,1.915839E-1,1.3443664E-1,8.383505E-1,-1.0772829E0,2.1668544E-1,-2.9213827E-2,-2.0794086E-1,-3.2117385E-1,2.372669E-1,3.2795358E-1,-5.463172E-1,-7.5113815E-1,-5.8915116E-2,-1.8171701E-1,3.8914755E-1,1.3968684E-1,7.733251E-3,3.5759908E-1,1.8225607E-3,3.1955345E-3,-9.30957E-2,8.627356E-2,-2.5749883E-2,1.0804531E-1,-1.9517939E-1,3.191449E-1,-5.8056187E-2,5.3427104E-2,-3.8188726E-1,-2.6850757E-1,1.0982541E-1,-3.7146404E-2,3.2973487E-2,-5.0156575E-2,-2.2746821E-1,1.3181517E-1,-1.4322961E-2,-3.100256E-1,2.0440064E-1,-2.9665908E-1,9.2479035E-2,-1.4251663E-1,2.9451114E-1],"categories":[],"categories_nodes":[],"categories_segments":[],"categories_sizes":[],"default_left":[0,0,0,0,0,0,0,0,0,0,0,0,0,0,0,0,0,0,0,0,0,0,0,0,0,0,0,0,0,0,0,0,0,0,0,0,0,0,0,0,0,0,0,0,0,0,0,0,0,0,0,0,0,0,0,0,0,0,0,0,0,0,0,0,0,0,0,0,0,0,0,0,0],"id":4,"left_children":[1,3,5,7,9,11,13,15,-1,17,19,21,23,25,-1,-1,-1,27,29,31,33,35,37,39,-1,41,43,45,47,49,51,53,55,57,59,61,63,-1,65,-1,67,69,71,-1,-1,-1,-1,-1,-1,-1,-1,-1,-1,-1,-1,-1,-1,-1,-1,-1,-1,-1,-1,-1,-1,-1,-1,-1,-1,-1,-1,-1,-1],"loss_changes":[9.698812E0,7.677094E0,3.511902E0,3.2598867E0,6.1088285E0,5.8214407E0,1.7274971E0,5.128851E-1,0E0,7.670658E0,1.214363E1,4.849637E0,5.573267E0,4.432682E0,0E0,0E0,0E0,5.044573E0,6.6329145E0,1.4179874E1,1.1172159E1,5.5161867E0,4.7554746E0,4.6224833E0,0E0,2.0669055E0,4.7379317E0,3.369101E0,1.7814465E0,6.254866E0,3.9712605E0,1.2784123E1,1.1618011E1,3.0117483E0,3.079725E0,8.344482E0,5.2069025E0,0E0,4.1652784E0,0E0,4.1402674E0,3.2297812E0,3.996751E0,0E0,0E0,0E0,0E0,0E0,0E0,0E0,0E0,0E0,0E0,0E0,0E0,0E0,0E0,0E0,0E0,0E0,0E0,0E0,0E0,0E0,0E0,0E0,0E0,0E0,0E0,0E0,0E0,0E0,0E0],"parents":[2147483647,0,0,1,1,2,2,3,3,4,4,5,5,6,6,7,7,9,9,10,10,11,11,12,12,13,13,17,17,18,18,19,19,20,20,21,21,22,22,23,23,25,25,26,26,27,27,28,28,29,29,30,30,31,31,32,32,33,33,34,34,35,35,36,36,38,38,40,40,41,41,42,42],"right_children":[2,4,6,8,10,12,14,16,-1,18,20,22,24,26,-1,-1,-1,28,30,32,34,36,38,40,-1,42,44,46,48,50,52,54,56,58,60,62,64,-1,66,-1,68,70,72,-1,-1,-1,-1,-1,-1,-1,-1,-1,-1,-1,-1,-1,-1,-1,-1,-1,-1,-1,-1,-1,-1,-1,-1,-1,-1,-1,-1,-1,-1],"split_conditions":[5E0,4E0,2.3E1,1.8767809E2,5E0,2.3E1,4.6148267E2,8E0,8.1524685E-2,2.3692126E2,4.3891873E2,1.9E1,2E0,4.2310962E2,-2.939527E-1,-3.3422515E-1,-5.272874E-2,6.406288E2,4.2605585E2,3.5649573E2,4.6148267E2,1.3E1,1.8518231E2,2.3807101E2,3.7037414E-1,4.6529123E2,1.7E1,3.3651874E2,2E0,4.176483E2,1E0,3.4966907E2,1E0,2.3692126E2,4.2435238E1,1E1,5.410313E2,-3.2117385E-1,7.12704E2,3.2795358E-1,4.211694E2,3.6317868E2,1.7632678E2,-1.8171701E-1,3.8914755E-1,1.3968684E-1,7.733251E-3,3.5759908E-1,1.8225607E-3,3.1955345E-3,-9.30957E-2,8.627356E-2,-2.5749883E-2,1.0804531E-1,-1.9517939E-1,3.191449E-1,-5.8056187E-2,5.3427104E-2,-3.8188726E-1,-2.6850757E-1,1.0982541E-1,-3.7146404E-2,3.2973487E-2,-5.0156575E-2,-2.2746821E-1,1.3181517E-1,-1.4322961E-2,-3.100256E-1,2.0440064E-1,-2.9665908E-1,9.2479035E-2,-1.4251663E-1,2.9451114E-1],"split_indices":[5,5,5,4,6,6,3,6,0,3,1,5,13,1,0,0,0,2,1,3,3,5,1,1,0,0,6,0,13,3,7,1,10,3,4,5,3,0,2,0,3,1,4,0,0,0,0,0,0,0,0,0,0,0,0,0,0,0,0,0,0,0,0,0,0,0,0,0,0,0,0,0,0],"split_type":[0,0,0,0,0,0,0,0,0,0,0,0,0,0,0,0,0,0,0,0,0,0,0,0,0,0,0,0,0,0,0,0,0,0,0,0,0,0,0,0,0,0,0,0,0,0,0,0,0,0,0,0,0,0,0,0,0,0,0,0,0,0,0,0,0,0,0,0,0,0,0,0,0],"sum_hessian":[1.7075371E3,7.286182E2,9.789189E2,9.766174E0,7.1885205E2,9.537137E2,2.5205233E1,7.6998153E0,2.0663593E0,5.750665E2,1.4378549E2,9.416314E2,1.2082277E1,2.147893E1,3.7263021E0,6.614973E0,1.0848423E0,7.7973015E1,4.9709354E2,1.1787791E2,2.590759E1,8.687742E2,7.285722E1,6.2030106E0,5.8792667E0,1.7766514E1,3.7124164E0,6.892269E1,9.050324E0,3.49896E2,1.4719753E2,6.982542E1,4.8052486E1,1.0337713E1,1.5569878E1,6.3193396E2,2.3684023E2,1.9142605E0,7.094296E1,1.4568354E0,4.7461753E0,1.0614013E1,7.152501E0,1.3989846E0,2.313432E0,3.4431847E1,3.449085E1,7.5513487E0,1.4989754E0,2.7282657E2,7.706944E1,1.0932957E2,3.786796E1,5.465279E1,1.5172627E1,3.94103E1,8.642186E0,1.4061639E0,8.931549E0,1.2532628E0,1.4316615E1,3.7621307E2,2.5572087E2,2.2172394E2,1.5116274E1,4.1190662E1,2.9752296E1,3.5112257E0,1.2349494E0,8.723155E0,1.890857E0,5.4975395E0,1.6549616E0],"tree_param":{"num_deleted":"0","num_feature":"14","num_nodes":"73","size_leaf_vector":"1"}},{"base_weights":[-1.358771E-2,-7.450333E-1,-9.7711785E-3,-1.0056396E0,-3.92283E-2,2.9106712E-1,-2.1838885E-2,-6.7185074E-2,-3.3907893E-1,-2.2834776E-1,1.8379281E-1,1.3344313E-1,1.4903518E0,-7.759904E-4,-1.638353E-1,2.8963777E-1,-1.9009912E-1,4.8273492E-1,1.413808E-1,-1.9010305E-2,2.755186E-1,-6.064917E-1,-6.0543843E-2,-2.8123936E-1,3.9865217E-1,6.261498E-1,-4.325256E-1,-2.1876361E-2,9.196748E-1,1.1399218E0,-3.654528E-2,-8.8643867E-1,-1.6607438E-1,-3.1976473E-2,-6.557832E-1,6.240587E-2,-1.5400381E-1,1.4963104E-1,-5.0027207E-2,2.986695E-1,-8.046526E-2,-1.6535655E-1,6.741123E-2,-1.426833E-2,1.2820587E-2,1.0169476E-1,3.2588053E-1,3.6621174E-1,-2.5580969E-2,-1.6649899E-1,1.0194785E-1,1.4083835E-2,-2.854887E-1,-2.2871569E-1,8.57608E-2,5.8582556E-2,-4.2907692E-2,-4.094338E-1,5.0865997E-2],"categories":[],"categories_nodes":[],"categories_segments":[],"categories_sizes":[],"default_left":[0,0,0,0,0,0,0,0,0,0,0,0,0,0,0,0,0,0,0,0,0,0,0,0,0,0,0,0,0,0,0,0,0,0,0,0,0,0,0,0,0,0,0,0,0,0,0,0,0,0,0,0,0,0,0,0,0,0,0],"id":5,"left_children":[1,3,5,7,9,11,13,-1,-1,-1,-1,15,17,19,21,23,25,-1,-1,27,29,31,33,35,37,39,41,43,45,47,49,51,53,55,57,-1,-1,-1,-1,-1,-1,-1,-1,-1,-1,-1,-1,-1,-1,-1,-1,-1,-1,-1,-1,-1,-1,-1,-1],"loss_changes":[4.72111E0,1.5752869E0,6.127338E0,3.6750364E-1,2.0700963E0,1.2106205E1,4.8508253E0,0E0,0E0,0E0,0E0,3.017992E0,1.4495277E-1,7.1261225E0,9.542395E0,2.5975924E0,4.1676702E0,0E0,0E0,3.5897856E0,2.3663502E1,4.7261696E0,2.8864152E0,9.0057135E-1,2.0048723E0,1.8919154E0,1.3541183E0,2.1989079E0,2.4744034E-2,2.406208E0,1.2932626E1,1.5010872E0,4.6892986E0,4.1716843E0,4.783204E0,0E0,0E0,0E0,0E0,0E0,0E0,0E0,0E0,0E0,0E0,0E0,0E0,0E0,0E0,0E0,0E0,0E0,0E0,0E0,0E0,0E0,0E0,0E0,0E0],"parents":[2147483647,0,0,1,1,2,2,3,3,4,4,5,5,6,6,11,11,12,12,13,13,14,14,15,15,16,16,19,19,20,20,21,21,22,22,23,23,24,24,25,25,26,26,27,27,28,28,29,29,30,30,31,31,32,32,33,33,34,34],"right_children":[2,4,6,8,10,12,14,-1,-1,-1,-1,16,18,20,22,24,26,-1,-1,28,30,32,34,36,38,40,42,44,46,48,50,52,54,56,58,-1,-1,-1,-1,-1,-1,-1,-1,-1,-1,-1,-1,-1,-1,-1,-1,-1,-1,-1,-1,-1,-1,-1,-1],"split_conditions":[4E0,3.704365E2,4E0,2.3404688E2,3.424831E2,2E0,1.5E1,-6.7185074E-2,-3.3907893E-1,-2.2834776E-1,1.8379281E-1,2E0,8.446383E2,1.5E1,1.6E1,7.024486E1,8.56624E1,4.8273492E-1,1.413808E-1,1.4E1,1.6E1,3.8955115E2,9.167854E2,5E0,4.4446497E2,8.0626526E2,1.4E1,1E0,5E0,5.346358E2,3.287579E2,1.5327663E2,1.1E1,1.7E1,1.9E1,6.240587E-2,-1.5400381E-1,1.4963104E-1,-5.0027207E-2,2.986695E-1,-8.046526E-2,-1.6535655E-1,6.741123E-2,-1.426833E-2,1.2820587E-2,1.0169476E-1,3.2588053E-1,3.6621174E-1,-2.5580969E-2,-1.6649899E-1,1.0194785E-1,1.4083835E-2,-2.854887E-1,-2.2871569E-1,8.57608E-2,5.8582556E-2,-4.2907692E-2,-4.094338E-1,5.0865997E-2],"split_indices":[5,3,6,1,1,6,5,0,0,0,0,13,0,6,5,4,4,0,0,5,6,1,0,5,4,0,5,10,6,1,3,0,6,5,5,0,0,0,0,0,0,0,0,0,0,0,0,0,0,0,0,0,0,0,0,0,0,0,0],"split_type":[0,0,0,0,0,0,0,0,0,0,0,0,0,0,0,0,0,0,0,0,0,0,0,0,0,0,0,0,0,0,0,0,0,0,0,0,0,0,0,0,0,0,0,0,0,0,0,0,0,0,0,0,0,0,0,0,0,0,0],"sum_hessian":[1.6928005E3,7.778737E0,1.6850219E3,5.370837E0,2.4078999E0,6.409385E1,1.620928E3,1.1231291E0,4.2477083E0,1.0630004E0,1.3448995E0,5.7630627E1,6.463221E0,1.4124231E3,2.0850488E2,3.893769E1,1.8692936E1,5.2700596E0,1.1931611E0,1.3258534E3,8.656972E1,3.8526707E1,1.6997816E2,5.9899917E0,3.29477E1,3.9180467E0,1.4774889E1,1.3227913E3,3.062141E0,2.2259377E1,6.431034E1,2.2935352E1,1.5591356E1,1.6319945E2,6.7787247E0,1.9607316E0,4.02926E0,2.8091377E1,4.856323E0,2.6926906E0,1.2253561E0,1.2651928E1,2.1229606E0,9.4671313E2,3.7607812E2,1.3591976E0,1.7029432E0,2.0885908E1,1.3734682E0,2.6849953E1,3.7460384E1,1.5155666E0,2.1419785E1,6.4258924E0,9.165463E0,5.3322178E1,1.09877266E2,3.294778E0,3.4839463E0],"tree_param":{"num_deleted":"0","num_feature":"14","num_nodes":"59","size_leaf_vector":"1"}},{"base_weights":[8.0620125E-3,5.7755705E-2,-2.8591882E-2,4.6078525E-2,9.0359586E-1,-4.3835875E-2,3.2557437E-1,2.7064262E-2,3.9236856E-1,1.1568872E0,-4.1722428E-2,-8.010563E-2,5.3788386E-2,-4.1848916E-1,7.146941E-1,2.6012397E-1,8.241477E-3,-1.9994864E-1,4.465124E-1,3.9504552E-1,1.2999392E-1,-1.8120266E-1,-1.4292075E-2,-1.19861916E-1,1.2459664E-1,2.8667066E-2,-1.06666E0,1.3888075E0,3.473739E-1,3.638435E-1,-5.1266545E-1,-5.928146E-1,1.5246663E-2,6.34123E-1,5.551519E-2,-2.800492E-1,5.5221733E-2,2.1536243E-1,-8.75706E-2,-2.4220537E-1,5.6355613E-1,6.494819E-1,9.0839006E-2,-4.8460886E-1,6.138376E-1,-3.9493212E-1,-3.889724E-2,6.977995E-1,5.241542E-1,1.7467102E-1,3.3321136E-1,1.9435205E-1,6.1107162E-2,1.6262309E-1,-3.235586E-1,-3.028517E-1,3.224858E-2,1.02943994E-1,9.6822984E-4,1.1259314E-1,2.8398976E-1,-1.3409574E-1,1.6850561E-1,-3.6158E-2,-1.257684E-1,-4.5051374E-3,2.4835752E-1,-1.02293976E-1,1.8055572E-1,-1.803044E-2,-2.1903354E-1,-1.4599848E-1,4.3477345E-2,2.6255167E-1,-4.6895646E-2,-1.6476414E-1,2.9576945E-1,-8.049865E-2,4.0645592E-2,-3.7262848E-1,7.778373E-2,-1.2293954E-2,2.733213E-1,3.2153308E-1,-7.769406E-2,1.0846542E-1,-1.0293864E-1],"categories":[],"categories_nodes":[],"categories_segments":[],"categories_sizes":[],"default_left":[0,0,0,0,0,0,0,0,0,0,0,0,0,0,0,0,0,0,0,0,0,0,0,0,0,0,0,0,0,0,0,0,0,0,0,0,0,0,0,0,0,0,0,0,0,0,0,0,0,0,0,0,0,0,0,0,0,0,0,0,0,0,0,0,0,0,0,0,0,0,0,0,0,0,0,0,0,0,0,0,0,0,0,0,0,0,0],"id":6,"left_children":[1,3,5,7,9,11,13,15,17,19,-1,21,23,25,27,29,31,-1,33,-1,-1,35,37,39,41,43,45,47,49,51,53,55,57,59,61,63,65,67,69,71,73,75,77,79,81,-1,-1,83,-1,85,-1,-1,-1,-1,-1,-1,-1,-1,-1,-1,-1,-1,-1,-1,-1,-1,-1,-1,-1,-1,-1,-1,-1,-1,-1,-1,-1,-1,-1,-1,-1,-1,-1,-1,-1,-1,-1],"loss_changes":[3.0571303E0,6.994855E0,5.230009E0,4.623267E0,2.7087812E0,3.2869506E0,1.1875765E1,2.92916E0,2.3934493E0,3.4004498E-1,0E0,4.497586E0,3.110196E0,4.192818E0,6.109977E0,4.186279E0,2.616623E0,0E0,2.5599232E0,0E0,0E0,6.245945E0,6.9312973E0,6.2756557E0,3.1181233E0,3.142415E0,1.2075605E0,1.0236244E0,2.253647E0,1.8957219E0,4.356698E0,2.1978333E0,2.4153578E0,1.5705509E0,3.4474757E0,4.1271935E0,4.3234215E0,2.163174E1,5.464756E0,6.030303E0,2.7051163E0,4.845288E0,2.7565317E0,3.48026E0,9.8465323E-1,0E0,0E0,1.9800208E0,0E0,1.7040418E0,0E0,0E0,0E0,0E0,0E0,0E0,0E0,0E0,0E0,0E0,0E0,0E0,0E0,0E0,0E0,0E0,0E0,0E0,0E0,0E0,0E0,0E0,0E0,0E0,0E0,0E0,0E0,0E0,0E0,0E0,0E0,0E0,0E0,0E0,0E0,0E0,0E0],"parents":[2147483647,0,0,1,1,2,2,3,3,4,4,5,5,6,6,7,7,8,8,9,9,11,11,12,12,13,13,14,14,15,15,16,16,18,18,21,21,22,22,23,23,24,24,25,25,26,26,27,27,28,28,29,29,30,30,31,31,32,32,33,33,34,34,35,35,36,36,37,37,38,38,39,39,40,40,41,41,42,42,43,43,44,44,47,47,49,49],"right_children":[2,4,6,8,10,12,14,16,18,20,-1,22,24,26,28,30,32,-1,34,-1,-1,36,38,40,42,44,46,48,50,52,54,56,58,60,62,64,66,68,70,72,74,76,78,80,82,-1,-1,84,-1,86,-1,-1,-1,-1,-1,-1,-1,-1,-1,-1,-1,-1,-1,-1,-1,-1,-1,-1,-1,-1,-1,-1,-1,-1,-1,-1,-1,-1,-1,-1,-1,-1,-1,-1,-1,-1,-1],"split_conditions":[5E0,6.795048E2,9.193005E2,1.4E1,5E0,1E0,3.016668E2,2.1830962E2,1.3380267E2,2E0,-4.1722428E-2,1.1E1,5E0,1.3E1,6E0,6E0,4E0,-1.9994864E-1,7.7155707E2,3.9504552E-1,1.2999392E-1,1.531346E2,1.2E1,8.754661E2,6E0,1.2263167E2,1.7E1,3.23584E2,8.8502344E2,1.2263167E2,3.3932126E2,3.4823187E2,3E0,3.380278E2,8.4226697E2,8.493324E1,1.4E1,2E0,8.998984E2,3.545555E2,8.5671075E2,7.024486E1,2.4015495E2,8.5548914E2,2.431012E2,-3.9493212E-1,-3.889724E-2,3.0662512E2,5.241542E-1,3.6784955E2,3.3321136E-1,1.9435205E-1,6.1107162E-2,1.6262309E-1,-3.235586E-1,-3.028517E-1,3.224858E-2,1.02943994E-1,9.6822984E-4,1.1259314E-1,2.8398976E-1,-1.3409574E-1,1.6850561E-1,-3.6158E-2,-1.257684E-1,-4.5051374E-3,2.4835752E-1,-1.02293976E-1,1.8055572E-1,-1.803044E-2,-2.1903354E-1,-1.4599848E-1,4.3477345E-2,2.6255167E-1,-4.6895646E-2,-1.6476414E-1,2.9576945E-1,-8.049865E-2,4.0645592E-2,-3.7262848E-1,7.778373E-2,-1.2293954E-2,2.733213E-1,3.2153308E-1,-7.769406E-2,1.0846542E-1,-1.0293864E-1],"split_indices":[5,1,0,6,6,10,3,3,2,12,0,5,6,5,6,6,5,0,2,0,0,4,5,2,5,4,5,1,2,4,2,1,6,3,0,4,6,13,0,3,0,4,2,2,3,0,0,1,0,1,0,0,0,0,0,0,0,0,0,0,0,0,0,0,0,0,0,0,0,0,0,0,0,0,0,0,0,0,0,0,0,0,0,0,0,0,0],"split_type":[0,0,0,0,0,0,0,0,0,0,0,0,0,0,0,0,0,0,0,0,0,0,0,0,0,0,0,0,0,0,0,0,0,0,0,0,0,0,0,0,0,0,0,0,0,0,0,0,0,0,0,0,0,0,0,0,0,0,0,0,0,0,0,0,0,0,0,0,0,0,0,0,0,0,0,0,0,0,0,0,0,0,0,0,0,0,0],"sum_hessian":[1.6764822E3,7.114096E2,9.6507263E2,7.0276215E2,8.647452E0,9.2608826E2,3.8984386E1,6.672051E2,3.5557064E1,6.8692045E0,1.7782477E0,6.753565E2,2.5073172E2,1.336079E1,2.5623594E1,4.89012E1,6.183039E2,1.179546E0,3.4377518E1,4.9542823E0,1.9149222E0,2.6560464E2,4.097519E2,7.242464E1,1.7830708E2,8.471971E0,4.8888197E0,8.056755E0,1.756684E1,4.3581158E1,5.3200407E0,6.1597805E0,6.121441E2,2.2810593E1,1.1566926E1,1.871674E2,7.843725E1,9.8648636E1,3.1110324E2,6.1975555E1,1.044908E1,9.67255E0,1.6863454E2,4.604785E0,3.867186E0,3.5401583E0,1.3486614E0,3.7579257E0,4.298829E0,1.5327773E1,2.2390676E0,1.4616618E1,2.896454E1,1.8722639E0,3.447777E0,3.5850992E0,2.574681E0,2.0670717E1,5.914734E2,1.3681155E1,9.129437E0,5.8631763E0,5.7037497E0,8.807939E1,9.908801E1,7.279973E1,5.6375146E0,4.0486748E1,5.8161884E1,2.993973E2,1.1705929E1,3.7830242E1,2.4145311E1,7.141831E0,3.30725E0,1.981097E0,7.691453E0,1.8090567E1,1.5054398E2,1.9497054E0,2.6550794E0,1.4765073E0,2.3906786E0,2.615436E0,1.1424897E0,1.1484594E1,3.8431778E0],"tree_param":{"num_deleted":"0","num_feature":"14","num_nodes":"87","size_leaf_vector":"1"}},{"base_weights":[-2.3954741E-3,-8.147317E-3,3.200722E-1,-2.7909055E-3,-4.077764E-1,6.520804E-2,5.5157524E-1,-1.6818456E-1,5.2193683E-3,-5.1774424E-1,2.0799938E-1,4.3178794E-1,-6.528865E-1,8.832358E-1,1.868012E-1,6.679194E-3,-4.918813E-1,1.4485483E-1,-9.771055E-3,-9.116493E-1,-1.9994654E-1,8.2113296E-1,-4.454845E-1,-2.1284772E-1,-2.6730222E-1,3.802678E-1,4.1899708E-1,4.7642884E-1,-3.3949396E-1,9.919178E-2,-7.8282446E-1,7.2209966E-1,-6.3118327E-1,2.4090868E-1,-1.3972609E-3,-7.1469275E-3,-5.2016574E-1,-2.533617E-1,-3.846433E-1,-5.295681E-1,1.6409063E-1,2.144844E-1,1.0787653E0,2.4587145E-2,-2.1166144E-1,-1.0567513E-1,1.4276183E-2,2.5347963E-1,-1.0042416E-1,9.988595E-2,2.290159E-1,2.5465226E-2,-1.9537467E-1,-3.5272643E-2,1.9761288E-1,2.6535332E-2,-3.8461646E-1,6.8706155E-2,2.5425246E-1,-3.027461E-1,-7.733893E-2,5.3585E-2,1.419032E-1,-1.6182363E-1,2.1508148E-2,-1.3449705E-2,8.381289E-3,-2.1217452E-1,6.506102E-2,3.4119792E-2,-1.9855185E-1,2.1590747E-2,-2.6148635E-1,-1.3390172E-1,2.4502163E-1,-4.7548562E-2,1.5298288E-1,5.0154407E-2,3.9753023E-1,-1.2923512E-1,1.9149625E-1],"categories":[],"categories_nodes":[],"categories_segments":[],"categories_sizes":[],"default_left":[0,0,0,0,0,0,0,0,0,0,0,0,0,0,0,0,0,0,0,0,0,0,0,0,0,0,0,0,0,0,0,0,0,0,0,0,0,0,0,0,0,0,0,0,0,0,0,0,0,0,0,0,0,0,0,0,0,0,0,0,0,0,0,0,0,0,0,0,0,0,0,0,0,0,0,0,0,0,0,0,0],"id":7,"left_children":[1,3,5,7,9,11,13,15,17,19,-1,21,23,25,27,29,31,33,35,37,39,41,43,45,-1,47,-1,49,51,53,55,57,59,61,63,65,67,69,-1,71,73,75,77,-1,-1,-1,-1,-1,-1,79,-1,-1,-1,-1,-1,-1,-1,-1,-1,-1,-1,-1,-1,-1,-1,-1,-1,-1,-1,-1,-1,-1,-1,-1,-1,-1,-1,-1,-1,-1,-1],"loss_changes":[3.0980535E0,3.5107522E0,1.6910894E0,2.1470463E0,2.9856164E0,4.2480555E0,1.6744709E0,4.240679E0,3.237647E0,2.358307E0,0E0,3.9783762E0,3.8561392E-1,1.4561386E0,1.4587712E0,3.699773E0,4.8983355E0,2.1068368E0,1.867507E0,1.8168874E0,1.5884674E0,9.685092E-1,5.926828E-1,1.3444929E-1,0E0,2.0309153E0,0E0,5.6175804E-1,5.321439E-1,5.5689487E0,2.4248173E0,1.9598007E-3,3.1410103E0,1.2241569E0,2.4152834E0,1.8403882E0,1.1368508E0,7.36363E-1,0E0,1.4626672E0,3.0377142E0,4.7056246E-1,9.32806E-1,0E0,0E0,0E0,0E0,0E0,0E0,1.3333985E0,0E0,0E0,0E0,0E0,0E0,0E0,0E0,0E0,0E0,0E0,0E0,0E0,0E0,0E0,0E0,0E0,0E0,0E0,0E0,0E0,0E0,0E0,0E0,0E0,0E0,0E0,0E0,0E0,0E0,0E0,0E0],"parents":[2147483647,0,0,1,1,2,2,3,3,4,4,5,5,6,6,7,7,8,8,9,9,11,11,12,12,13,13,14,14,15,15,16,16,17,17,18,18,19,19,20,20,21,21,22,22,23,23,25,25,27,27,28,28,29,29,30,30,31,31,32,32,33,33,34,34,35,35,36,36,37,37,39,39,40,40,41,41,42,42,49,49],"right_children":[2,4,6,8,10,12,14,16,18,20,-1,22,24,26,28,30,32,34,36,38,40,42,44,46,-1,48,-1,50,52,54,56,58,60,62,64,66,68,70,-1,72,74,76,78,-1,-1,-1,-1,-1,-1,80,-1,-1,-1,-1,-1,-1,-1,-1,-1,-1,-1,-1,-1,-1,-1,-1,-1,-1,-1,-1,-1,-1,-1,-1,-1,-1,-1,-1,-1,-1,-1],"split_conditions":[9.309418E2,9.243307E2,6E0,2.0911157E2,1.7E1,8.599444E2,1.1E1,8E0,2.3052576E2,8.1747534E2,2.0799938E-1,4.0845026E2,3.198473E2,2E0,8.6935803E2,8E0,2E0,2E0,7.0479944E2,7.5876605E2,5E0,3.1014624E2,9.428705E2,2.8607327E2,-2.6730222E-1,1E0,4.1899708E-1,8.3953625E2,6.885414E1,5E0,1.9775775E2,3.3256647E2,8E0,1.3E1,5.456793E1,5E0,1.4E1,9.2885785E2,-3.846433E-1,7.824975E1,1.10195335E2,9.387745E2,1.3639099E2,2.4587145E-2,-2.1166144E-1,-1.0567513E-1,1.4276183E-2,2.5347963E-1,-1.0042416E-1,1.6250786E2,2.290159E-1,2.5465226E-2,-1.9537467E-1,-3.5272643E-2,1.9761288E-1,2.6535332E-2,-3.8461646E-1,6.8706155E-2,2.5425246E-1,-3.027461E-1,-7.733893E-2,5.3585E-2,1.419032E-1,-1.6182363E-1,2.1508148E-2,-1.3449705E-2,8.381289E-3,-2.1217452E-1,6.506102E-2,3.4119792E-2,-1.9855185E-1,2.1590747E-2,-2.6148635E-1,-1.3390172E-1,2.4502163E-1,-4.7548562E-2,1.5298288E-1,5.0154407E-2,3.9753023E-1,-1.2923512E-1,1.9149625E-1],"split_indices":[2,2,5,3,5,0,6,5,1,0,0,3,3,12,0,6,6,12,3,0,5,3,2,1,0,13,0,0,4,6,1,0,6,5,4,6,5,2,0,4,4,2,4,0,0,0,0,0,0,4,0,0,0,0,0,0,0,0,0,0,0,0,0,0,0,0,0,0,0,0,0,0,0,0,0,0,0,0,0,0,0],"split_type":[0,0,0,0,0,0,0,0,0,0,0,0,0,0,0,0,0,0,0,0,0,0,0,0,0,0,0,0,0,0,0,0,0,0,0,0,0,0,0,0,0,0,0,0,0,0,0,0,0,0,0,0,0,0,0,0,0,0,0,0,0,0,0,0,0,0,0,0,0,0,0,0,0,0,0,0,0,0,0,0,0],"sum_hessian":[1.6678984E3,1.6396272E3,2.8271233E1,1.6189349E3,2.0692345E1,1.4066712E1,1.420452E1,7.386186E1,1.545073E3,1.9295134E1,1.3972119E0,9.576639E0,4.490073E0,6.695501E0,7.509019E0,4.8591618E1,2.5270243E1,1.489494E2,1.3961237E3,7.7814746E0,1.1513658E1,6.677202E0,2.8994367E0,2.2415793E0,2.248494E0,4.2614584E0,2.4340427E0,4.9046636E0,2.6043556E0,4.427761E1,4.314007E0,2.1705704E0,2.3099672E1,8.951289E1,5.9436516E1,1.3899912E3,6.132454E0,3.4087412E0,4.3727336E0,5.8038173E0,5.7098403E0,2.5366516E0,4.1405506E0,1.1836333E0,1.7158035E0,1.2304249E0,1.0111544E0,2.4727821E0,1.7886763E0,2.7042534E0,2.20041E0,1.4111465E0,1.193209E0,3.2482983E1,1.1794628E1,1.8711793E0,2.4428277E0,1.0131764E0,1.1573939E0,1.063322E1,1.2466453E1,7.196763E1,1.7545265E1,6.345804E0,5.3090714E1,6.7002185E2,7.199693E2,4.9232063E0,1.209248E0,2.1753492E0,1.233392E0,2.3901236E0,3.4136937E0,3.1136844E0,2.5961561E0,1.3261341E0,1.2105176E0,1.2379801E0,2.9025705E0,1.4626403E0,1.2416131E0],"tree_param":{"num_deleted":"0","num_feature":"14","num_nodes":"81","size_leaf_vector":"1"}},{"base_weights":[4.5669354E-3,-5.725644E-1,7.5020744E-3,-3.1470215E-1,3.0202314E-1,2.600237E-1,-1.8924548E-3,-3.625659E-2,1.8235105E-1,1.54532E-1,1.113542E0,1.8780211E-2,-8.4514655E-2,2.8062908E-2,7.800431E-1,3.946953E-1,2.759858E-2,2.2183344E-1,7.6921443E-3,-6.267729E-1,-5.1899407E-2,-4.8855892E-1,1.9489834E-1,1.0596551E0,-2.7412362E-2,4.8289567E-1,2.861504E-2,2.0024939E-1,-1.818778E-3,-1.18096255E-1,-1.0744148E0,-6.0837385E-3,-3.7816393E-1,-2.6989967E-1,5.0190907E-2,1.2703706E-1,-4.0849604E-2,3.522703E-1,1.15601234E-1,-1.5051135E-1,1.4153217E-1,1.6059518E-1,-9.639988E-2,8.0297105E-2,-8.696729E-2,2.6354589E-2,2.1698046E-1,-2.2052148E-2,1.1674647E-2,1.9680296E-1,-2.1921949E-1,-3.7598458E-1,-2.847894E-3,2.2305861E-2,-6.796831E-2,9.010473E-2,-2.1940671E-1],"categories":[],"categories_nodes":[],"categories_segments":[],"categories_sizes":[],"default_left":[0,0,0,0,0,0,0,0,0,0,0,0,0,0,0,0,0,0,0,0,0,0,0,0,0,0,0,0,0,0,0,0,0,0,0,0,0,0,0,0,0,0,0,0,0,0,0,0,0,0,0,0,0,0,0,0,0],"id":8,"left_children":[1,3,5,-1,7,9,11,-1,-1,13,15,17,19,21,23,-1,-1,25,27,29,31,33,35,37,39,41,43,45,47,49,51,53,55,-1,-1,-1,-1,-1,-1,-1,-1,-1,-1,-1,-1,-1,-1,-1,-1,-1,-1,-1,-1,-1,-1,-1,-1],"loss_changes":[2.8307288E0,3.840249E0,3.9411075E0,0E0,5.595008E-1,5.193135E0,2.738677E0,0E0,0E0,4.265283E0,1.1989999E0,2.8860242E0,5.642741E0,4.070076E0,2.078426E0,0E0,0E0,3.3343248E0,2.2295833E0,3.9980946E0,4.5385695E0,3.2627234E0,2.749483E0,7.0402145E-2,1.0202651E0,1.3595734E0,3.0627E0,3.3050644E0,3.3929548E0,5.033601E0,1.800004E0,4.7588267E0,9.179731E0,0E0,0E0,0E0,0E0,0E0,0E0,0E0,0E0,0E0,0E0,0E0,0E0,0E0,0E0,0E0,0E0,0E0,0E0,0E0,0E0,0E0,0E0,0E0,0E0],"parents":[2147483647,0,0,1,1,2,2,4,4,5,5,6,6,9,9,10,10,11,11,12,12,13,13,14,14,17,17,18,18,19,19,20,20,21,21,22,22,23,23,24,24,25,25,26,26,27,27,28,28,29,29,30,30,31,31,32,32],"right_children":[2,4,6,-1,8,10,12,-1,-1,14,16,18,20,22,24,-1,-1,26,28,30,32,34,36,38,40,42,44,46,48,50,52,54,56,-1,-1,-1,-1,-1,-1,-1,-1,-1,-1,-1,-1,-1,-1,-1,-1,-1,-1,-1,-1,-1,-1,-1,-1],"split_conditions":[4E0,3.7367017E2,3E0,-3.1470215E-1,7.3641766E2,2E0,1.3E1,-3.625659E-2,1.8235105E-1,1.4E1,3.4823187E2,1.7138527E2,1.8834415E2,2.945527E2,3.7287973E2,3.946953E-1,2.759858E-2,2.8427676E2,1.992668E2,1.3710822E2,5.0323312E2,2E0,1.960393E2,2E0,1.0398667E2,1.5E1,6E0,3.275363E2,4.6529123E2,2.2391467E2,2.860014E2,8.165412E2,8E0,-2.6989967E-1,5.0190907E-2,1.2703706E-1,-4.0849604E-2,3.522703E-1,1.15601234E-1,-1.5051135E-1,1.4153217E-1,1.6059518E-1,-9.639988E-2,8.0297105E-2,-8.696729E-2,2.6354589E-2,2.1698046E-1,-2.2052148E-2,1.1674647E-2,1.9680296E-1,-2.1921949E-1,-3.7598458E-1,-2.847894E-3,2.2305861E-2,-6.796831E-2,9.010473E-2,-2.1940671E-1],"split_indices":[5,3,6,0,2,6,5,0,0,5,1,0,0,2,1,0,0,3,2,0,3,13,4,12,4,6,5,3,0,2,2,2,6,0,0,0,0,0,0,0,0,0,0,0,0,0,0,0,0,0,0,0,0,0,0,0,0],"split_type":[0,0,0,0,0,0,0,0,0,0,0,0,0,0,0,0,0,0,0,0,0,0,0,0,0,0,0,0,0,0,0,0,0,0,0,0,0,0,0,0,0,0,0,0,0,0,0,0,0,0,0,0,0,0,0,0,0],"sum_hessian":[1.6675353E3,7.4557285E0,1.6600795E3,4.6973543E0,2.7583742E0,5.8587585E1,1.601492E3,1.4114426E0,1.3469317E0,5.319405E1,5.393536E0,1.2815994E3,3.198926E2,4.5116936E1,8.077113E0,4.2623467E0,1.1311893E0,6.537605E1,1.2162233E3,1.7115452E1,3.0277716E2,1.0542546E1,3.457439E1,5.7675443E0,2.3095694E0,2.7168621E1,3.8207428E1,5.6301132E1,1.1599221E3,8.603129E0,8.512322E0,2.6638824E2,3.6388897E1,6.251967E0,4.29058E0,2.0288563E1,1.4285825E1,4.2961774E0,1.4713668E0,1.1817282E0,1.1278411E0,2.5819984E1,1.3486371E0,2.1917654E1,1.6289774E1,4.730326E1,8.99787E0,4.199848E2,7.399373E2,3.7694173E0,4.8337126E0,7.136741E0,1.3755816E0,1.9566621E2,7.072204E1,1.250852E1,2.3880379E1],"tree_param":{"num_deleted":"0","num_feature":"14","num_nodes":"57","size_leaf_vector":"1"}},{"base_weights":[1.755587E-2,4.4176076E-3,1.3161601E-1,1.7972974E-2,-5.384022E-1,1.9262329E-1,-1.03947E-1,7.8474134E-2,-1.2045658E-2,-9.981904E-1,-3.0555665E-1,4.320192E-1,8.377787E-2,-2.87483E-1,4.8726034E-1,-4.1393554E-1,8.884357E-2,-4.161619E-3,-3.350232E-1,-3.3233013E-2,-3.2256287E-1,-7.903127E-1,-2.033449E-2,8.253807E-2,6.606675E-1,-8.139293E-3,4.426423E-1,-9.512322E-2,-9.1208917E-1,-9.843442E-2,8.366095E-1,1.284262E-1,-6.430259E-1,7.00808E-2,3.7312803E-1,-1.5977342E-2,3.344457E-1,-7.741575E-1,9.432446E-1,8.442078E-2,-2.909365E-1,2.1727327E-1,-2.7300078E-1,5.015573E-1,-4.211626E-1,1.2456814E0,4.9182037E-1,-1.3281128E-1,3.5241908E-1,6.90307E-1,-1.5181172E-1,-5.369883E-1,3.9697662E-1,2.7096722E-2,-3.5989797E-1,-1.934635E-1,1.4820437E-1,3.3393714E-1,3.8320503E-1,1.19064495E-1,-6.1492156E-2,-2.3626661E-1,1.2503774E-2,3.257472E-2,-3.0774433E-2,-4.4617973E-2,2.8779128E-1,-2.8799554E-2,5.714454E-3,3.5570112E-1,-2.1515157E-2,-2.660349E-1,1.3597562E-2,7.681374E-2,3.5104686E-1,1.7397852E-1,-1.842342E-1,3.6373273E-1,7.333453E-2,5.802732E-2,-2.229712E-1,1.19838744E-1,4.180511E-1,-1.1215811E-1,2.0627509E-1,2.2077315E-1,-5.4921348E-2,-1.4941758E-1,1.5908742E-1,3.594912E-1,1.2598616E-1,-1.7571454E-1,2.511644E-1,-2.580639E-1,1.0691975E-1,-1.4020939E-1,1.8409273E-1,2.2937743E-1,-1.3153058E-1],"categories":[],"categories_nodes":[],"categories_segments":[],"categories_sizes":[],"default_left":[0,0,0,0,0,0,0,0,0,0,0,0,0,0,0,0,0,0,0,0,0,0,0,0,0,0,0,0,0,0,0,0,0,0,0,0,0,0,0,0,0,0,0,0,0,0,0,0,0,0,0,0,0,0,0,0,0,0,0,0,0,0,0,0,0,0,0,0,0,0,0,0,0,0,0,0,0,0,0,0,0,0,0,0,0,0,0,0,0,0,0,0,0,0,0,0,0,0,0],"id":9,"left_children":[1,3,5,7,9,11,13,15,17,19,21,23,25,27,29,31,33,35,37,-1,-1,39,41,43,45,47,49,51,53,55,57,59,61,63,65,67,69,71,73,-1,-1,75,-1,77,79,81,83,85,87,89,91,93,95,-1,-1,-1,-1,97,-1,-1,-1,-1,-1,-1,-1,-1,-1,-1,-1,-1,-1,-1,-1,-1,-1,-1,-1,-1,-1,-1,-1,-1,-1,-1,-1,-1,-1,-1,-1,-1,-1,-1,-1,-1,-1,-1,-1,-1,-1],"loss_changes":[2.4799428E0,1.0939006E1,2.4765885E0,2.6346009E0,3.5727787E0,3.5108438E0,4.0260854E0,2.4929185E0,2.4688158E0,6.8297577E-1,3.5076246E0,3.3261003E0,3.13128E0,3.2723644E0,1.8942242E0,1.3372039E0,2.4911194E0,3.7981403E0,1.369897E1,0E0,0E0,2.0836787E0,3.8064556E0,3.983899E0,1.8994284E0,3.4840994E0,2.953932E0,5.103768E0,1.9723997E0,1.6793163E0,8.256335E-1,4.2433524E-1,7.518163E-1,2.9623787E0,9.010006E0,2.571919E0,1.1152139E1,1.677988E0,6.918545E-1,0E0,0E0,4.6617384E0,0E0,1.5704935E0,1.8580945E0,7.425928E-2,3.8816376E0,2.6472938E0,3.2776284E0,1.3976789E0,3.2845802E0,3.8513618E0,2.3872216E0,0E0,0E0,0E0,0E0,1.6638784E0,0E0,0E0,0E0,0E0,0E0,0E0,0E0,0E0,0E0,0E0,0E0,0E0,0E0,0E0,0E0,0E0,0E0,0E0,0E0,0E0,0E0,0E0,0E0,0E0,0E0,0E0,0E0,0E0,0E0,0E0,0E0,0E0,0E0,0E0,0E0,0E0,0E0,0E0,0E0,0E0,0E0],"parents":[2147483647,0,0,1,1,2,2,3,3,4,4,5,5,6,6,7,7,8,8,9,9,10,10,11,11,12,12,13,13,14,14,15,15,16,16,17,17,18,18,21,21,22,22,23,23,24,24,25,25,26,26,27,27,28,28,29,29,30,30,31,31,32,32,33,33,34,34,35,35,36,36,37,37,38,38,41,41,43,43,44,44,45,45,46,46,47,47,48,48,49,49,50,50,51,51,52,52,57,57],"right_children":[2,4,6,8,10,12,14,16,18,20,22,24,26,28,30,32,34,36,38,-1,-1,40,42,44,46,48,50,52,54,56,58,60,62,64,66,68,70,72,74,-1,-1,76,-1,78,80,82,84,86,88,90,92,94,96,-1,-1,-1,-1,98,-1,-1,-1,-1,-1,-1,-1,-1,-1,-1,-1,-1,-1,-1,-1,-1,-1,-1,-1,-1,-1,-1,-1,-1,-1,-1,-1,-1,-1,-1,-1,-1,-1,-1,-1,-1,-1,-1,-1,-1,-1],"split_conditions":[1.6E1,1.5E1,8.18194E2,2.9412155E2,2.881572E2,1.7E1,1.7831079E2,1.2877249E2,1.9E1,5.9647015E1,4.6586612E2,3.417645E2,7.3526794E2,4.3805643E2,8.6914246E2,2.2477698E2,1.4E1,1.5E1,4.3604434E2,-3.3233013E-2,-3.2256287E-1,2.174473E2,8.347935E2,2E0,3.0820602E2,1E0,4.1577994E2,2E0,5E0,8.8962244E2,8.536926E2,3.0820602E2,3.246619E2,8E0,2E0,3.5778918E2,1.6E1,1.2E1,9.2542114E1,8.442078E-2,-2.909365E-1,4.471826E2,-2.7300078E-1,1.5579172E2,1.6E1,5E0,3.875391E2,1.3710822E2,2.0839297E2,6E0,4.9353207E2,3.668435E2,8.260985E2,2.7096722E-2,-3.5989797E-1,-1.934635E-1,1.4820437E-1,8.1747534E2,3.8320503E-1,1.19064495E-1,-6.1492156E-2,-2.3626661E-1,1.2503774E-2,3.257472E-2,-3.0774433E-2,-4.4617973E-2,2.8779128E-1,-2.8799554E-2,5.714454E-3,3.5570112E-1,-2.1515157E-2,-2.660349E-1,1.3597562E-2,7.681374E-2,3.5104686E-1,1.7397852E-1,-1.842342E-1,3.6373273E-1,7.333453E-2,5.802732E-2,-2.229712E-1,1.19838744E-1,4.180511E-1,-1.1215811E-1,2.0627509E-1,2.2077315E-1,-5.4921348E-2,-1.4941758E-1,1.5908742E-1,3.594912E-1,1.2598616E-1,-1.7571454E-1,2.511644E-1,-2.580639E-1,1.0691975E-1,-1.4020939E-1,1.8409273E-1,2.2937743E-1,-1.3153058E-1],"split_indices":[5,5,2,1,1,5,4,2,6,4,2,1,0,3,2,1,6,6,3,0,0,2,0,13,3,10,1,12,6,0,0,3,0,6,13,1,6,5,4,0,0,3,0,0,6,6,3,0,0,6,1,1,2,0,0,0,0,0,0,0,0,0,0,0,0,0,0,0,0,0,0,0,0,0,0,0,0,0,0,0,0,0,0,0,0,0,0,0,0,0,0,0,0,0,0,0,0,0,0],"split_type":[0,0,0,0,0,0,0,0,0,0,0,0,0,0,0,0,0,0,0,0,0,0,0,0,0,0,0,0,0,0,0,0,0,0,0,0,0,0,0,0,0,0,0,0,0,0,0,0,0,0,0,0,0,0,0,0,0,0,0,0,0,0,0,0,0,0,0,0,0,0,0,0,0,0,0,0,0,0,0,0,0,0,0,0,0,0,0,0,0,0,0,0,0,0,0,0,0,0,0],"sum_hessian":[1.6542806E3,1.4843423E3,1.6993843E2,1.4491215E3,3.5220757E1,1.3512529E2,3.4813133E1,4.800297E2,9.690918E2,1.0735331E1,2.4485426E1,4.1306396E1,9.381889E1,2.6957966E1,7.8551683E0,9.097577E0,4.7093213E2,9.469882E2,2.210356E1,1.0520397E0,9.683291E0,8.414129E0,1.6071297E1,1.687481E1,2.443159E1,7.5466675E1,1.8352217E1,2.1491522E1,5.466445E0,3.2031767E0,4.651992E0,2.8321025E0,6.265475E0,4.4294434E2,2.7987803E1,9.159779E2,3.101029E1,1.674528E1,5.35828E0,1.1254911E0,7.288638E0,1.3280259E1,2.7910383E0,9.21406E0,7.660749E0,4.0436754E0,2.0387913E1,5.6546112E1,1.8920567E1,1.2841058E1,5.5111585E0,1.1275675E1,1.0215846E1,1.3715206E0,4.0949244E0,1.6202486E0,1.5829283E0,2.9944463E0,1.6575454E0,1.463377E0,1.3687254E0,5.049419E0,1.2160559E0,3.6248557E2,8.045876E1,1.5201051E1,1.2786751E1,2.7833597E2,6.3764197E2,9.39704E0,2.161325E1,1.4649766E1,2.095513E0,1.8584334E0,3.4998467E0,9.457367E0,3.822892E0,1.460425E0,7.7536345E0,2.7715278E0,4.889221E0,1.1518931E0,2.8917825E0,3.5923767E0,1.6795536E1,2.346456E0,5.4199654E1,2.9613056E0,1.5959262E1,3.268028E0,9.5730295E0,4.1140413E0,1.3971168E0,8.307267E0,2.9684083E0,1.8156456E0,8.400201E0,1.9289751E0,1.065471E0],"tree_param":{"num_deleted":"0","num_feature":"14","num_nodes":"99","size_leaf_vector":"1"}},{"base_weights":[-1.04307085E-2,-5.7811206E-3,-3.2064313E-1,-1.053991E-2,6.254979E-1,2.6580942E-1,-5.370102E-1,-2.7470704E-2,8.9934535E-2,1.1801318E0,5.3902727E-2,6.8061334E-1,-3.3222798E-1,-8.06403E-1,-2.7252442E-1,-1.5265627E-2,-1.654102E-1,4.3494146E-2,3.143438E-1,3.9118573E-1,9.444914E-2,-6.622806E-1,2.6477796E-1,1.9469276E-1,3.0322364E-1,-2.2960517E-1,4.0267482E-2,-3.2632285E-1,4.016036E-2,5.1989025E-1,-5.609038E-1,-3.007504E-2,8.2154915E-2,5.5692058E-2,-3.411368E-1,-1.6457543E-1,1.0222151E-1,-1.526234E-1,3.651939E-1,7.348029E-2,-3.038206E-1,1.6282909E-1,-7.620926E-2,5.737188E-2,-3.814084E-2,2.4809662E-1,-1.3141138E-2,-7.6008946E-1,-1.0805342E-1,1.4867872E-2,-1.4938091E-2,-3.1646017E-2,7.274745E-2,3.915674E-2,-1.855408E-1,-2.3263486E-1,-2.497E-2,1.1823991E-2,-1.1074977E-1,9.531552E-2,1.410872E-2,1.340121E-1,-8.158893E-2,-8.127221E-2,-2.9479155E-1,2.0277645E-1,-2.6570326E-1],"categories":[],"categories_nodes":[],"categories_segments":[],"categories_sizes":[],"default_left":[0,0,0,0,0,0,0,0,0,0,0,0,0,0,0,0,0,0,0,0,0,0,0,0,0,0,0,0,0,0,0,0,0,0,0,0,0,0,0,0,0,0,0,0,0,0,0,0,0,0,0,0,0,0,0,0,0,0,0,0,0,0,0,0,0,0,0],"id":10,"left_children":[1,3,5,7,9,11,13,15,17,19,21,23,25,27,29,31,33,35,37,-1,-1,39,-1,41,-1,-1,-1,-1,43,45,47,49,51,53,55,57,59,-1,61,-1,-1,-1,-1,-1,-1,-1,-1,63,65,-1,-1,-1,-1,-1,-1,-1,-1,-1,-1,-1,-1,-1,-1,-1,-1,-1,-1],"loss_changes":[2.3658988E0,4.8683443E0,3.2163734E0,2.7365563E0,3.780335E0,2.01152E0,1.0645823E0,2.3144336E0,2.404259E0,2.4368E-1,4.7503014E0,5.3755236E-1,8.3399487E-1,2.048993E0,2.715293E0,1.8281932E0,4.361659E0,2.379928E0,1.8440645E0,0E0,0E0,1.6267667E0,0E0,6.2056947E-1,0E0,0E0,0E0,0E0,1.0176984E-1,6.1595786E-1,6.626847E-1,1.7285254E0,5.0574985E0,2.620993E0,6.926666E0,1.807122E0,1.7862287E0,0E0,2.089738E0,0E0,0E0,0E0,0E0,0E0,0E0,0E0,0E0,3.400855E-1,2.8470922E0,0E0,0E0,0E0,0E0,0E0,0E0,0E0,0E0,0E0,0E0,0E0,0E0,0E0,0E0,0E0,0E0,0E0,0E0],"parents":[2147483647,0,0,1,1,2,2,3,3,4,4,5,5,6,6,7,7,8,8,9,9,10,10,11,11,12,12,13,13,14,14,15,15,16,16,17,17,18,18,21,21,23,23,28,28,29,29,30,30,31,31,32,32,33,33,34,34,35,35,36,36,38,38,47,47,48,48],"right_children":[2,4,6,8,10,12,14,16,18,20,22,24,26,28,30,32,34,36,38,-1,-1,40,-1,42,-1,-1,-1,-1,44,46,48,50,52,54,56,58,60,-1,62,-1,-1,-1,-1,-1,-1,-1,-1,64,66,-1,-1,-1,-1,-1,-1,-1,-1,-1,-1,-1,-1,-1,-1,-1,-1,-1,-1],"split_conditions":[2.3E1,2.3E1,8.3480316E1,1E0,2.9879242E2,1.5E1,3.2494934E2,5.0768842E2,1.3E1,3.9062906E2,4.2663074E2,1.2E1,5.1540955E1,7.324654E2,3.4277054E2,4.3460715E2,6E0,3.3256647E2,2.58987E1,3.9118573E-1,9.444914E-2,8.3480316E1,2.6477796E-1,4.6863567E1,3.0322364E-1,-2.2960517E-1,4.0267482E-2,-3.2632285E-1,1.6250786E2,2.5531734E2,4.6421335E2,2.487781E2,5E0,8.865325E2,6E0,6E0,3.0921207E2,-1.526234E-1,1.9E1,7.348029E-2,-3.038206E-1,1.6282909E-1,-7.620926E-2,5.737188E-2,-3.814084E-2,2.4809662E-1,-1.3141138E-2,3.939346E2,5.1580853E2,1.4867872E-2,-1.4938091E-2,-3.1646017E-2,7.274745E-2,3.915674E-2,-1.855408E-1,-2.3263486E-1,-2.497E-2,1.1823991E-2,-1.1074977E-1,9.531552E-2,1.410872E-2,1.340121E-1,-8.158893E-2,-8.127221E-2,-2.9479155E-1,2.0277645E-1,-2.6570326E-1],"split_indices":[5,6,4,7,1,6,1,1,6,3,3,6,4,0,2,1,5,0,4,0,0,4,0,4,0,0,0,0,4,3,1,3,6,2,6,5,3,0,6,0,0,0,0,0,0,0,0,1,1,0,0,0,0,0,0,0,0,0,0,0,0,0,0,0,0,0,0],"split_type":[0,0,0,0,0,0,0,0,0,0,0,0,0,0,0,0,0,0,0,0,0,0,0,0,0,0,0,0,0,0,0,0,0,0,0,0,0,0,0,0,0,0,0,0,0,0,0,0,0,0,0,0,0,0,0,0,0,0,0,0,0,0,0,0,0,0,0],"sum_hessian":[1.6405823E3,1.6173594E3,2.322299E1,1.6062344E3,1.1125019E1,6.1972175E0,1.7025774E1,1.375224E3,2.310103E2,5.105951E0,6.0190687E0,3.5776503E0,2.6195674E0,7.4195857E0,9.606188E0,1.2644541E3,1.10769966E2,1.9238997E2,3.862033E1,4.023301E0,1.08265E0,3.336424E0,2.6826444E0,2.0904558E0,1.4871945E0,1.0260477E0,1.5935197E0,5.3550434E0,2.0645425E0,2.3489356E0,7.2572517E0,1.0982019E3,1.662522E2,4.935444E1,6.1415527E1,4.195216E1,1.504378E2,1.7231789E0,3.6897152E1,1.0136095E0,2.3228147E0,1.0592405E0,1.0312153E0,1.0096487E0,1.0548939E0,1.2181852E0,1.1307504E0,4.569088E0,2.6881638E0,2.1765936E2,8.805425E2,7.6761E1,8.949119E1,4.5149357E1,4.205085E0,2.213432E1,3.928121E1,2.1411245E1,2.0540915E1,2.9703814E1,1.20734E2,3.2977203E1,3.9199505E0,2.1220121E0,2.447076E0,1.4037429E0,1.2844207E0],"tree_param":{"num_deleted":"0","num_feature":"14","num_nodes":"67","size_leaf_vector":"1"}},{"base_weights":[-2.7292214E-2,4.556624E-1,-2.9951124E-2,9.002803E-1,-4.1056514E-1,-7.338456E-2,4.4606263E-3,1.0969974E0,1.2574893E-2,-2.7149728E-1,6.796451E-2,3.3157913E-3,-1.0730001E-1,-6.581792E-3,2.8598267E-1,3.682838E-2,4.041501E-1,-5.2997783E-2,2.5766626E-1,-7.084266E-1,-9.81469E-2,-7.0302546E-1,-3.2771253E-3,5.683368E-1,-1.3679989E-1,3.6034656E-1,-7.481714E-2,4.872348E-1,-5.1704734E-3,4.935452E-1,-3.9536184E-1,-1.2086074E-1,8.731523E-2,-3.3430535E-1,-3.821059E-2,-1.1458732E-1,1.626308E-2,5.8805272E-2,7.6458627E-1,-4.7135925E-1,1.20233566E-1,-1.0861389E-1,1.4932473E-1,-1.1452982E-1,-7.380997E-3,5.3998966E-2,2.7704987E-1,-1.07299194E-1,9.2725955E-2,2.0952646E-1,1.9188121E-2,-3.2115106E-2,-1.2943575E-1,9.7255185E-2,-4.8823617E-2,-5.569308E-2,4.9258587E-3,8.236827E-2,1.2769976E-3,2.5646514E-1,-9.397541E-2,2.6504862E-1,-1.9742187E-2,-2.1671997E-1,-2.8276771E-2,1.252153E-1,-3.8165372E-2],"categories":[],"categories_nodes":[],"categories_segments":[],"categories_sizes":[],"default_left":[0,0,0,0,0,0,0,0,0,0,0,0,0,0,0,0,0,0,0,0,0,0,0,0,0,0,0,0,0,0,0,0,0,0,0,0,0,0,0,0,0,0,0,0,0,0,0,0,0,0,0,0,0,0,0,0,0,0,0,0,0,0,0,0,0,0,0],"id":11,"left_children":[1,3,5,7,9,11,13,15,-1,-1,-1,17,19,21,23,-1,-1,25,27,29,31,33,35,37,39,41,43,45,47,49,-1,51,53,-1,-1,55,57,59,61,63,65,-1,-1,-1,-1,-1,-1,-1,-1,-1,-1,-1,-1,-1,-1,-1,-1,-1,-1,-1,-1,-1,-1,-1,-1,-1,-1],"loss_changes":[2.1194766E0,3.851537E0,2.439315E0,1.015676E0,1.3873125E0,1.8770049E0,2.8352115E0,1.071619E0,0E0,0E0,0E0,3.1957614E0,2.6829824E0,2.0184286E0,4.1869583E0,0E0,0E0,1.6748962E0,2.442719E0,6.02884E0,2.0912027E0,8.387747E-1,1.904704E0,2.038251E0,1.3112898E0,1.1066502E0,2.6784396E0,2.7286296E0,2.3087466E0,2.3677152E-1,0E0,1.8430557E0,3.2791724E0,0E0,0E0,1.2203597E0,2.3095298E0,2.3044214E0,1.5350075E0,5.512438E-1,7.1837306E-1,0E0,0E0,0E0,0E0,0E0,0E0,0E0,0E0,0E0,0E0,0E0,0E0,0E0,0E0,0E0,0E0,0E0,0E0,0E0,0E0,0E0,0E0,0E0,0E0,0E0,0E0],"parents":[2147483647,0,0,1,1,2,2,3,3,4,4,5,5,6,6,7,7,11,11,12,12,13,13,14,14,17,17,18,18,19,19,20,20,21,21,22,22,23,23,24,24,25,25,26,26,27,27,28,28,29,29,31,31,32,32,35,35,36,36,37,37,38,38,39,39,40,40],"right_children":[2,4,6,8,10,12,14,16,-1,-1,-1,18,20,22,24,-1,-1,26,28,30,32,34,36,38,40,42,44,46,48,50,-1,52,54,-1,-1,56,58,60,62,64,66,-1,-1,-1,-1,-1,-1,-1,-1,-1,-1,-1,-1,-1,-1,-1,-1,-1,-1,-1,-1,-1,-1,-1,-1,-1,-1],"split_conditions":[1.0031607E2,6E0,4.9813107E2,3.6569376E2,1.08896774E2,2.6077866E2,5.6553546E2,1.7138527E2,1.2574893E-2,-2.7149728E-1,6.796451E-2,2.4446652E2,2.62647E2,2.9857684E2,6.721752E2,3.682838E-2,4.041501E-1,2.1572267E2,1.1671885E2,5E0,1.6E1,2E0,5.069493E1,5.7207465E2,1E0,1.9495523E2,2.3361572E2,1E0,6E0,3.73239E2,-3.9536184E-1,1.6E1,3.0260098E2,-3.3430535E-1,-3.821059E-2,4.1197137E2,5.9647015E1,3.1718848E2,1E0,6.66139E2,6.66139E2,-1.0861389E-1,1.4932473E-1,-1.1452982E-1,-7.380997E-3,5.3998966E-2,2.7704987E-1,-1.07299194E-1,9.2725955E-2,2.0952646E-1,1.9188121E-2,-3.2115106E-2,-1.2943575E-1,9.7255185E-2,-4.8823617E-2,-5.569308E-2,4.9258587E-3,8.236827E-2,1.2769976E-3,2.5646514E-1,-9.397541E-2,2.6504862E-1,-1.9742187E-2,-2.1671997E-1,-2.8276771E-2,1.252153E-1,-3.8165372E-2],"split_indices":[2,5,0,1,4,0,3,0,0,0,0,0,0,2,0,0,0,3,4,5,5,13,4,2,13,2,3,10,6,1,0,6,1,0,0,1,4,1,7,3,3,0,0,0,0,0,0,0,0,0,0,0,0,0,0,0,0,0,0,0,0,0,0,0,0,0,0],"split_type":[0,0,0,0,0,0,0,0,0,0,0,0,0,0,0,0,0,0,0,0,0,0,0,0,0,0,0,0,0,0,0,0,0,0,0,0,0,0,0,0,0,0,0,0,0,0,0,0,0,0,0,0,0,0,0,0,0,0,0,0,0,0,0,0,0,0,0],"sum_hessian":[1.6388846E3,8.040637E0,1.630844E3,5.287403E0,2.7532337E0,7.204199E2,9.104241E2,4.0754056E0,1.2119977E0,1.3134719E0,1.4397618E0,2.2116158E2,4.992583E2,8.770012E2,3.342287E1,1.1372644E0,2.938141E0,1.8172011E2,3.9441467E1,6.3421683E0,4.9291614E2,3.1418097E0,8.738594E2,1.9833107E1,1.3589763E1,8.333622E0,1.7338649E2,2.05974E1,1.8844069E1,2.197787E0,4.144381E0,4.3944495E2,5.3471195E1,1.2866589E0,1.8551507E0,1.2976915E2,7.440903E2,5.8761725E0,1.3956934E1,5.542153E0,8.047609E0,1.0705068E0,7.263115E0,2.3448265E1,1.4993823E2,1.2914784E1,7.682616E0,8.816601E0,1.0027468E1,1.0643666E0,1.1334205E0,4.2202438E2,1.7420563E1,2.7307693E1,2.6163502E1,8.386494E1,4.590421E1,3.2079803E1,7.1201044E2,1.4582574E0,4.417915E0,1.2152759E1,1.8041761E0,2.7774968E0,2.764656E0,3.344569E0,4.7030406E0],"tree_param":{"num_deleted":"0","num_feature":"14","num_nodes":"67","size_leaf_vector":"1"}},{"base_weights":[-1.3351467E-2,-5.6066982E-2,1.5726782E-2,1.3721165E-1,-9.523562E-2,6.734792E-2,-2.800141E-2,3.2571822E-2,2.435775E-1,-7.5276524E-2,-2.4444865E-1,7.813738E-2,-5.5371696E-1,-2.4124213E-1,3.9322928E-2,1.7673339E-1,-2.0498307E-1,9.025986E-1,1.661369E-1,-1.3089606E-1,9.224172E-2,-8.1283873E-1,-1.1286226E-1,1.3417028E-1,-3.2438103E-2,-8.993831E-1,1.201246E-1,-7.016903E-1,9.093282E-2,3.1706232E-1,-5.0054815E-2,6.176139E-2,6.167817E-1,-1.0492678E-1,-2.8104687E-1,3.354934E-1,3.5796022E-1,2.6966545E-1,1.7088834E-2,-6.865389E-2,-2.6152793E-1,5.4569256E-1,-8.6673796E-2,-3.100937E-1,1.03440315E-1,2.4120776E-1,-1.6478541E-1,9.0630226E-2,6.363841E-1,-1.456415E-1,3.0681768E-1,-3.0782425E-1,-1.09178185E-1,-8.8529485E-1,-2.3599403E-1,7.3829186E-1,-3.969198E-1,3.9177474E-1,-1.3494371E-1,-6.1569702E-2,7.9451334E-1,-2.348303E-4,1.3840984E-1,4.0804535E-2,3.78417E-1,-2.4456668E-3,-1.7614116E-1,6.8928194E-3,1.5732671E-1,3.3901017E-2,1.616388E-1,7.783053E-2,-4.4892974E-2,1.1089125E-1,-2.97954E-2,6.122442E-2,-1.3966125E-1,-2.5189075E-1,2.2292234E-1,-5.0079472E-2,1.8574673E-1,-2.3661202E-2,-2.2921404E-1,-2.6647982E-1,3.0903904E-2,2.2647601E-1,-2.303472E-1,1.967646E-2,-9.875704E-2,-1.0176195E-1,1.3030948E-1,-2.9875362E-1,-7.475613E-2,6.1046604E-2,-2.2471876E-1,-1.719395E-1,2.519119E-1,-1.43559E-1,3.656453E-1,-3.598742E-2,1.4653231E-1,-1.8108965E-1,1.8529952E-1,9.918602E-4,-8.881504E-2,2.856868E-2,3.5506144E-1],"categories":[],"categories_nodes":[],"categories_segments":[],"categories_sizes":[],"default_left":[0,0,0,0,0,0,0,0,0,0,0,0,0,0,0,0,0,0,0,0,0,0,0,0,0,0,0,0,0,0,0,0,0,0,0,0,0,0,0,0,0,0,0,0,0,0,0,0,0,0,0,0,0,0,0,0,0,0,0,0,0,0,0,0,0,0,0,0,0,0,0,0,0,0,0,0,0,0,0,0,0,0,0,0,0,0,0,0,0,0,0,0,0,0,0,0,0,0,0,0,0,0,0,0,0,0,0],"id":12,"left_children":[1,3,5,7,9,11,13,15,17,19,21,23,25,27,29,31,33,35,37,39,41,43,45,47,49,51,-1,53,55,57,59,61,63,65,-1,-1,67,69,71,73,75,77,79,-1,-1,-1,81,83,85,87,89,-1,-1,91,93,95,97,99,101,103,105,-1,-1,-1,-1,-1,-1,-1,-1,-1,-1,-1,-1,-1,-1,-1,-1,-1,-1,-1,-1,-1,-1,-1,-1,-1,-1,-1,-1,-1,-1,-1,-1,-1,-1,-1,-1,-1,-1,-1,-1,-1,-1,-1,-1,-1,-1],"loss_changes":[2.0446415E0,5.0599422E0,2.2135048E0,1.2469239E0,1.6342049E0,3.0561721E0,7.634686E0,2.0220914E0,2.6955903E0,4.585793E0,4.7715425E0,2.7480166E0,2.933107E0,1.9578985E1,1.0058247E1,1.8148687E0,1.5392386E0,2.6199675E-1,7.8420115E-1,2.9818273E0,1.0021761E1,3.4397254E0,2.7014704E0,6.3729973E0,5.7951655E0,3.5984516E-2,0E0,4.3729362E0,2.3981081E1,3.3835402E0,3.0337548E0,7.5387824E-1,2.145134E0,9.65834E-1,0E0,0E0,1.591469E-1,1.2081404E0,9.2862165E-1,3.4132748E0,1.1370584E1,1.0172927E1,5.1463704E0,0E0,0E0,0E0,2.6117916E0,3.386029E0,4.457284E0,4.400708E0,3.2607248E0,0E0,0E0,2.4290276E0,3.8765924E0,4.814726E0,6.3089895E0,4.2580366E0,5.5699344E0,4.6212144E0,1.0299132E0,0E0,0E0,0E0,0E0,0E0,0E0,0E0,0E0,0E0,0E0,0E0,0E0,0E0,0E0,0E0,0E0,0E0,0E0,0E0,0E0,0E0,0E0,0E0,0E0,0E0,0E0,0E0,0E0,0E0,0E0,0E0,0E0,0E0,0E0,0E0,0E0,0E0,0E0,0E0,0E0,0E0,0E0,0E0,0E0,0E0,0E0],"parents":[2147483647,0,0,1,1,2,2,3,3,4,4,5,5,6,6,7,7,8,8,9,9,10,10,11,11,12,12,13,13,14,14,15,15,16,16,17,17,18,18,19,19,20,20,21,21,22,22,23,23,24,24,25,25,27,27,28,28,29,29,30,30,31,31,32,32,33,33,36,36,37,37,38,38,39,39,40,40,41,41,42,42,46,46,47,47,48,48,49,49,50,50,53,53,54,54,55,55,56,56,57,57,58,58,59,59,60,60],"right_children":[2,4,6,8,10,12,14,16,18,20,22,24,26,28,30,32,34,36,38,40,42,44,46,48,50,52,-1,54,56,58,60,62,64,66,-1,-1,68,70,72,74,76,78,80,-1,-1,-1,82,84,86,88,90,-1,-1,92,94,96,98,100,102,104,106,-1,-1,-1,-1,-1,-1,-1,-1,-1,-1,-1,-1,-1,-1,-1,-1,-1,-1,-1,-1,-1,-1,-1,-1,-1,-1,-1,-1,-1,-1,-1,-1,-1,-1,-1,-1,-1,-1,-1,-1,-1,-1,-1,-1,-1,-1],"split_conditions":[3.1603873E2,2.6077866E2,6E0,1.14107445E2,1.5E1,9.420081E2,5E0,2.923969E2,1.25141304E2,9E0,1.6E1,2E0,2.5266002E2,3.6368167E2,3.2329657E2,2.6782092E2,2.6085052E2,2.3692126E2,5E0,5E0,8E0,2.9713965E2,2.695896E1,5E0,1.618074E2,4.8002246E2,1.201246E-1,1.5E1,4.3108603E2,8.747475E2,7.218302E2,1.4E1,2E0,1.4E1,-2.8104687E-1,3.354934E-1,2.6782092E2,2E0,1.4767297E2,2.7859985E2,5E0,2.1572267E2,1.5E1,-3.100937E-1,1.03440315E-1,2.4120776E-1,8.832988E2,4E0,1.4E1,2E0,3.3026694E2,-3.0782425E-1,-1.09178185E-1,8.754661E2,1.4409329E2,2.7694708E2,9.0478485E2,2.660244E2,2.9591803E2,5.0323312E2,2E0,-2.348303E-4,1.3840984E-1,4.0804535E-2,3.78417E-1,-2.4456668E-3,-1.7614116E-1,6.8928194E-3,1.5732671E-1,3.3901017E-2,1.616388E-1,7.783053E-2,-4.4892974E-2,1.1089125E-1,-2.97954E-2,6.122442E-2,-1.3966125E-1,-2.5189075E-1,2.2292234E-1,-5.0079472E-2,1.8574673E-1,-2.3661202E-2,-2.2921404E-1,-2.6647982E-1,3.0903904E-2,2.2647601E-1,-2.303472E-1,1.967646E-2,-9.875704E-2,-1.0176195E-1,1.3030948E-1,-2.9875362E-1,-7.475613E-2,6.1046604E-2,-2.2471876E-1,-1.719395E-1,2.519119E-1,-1.43559E-1,3.656453E-1,-3.598742E-2,1.4653231E-1,-1.8108965E-1,1.8529952E-1,9.918602E-4,-8.881504E-2,2.856868E-2,3.5506144E-1],"split_indices":[1,0,5,4,5,0,6,1,4,5,5,13,4,3,3,2,2,2,6,5,6,1,4,5,4,3,0,5,1,0,1,5,13,5,0,0,2,13,4,0,6,3,6,0,0,0,2,5,6,12,0,0,0,2,4,0,0,2,3,3,13,0,0,0,0,0,0,0,0,0,0,0,0,0,0,0,0,0,0,0,0,0,0,0,0,0,0,0,0,0,0,0,0,0,0,0,0,0,0,0,0,0,0,0,0,0,0],"split_type":[0,0,0,0,0,0,0,0,0,0,0,0,0,0,0,0,0,0,0,0,0,0,0,0,0,0,0,0,0,0,0,0,0,0,0,0,0,0,0,0,0,0,0,0,0,0,0,0,0,0,0,0,0,0,0,0,0,0,0,0,0,0,0,0,0,0,0,0,0,0,0,0,0,0,0,0,0,0,0,0,0,0,0,0,0,0,0,0,0,0,0,0,0,0,0,0,0,0,0,0,0,0,0,0,0,0,0],"sum_hessian":[1.6444169E3,6.6565356E2,9.787633E2,1.11744484E2,5.5390906E2,4.486233E2,5.3014E2,5.6987724E1,5.4756756E1,4.898853E2,6.402376E1,4.4182193E2,6.8013716E0,1.26592415E2,4.0354758E2,3.56247E1,2.1363026E1,4.637359E0,5.0119396E1,3.6794016E2,1.2194515E2,1.1062376E1,5.296138E1,2.93089E2,1.4873296E2,5.034748E0,1.7666236E0,5.2586544E1,7.400587E1,9.762685E1,3.0592075E2,2.91492E1,6.4754987E0,1.9799442E1,1.5635827E0,2.5672495E0,2.0701098E0,2.9098427E1,2.1020967E1,2.5023584E2,1.1770434E2,3.3921955E1,8.80232E1,9.380298E0,1.6820781E0,2.062135E0,5.0899242E1,2.7079272E2,2.229625E1,1.1194851E2,3.6784447E1,3.330436E0,1.7043121E0,3.707028E1,1.5516268E1,3.1583113E1,4.2422756E1,8.389331E1,1.3733533E1,3.0272052E2,3.2002084E0,2.6067314E1,3.0818868E0,4.4027843E0,2.0727143E0,1.7336996E1,2.4624472E0,1.0649856E0,1.0051242E0,1.9289694E1,9.808733E0,8.341108E0,1.267986E1,1.5639621E1,2.345962E2,3.5860306E1,8.1844025E1,3.8246577E0,3.0097296E1,7.972177E1,8.301428E0,4.5506668E1,5.3925753E0,2.4990797E0,2.6829364E2,2.0987022E1,1.3092269E0,5.234825E1,5.9600254E1,5.7914433E0,3.0993006E1,3.1099842E1,5.9704347E0,8.68246E0,6.833807E0,1.933178E0,2.9649935E1,4.105302E1,1.3697374E0,1.3291216E1,7.06021E1,8.585095E0,5.1484365E0,2.3788779E2,6.483275E1,1.5888996E0,1.6113087E0],"tree_param":{"num_deleted":"0","num_feature":"14","num_nodes":"107","size_leaf_vector":"1"}},{"base_weights":[5.103914E-3,5.5740285E-1,2.7548296E-3,1.060414E-2,7.913256E-1,-6.1697913E-3,1.4850615E-1,2.7608383E-1,9.072918E-2,-3.5548676E-4,-3.586751E-1,2.6418233E-1,-2.035142E-1,-2.3253635E-1,6.885214E-3,-6.2257963E-1,7.3651546E-1,5.936938E-2,6.035806E-1,1.28257E-1,-5.924724E-1,-6.3384645E-2,-8.6806446E-1,-1.2350649E-5,1.9749205E-1,-8.968529E-1,5.1066375E-1,3.2132384E-1,3.3856767E-1,-4.2640838E-1,2.1625677E-1,-1.6038471E-1,7.0010823E-1,4.2868868E-1,-2.3312171E-1,-8.8132936E-1,1.5459904E-1,-1.35313E-1,4.7905285E-2,-4.770658E-2,-3.864614E-1,2.1707453E-3,-9.2544064E-2,1.1309976E-1,-6.6561915E-2,-3.1624484E-1,1.9415565E-2,-1.1029941E-2,3.4381676E-1,3.018246E-1,-1.8596351E-1,-1.4597285E-2,-3.1670433E-1,2.9794663E-1,1.329977E-2,7.4864276E-2,3.0327013E-1,-1.8621253E-2,2.3138261E-1,-2.135518E-1,9.1773115E-2,-6.3081935E-2,-3.354237E-1,2.2530396E-1,-1.0580771E-1],"categories":[],"categories_nodes":[],"categories_segments":[],"categories_sizes":[],"default_left":[0,0,0,0,0,0,0,0,0,0,0,0,0,0,0,0,0,0,0,0,0,0,0,0,0,0,0,0,0,0,0,0,0,0,0,0,0,0,0,0,0,0,0,0,0,0,0,0,0,0,0,0,0,0,0,0,0,0,0,0,0,0,0,0,0],"id":13,"left_children":[1,3,5,-1,7,9,11,-1,-1,13,15,17,19,21,23,25,27,29,31,33,35,37,39,41,43,45,47,49,-1,51,53,-1,55,57,59,61,63,-1,-1,-1,-1,-1,-1,-1,-1,-1,-1,-1,-1,-1,-1,-1,-1,-1,-1,-1,-1,-1,-1,-1,-1,-1,-1,-1,-1],"loss_changes":[2.1115808E0,8.1382775E-1,2.1118693E0,0E0,1.8838644E-2,3.1360605E0,3.8682866E0,0E0,0E0,2.5339844E0,7.634583E0,4.895576E0,3.138733E0,4.8453035E0,1.9218037E0,6.8450646E0,4.966755E-1,3.5486176E0,3.2956448E0,1.5798048E0,2.5323124E0,3.278561E0,2.6262054E0,3.1585577E0,3.9266236E0,2.6255474E0,1.6565938E0,3.1771088E0,0E0,2.6603827E0,4.6234083E0,0E0,3.240672E0,1.358458E0,1.9815989E0,1.0607424E0,1.4590026E0,0E0,0E0,0E0,0E0,0E0,0E0,0E0,0E0,0E0,0E0,0E0,0E0,0E0,0E0,0E0,0E0,0E0,0E0,0E0,0E0,0E0,0E0,0E0,0E0,0E0,0E0,0E0,0E0],"parents":[2147483647,0,0,1,1,2,2,4,4,5,5,6,6,9,9,10,10,11,11,12,12,13,13,14,14,15,15,16,16,17,17,18,18,19,19,20,20,21,21,22,22,23,23,24,24,25,25,26,26,27,27,29,29,30,30,32,32,33,33,34,34,35,35,36,36],"right_children":[2,4,6,-1,8,10,12,-1,-1,14,16,18,20,22,24,26,28,30,32,34,36,38,40,42,44,46,48,50,-1,52,54,-1,56,58,60,62,64,-1,-1,-1,-1,-1,-1,-1,-1,-1,-1,-1,-1,-1,-1,-1,-1,-1,-1,-1,-1,-1,-1,-1,-1,-1,-1,-1,-1],"split_conditions":[1.4795901E2,1.4216739E2,1.9E1,1.060414E-2,1E0,1.7E1,2.3E1,2.7608383E-1,9.072918E-2,1.4968365E2,1E0,2E0,2E0,8E0,1.6E1,1E0,1.1261638E2,2.5668268E2,2.152915E2,3.0921207E2,4.2605585E2,2.589103E2,2.710546E2,1.5E1,7.95127E2,8.672741E2,1.531346E2,6.337035E1,3.3856767E-1,2.3778358E2,2.4360422E2,-1.6038471E-1,8.424354E1,1.2E1,1.1983608E2,3.4607608E2,4.5616504E2,-1.35313E-1,4.7905285E-2,-4.770658E-2,-3.864614E-1,2.1707453E-3,-9.2544064E-2,1.1309976E-1,-6.6561915E-2,-3.1624484E-1,1.9415565E-2,-1.1029941E-2,3.4381676E-1,3.018246E-1,-1.8596351E-1,-1.4597285E-2,-3.1670433E-1,2.9794663E-1,1.329977E-2,7.4864276E-2,3.0327013E-1,-1.8621253E-2,2.3138261E-1,-2.135518E-1,9.1773115E-2,-6.3081935E-2,-3.354237E-1,2.2530396E-1,-1.0580771E-1],"split_indices":[1,4,5,0,7,5,5,0,0,2,10,13,12,5,5,7,4,3,1,3,1,3,3,5,2,2,4,4,0,3,1,0,4,6,4,2,1,0,0,0,0,0,0,0,0,0,0,0,0,0,0,0,0,0,0,0,0,0,0,0,0,0,0,0,0],"split_type":[0,0,0,0,0,0,0,0,0,0,0,0,0,0,0,0,0,0,0,0,0,0,0,0,0,0,0,0,0,0,0,0,0,0,0,0,0,0,0,0,0,0,0,0,0,0,0,0,0,0,0,0,0,0,0,0,0,0,0,0,0,0,0,0,0],"sum_hessian":[1.6277356E3,5.893169E0,1.6218424E3,2.1797137E0,3.7134554E0,1.5291664E3,9.2676E1,2.2402015E0,1.4732538E0,1.505338E3,2.3828388E1,6.99421E1,2.2733906E1,4.458415E1,1.4607539E3,1.9549212E1,4.279177E0,4.4352253E1,2.5589844E1,1.2630593E1,1.0103313E1,3.6080677E1,8.503471E0,1.4107041E3,5.004977E1,1.5907736E1,3.641475E0,2.961951E0,1.3172263E0,1.0407889E1,3.3944363E1,1.645744E0,2.3944101E1,6.795175E0,5.835418E0,7.156516E0,2.946797E0,1.2805223E1,2.3275454E1,3.6768296E0,4.8266416E0,1.3792715E3,3.1432638E1,3.5118492E1,1.4931275E1,1.3588599E1,2.3191373E0,2.462238E0,1.1792369E0,1.6746504E0,1.2873006E0,7.1769247E0,3.2309651E0,5.285103E0,2.865926E1,1.0510211E1,1.3433889E1,3.1300943E0,3.665081E0,2.9208264E0,2.9145916E0,2.3587918E0,4.7977242E0,1.1336021E0,1.8131949E0],"tree_param":{"num_deleted":"0","num_feature":"14","num_nodes":"65","size_leaf_vector":"1"}},{"base_weights":[-1.3397813E-2,-9.763729E-3,-3.0687177E-1,7.788547E-5,-1.09086856E-1,-5.123967E-1,-2.7142268E-2,-1.1396196E-1,1.0698533E-2,-1.4181648E-1,3.9054924E-1,-1.0908695E-1,-8.38908E-1,-5.4279757E-1,4.9078095E-1,-8.994931E-2,-6.89289E-1,7.615185E-2,-1.3713987E-2,1.00007854E-1,-2.4267036E-1,-3.412588E-2,1.0545096E0,7.9220936E-2,-3.295823E-1,-6.940261E-2,-3.153181E-1,9.965901E-2,-1.039024E0,2.6230106E-1,8.390899E-2,-2.9756049E-2,-3.0180722E-1,-3.5833653E-2,-8.759931E-1,3.7518192E-2,2.829334E-1,-9.410641E-2,7.819857E-3,-1.8483141E-1,3.3060962E-1,4.9806884E-1,-2.9871982E-1,3.3211324E-1,-2.1359842E-1,3.7406135E-1,8.735221E-2,-1.8003985E-1,1.5206803E-3,-3.7853432E-1,-9.325347E-2,1.7167845E-1,-1.5135838E-1,7.7401705E-2,-2.8597469E-2,4.0186085E-3,-1.9503461E-1,-3.2326198E-1,-6.8126E-2,1.4290105E-2,-1.5723403E-1,1.5750599E-1,1.5140319E-2,-9.783015E-3,-8.695532E-2,-5.3224093E-3,4.0878005E-2,-1.9091992E-1,-1.0654146E-3,2.4238409E-1,2.9072836E-3,2.0196049E-1,-5.8080386E-2,-2.4688149E-2,-1.2684448E-1,-4.5007497E-2,2.3930652E-1],"categories":[],"categories_nodes":[],"categories_segments":[],"categories_sizes":[],"default_left":[0,0,0,0,0,0,0,0,0,0,0,0,0,0,0,0,0,0,0,0,0,0,0,0,0,0,0,0,0,0,0,0,0,0,0,0,0,0,0,0,0,0,0,0,0,0,0,0,0,0,0,0,0,0,0,0,0,0,0,0,0,0,0,0,0,0,0,0,0,0,0,0,0,0,0,0,0],"id":14,"left_children":[1,3,5,7,9,11,13,15,17,19,21,23,25,27,29,31,33,35,37,39,41,43,45,-1,47,-1,-1,-1,49,-1,51,53,55,-1,57,59,61,63,65,67,69,71,73,75,-1,-1,-1,-1,-1,-1,-1,-1,-1,-1,-1,-1,-1,-1,-1,-1,-1,-1,-1,-1,-1,-1,-1,-1,-1,-1,-1,-1,-1,-1,-1,-1,-1],"loss_changes":[1.7429881E0,1.5817118E0,1.1354251E0,1.785563E0,2.44094E0,1.4186907E0,2.8097272E0,1.6731797E0,2.1559956E0,3.3812704E0,2.6399562E0,6.037648E-1,5.5446625E-1,2.623311E0,7.5003946E-1,1.5432179E0,4.1478443E-1,2.917376E0,1.702665E0,2.7685158E0,4.193722E0,1.875264E0,1.705327E-1,0E0,4.00733E-1,0E0,0E0,0E0,1.901598E-1,0E0,1.3423355E0,1.8339869E0,2.9533875E0,0E0,2.1558976E-1,1.7859645E0,3.2119265E0,2.4916987E0,2.5512016E0,1.559799E0,3.5363553E0,1.0059223E0,2.4145432E0,1.2347493E0,0E0,0E0,0E0,0E0,0E0,0E0,0E0,0E0,0E0,0E0,0E0,0E0,0E0,0E0,0E0,0E0,0E0,0E0,0E0,0E0,0E0,0E0,0E0,0E0,0E0,0E0,0E0,0E0,0E0,0E0,0E0,0E0,0E0],"parents":[2147483647,0,0,1,1,2,2,3,3,4,4,5,5,6,6,7,7,8,8,9,9,10,10,11,11,12,12,13,13,14,14,15,15,16,16,17,17,18,18,19,19,20,20,21,21,22,22,24,24,28,28,30,30,31,31,32,32,34,34,35,35,36,36,37,37,38,38,39,39,40,40,41,41,42,42,43,43],"right_children":[2,4,6,8,10,12,14,16,18,20,22,24,26,28,30,32,34,36,38,40,42,44,46,-1,48,-1,-1,-1,50,-1,52,54,56,-1,58,60,62,64,66,68,70,72,74,76,-1,-1,-1,-1,-1,-1,-1,-1,-1,-1,-1,-1,-1,-1,-1,-1,-1,-1,-1,-1,-1,-1,-1,-1,-1,-1,-1,-1,-1,-1,-1,-1,-1],"split_conditions":[6.777802E2,8.89838E2,5.945667E2,2.2657347E2,1.7E1,2E0,8E0,3.7424506E2,3.6231635E2,9.1995674E1,1.5660545E2,5.879556E2,6E0,6.406288E2,9.3817825E1,1.2E1,2.5531734E2,4.2605585E2,4.7944757E2,2.9232504E2,2.3914891E2,3.969527E2,8.1287634E2,7.9220936E-2,5E0,-6.940261E-2,-3.153181E-1,9.965901E-2,7.428132E2,2.6230106E-1,1.3E1,6.607291E1,3.0504422E2,-3.5833653E-2,3.246619E2,4.834717E2,6E0,4.070849E2,4.8131592E2,8.988205E2,3.127332E2,4.3733783E2,3.0784674E2,8.755384E1,-2.1359842E-1,3.7406135E-1,8.735221E-2,-1.8003985E-1,1.5206803E-3,-3.7853432E-1,-9.325347E-2,1.7167845E-1,-1.5135838E-1,7.7401705E-2,-2.8597469E-2,4.0186085E-3,-1.9503461E-1,-3.2326198E-1,-6.8126E-2,1.4290105E-2,-1.5723403E-1,1.5750599E-1,1.5140319E-2,-9.783015E-3,-8.695532E-2,-5.3224093E-3,4.0878005E-2,-1.9091992E-1,-1.0654146E-3,2.4238409E-1,2.9072836E-3,2.0196049E-1,-5.8080386E-2,-2.4688149E-2,-1.2684448E-1,-4.5007497E-2,2.3930652E-1],"split_indices":[3,2,0,2,5,13,5,1,0,4,4,2,5,2,4,5,3,1,2,3,3,1,0,0,5,0,0,0,0,0,5,4,3,0,3,3,5,2,3,2,3,1,1,4,0,0,0,0,0,0,0,0,0,0,0,0,0,0,0,0,0,0,0,0,0,0,0,0,0,0,0,0,0,0,0,0,0],"split_type":[0,0,0,0,0,0,0,0,0,0,0,0,0,0,0,0,0,0,0,0,0,0,0,0,0,0,0,0,0,0,0,0,0,0,0,0,0,0,0,0,0,0,0,0,0,0,0,0,0,0,0,0,0,0,0,0,0,0,0,0,0,0,0,0,0,0,0,0,0,0,0,0,0,0,0,0,0],"sum_hessian":[1.6361023E3,1.6171108E3,1.8991392E1,1.4722313E3,1.4487952E2,1.0468293E1,8.5231E0,1.2460009E2,1.3476312E3,1.3664452E2,8.235001E0,5.2802186E0,5.1880746E0,4.2468348E0,4.276265E0,1.2071799E2,3.8821087E0,3.6551526E2,9.82116E2,4.0218422E1,9.64261E1,5.6010933E0,2.6339076E0,1.8877878E0,3.3924305E0,1.8837643E0,3.3043103E0,1.6564958E0,2.5903387E0,1.6097959E0,2.666469E0,9.489639E1,2.5821594E1,1.3627101E0,2.5193985E0,3.089707E2,5.6544548E1,2.0677849E2,7.753375E2,1.8082008E1,2.2136412E1,6.228265E0,9.019784E1,3.967561E0,1.6335322E0,1.5978079E0,1.0360998E0,1.4372058E0,1.9552249E0,1.4224178E0,1.167921E0,1.4721767E0,1.1942924E0,1.7065632E1,7.783076E1,1.4059733E1,1.1761861E1,1.4183264E0,1.1010721E0,3.0440332E2,4.56739E0,2.7082611E1,2.9461937E1,1.5823346E2,4.854503E1,6.473655E2,1.2797206E2,4.4604487E0,1.362156E1,8.28927E0,1.384714E1,4.991184E0,1.2370805E0,3.3476627E1,5.6721207E1,2.2820697E0,1.6854914E0],"tree_param":{"num_deleted":"0","num_feature":"14","num_nodes":"77","size_leaf_vector":"1"}},{"base_weights":[3.2766308E-3,-7.3694095E-2,1.8439384E-2,-4.5960533E-4,-2.3637292E-1,5.2047724E-1,1.3261035E-2,1.5357696E-1,-7.3324524E-2,-2.6861614E-1,2.4365085E-1,7.2964144E-1,-1.4455147E-1,5.9230674E-2,-2.2315428E-2,-1.540163E-2,3.1382012E-1,-1.5086846E-1,4.780138E-2,-4.6940824E-1,-1.2331505E-1,8.634087E-1,1.8355107E-1,-2.087163E-1,1.6787824E-1,3.1024687E-2,1.895686E-1,3.7791595E-1,-3.3919863E-2,3.5051823E-1,-1.811162E-1,4.1640592E-1,-4.245023E-1,-9.483905E-2,-3.6334604E-1,2.4317837E-1,-1.17175035E-1,3.3026206E-1,-6.144229E-1,-2.4948488E-1,1.08800285E-1,3.72545E-2,1.0275818E0,-1.2768562E-1,2.0651634E-1,7.111824E-2,-1.7276925E-1,3.4120053E-1,-2.093204E-1,-1.1241704E-1,5.283542E-1,-2.1346314E-1,-1.22192465E-2,-1.4245544E-2,2.9930606E-1,-9.536848E-2,1.8309113E-1,4.107735E-2,1.9351892E-1,-2.4004221E-1,9.365083E-2,1.028269E-2,-1.0357706E-1,-2.642106E-1,-9.884039E-3,-1.17734015E-1,9.661568E-2,-1.0532872E-1,4.2291738E-2,-1.6059524E-1,1.9721922E-1,-1.5616374E-1,-3.3077413E-1,-1.0059499E-2,-2.7631417E-1,1.368497E-1,-1.24402754E-1,3.59523E-1,1.2296112E-1,-1.1026528E-2,5.0193306E-2,-1.18383154E-1,4.882494E-2,-1.147942E-1,1.440836E-1,-1.3290752E-1,8.892019E-2,1.407637E-1,-2.1564034E-1,1.9933423E-1,-9.669454E-2,2.5353357E-1,-7.646095E-2,-1.2300031E-2,2.4520492E-2],"categories":[],"categories_nodes":[],"categories_segments":[],"categories_sizes":[],"default_left":[0,0,0,0,0,0,0,0,0,0,0,0,0,0,0,0,0,0,0,0,0,0,0,0,0,0,0,0,0,0,0,0,0,0,0,0,0,0,0,0,0,0,0,0,0,0,0,0,0,0,0,0,0,0,0,0,0,0,0,0,0,0,0,0,0,0,0,0,0,0,0,0,0,0,0,0,0,0,0,0,0,0,0,0,0,0,0,0,0,0,0,0,0,0,0],"id":15,"left_children":[1,3,5,7,9,11,13,15,17,19,-1,21,23,25,27,29,31,33,35,37,39,41,43,-1,-1,45,47,49,51,53,55,57,59,61,63,65,67,69,71,73,75,-1,77,-1,-1,79,81,83,85,87,89,91,93,-1,-1,-1,-1,-1,-1,-1,-1,-1,-1,-1,-1,-1,-1,-1,-1,-1,-1,-1,-1,-1,-1,-1,-1,-1,-1,-1,-1,-1,-1,-1,-1,-1,-1,-1,-1,-1,-1,-1,-1,-1,-1],"loss_changes":[1.8931473E0,3.1804388E0,3.5156815E0,2.0887246E0,3.0199347E0,2.0260756E0,2.1963637E0,1.6230557E0,1.1937877E0,2.3097262E0,0E0,6.2088585E-1,1.9953978E0,2.14781E0,3.5302758E0,1.8851485E0,2.5035985E0,8.8535357E-1,1.6423302E0,4.112482E0,1.445686E0,8.796754E-1,1.3291276E0,0E0,0E0,3.9571815E0,6.3634357E0,1.63961E0,2.8685882E0,2.547104E0,2.5036926E0,1.6676569E0,1.4238939E0,2.032414E0,2.6664815E0,1.2918794E0,1.7294958E0,2.001512E0,7.498989E-1,4.5641236E0,3.4174302E0,0E0,2.1096325E-1,0E0,0E0,4.1997757E0,5.9935684E0,7.8101234E0,3.5909956E0,2.4019306E0,2.132278E0,3.6958096E0,1.7840408E0,0E0,0E0,0E0,0E0,0E0,0E0,0E0,0E0,0E0,0E0,0E0,0E0,0E0,0E0,0E0,0E0,0E0,0E0,0E0,0E0,0E0,0E0,0E0,0E0,0E0,0E0,0E0,0E0,0E0,0E0,0E0,0E0,0E0,0E0,0E0,0E0,0E0,0E0,0E0,0E0,0E0,0E0],"parents":[2147483647,0,0,1,1,2,2,3,3,4,4,5,5,6,6,7,7,8,8,9,9,11,11,12,12,13,13,14,14,15,15,16,16,17,17,18,18,19,19,20,20,21,21,22,22,25,25,26,26,27,27,28,28,29,29,30,30,31,31,32,32,33,33,34,34,35,35,36,36,37,37,38,38,39,39,40,40,42,42,45,45,46,46,47,47,48,48,49,49,50,50,51,51,52,52],"right_children":[2,4,6,8,10,12,14,16,18,20,-1,22,24,26,28,30,32,34,36,38,40,42,44,-1,-1,46,48,50,52,54,56,58,60,62,64,66,68,70,72,74,76,-1,78,-1,-1,80,82,84,86,88,90,92,94,-1,-1,-1,-1,-1,-1,-1,-1,-1,-1,-1,-1,-1,-1,-1,-1,-1,-1,-1,-1,-1,-1,-1,-1,-1,-1,-1,-1,-1,-1,-1,-1,-1,-1,-1,-1,-1,-1,-1,-1,-1,-1],"split_conditions":[5.8997166E1,4.5804764E1,6.0304333E1,4.070849E2,9.119708E2,8E0,5E0,3.0569095E2,8.2358344E2,5E0,2.4365085E-1,8.0166626E2,7.0422455E2,5E0,6.4044205E1,2.234835E2,1.4E1,1.3E1,8.727354E2,2.4410722E2,3.996115E2,3.1014624E2,8.195593E2,-2.087163E-1,1.6787824E-1,4.6148267E2,4.2734933E2,2.660244E2,7.761018E1,2.152915E2,1.6E1,6E0,2.7076715E2,7.9167773E2,3.6145404E2,2.6753348E2,9.070125E2,4.7883553E1,4.5616504E2,3.524716E2,4.834717E2,3.72545E-2,7.2226135E2,-1.2768562E-1,2.0651634E-1,3.1603873E2,4.911607E2,2.3548407E2,5.0179593E2,1.2E1,8.727354E2,2E0,1.3E1,-1.4245544E-2,2.9930606E-1,-9.536848E-2,1.8309113E-1,4.107735E-2,1.9351892E-1,-2.4004221E-1,9.365083E-2,1.028269E-2,-1.0357706E-1,-2.642106E-1,-9.884039E-3,-1.17734015E-1,9.661568E-2,-1.0532872E-1,4.2291738E-2,-1.6059524E-1,1.9721922E-1,-1.5616374E-1,-3.3077413E-1,-1.0059499E-2,-2.7631417E-1,1.368497E-1,-1.24402754E-1,3.59523E-1,1.2296112E-1,-1.1026528E-2,5.0193306E-2,-1.18383154E-1,4.882494E-2,-1.147942E-1,1.440836E-1,-1.3290752E-1,8.892019E-2,1.407637E-1,-2.1564034E-1,1.9933423E-1,-9.669454E-2,2.5353357E-1,-7.646095E-2,-1.2300031E-2,2.4520492E-2],"split_indices":[4,4,4,2,2,5,5,1,0,5,0,0,0,6,4,1,5,5,2,3,1,3,2,0,0,3,1,2,4,1,5,6,0,2,3,1,0,4,1,1,3,0,0,0,0,1,1,3,3,5,2,6,6,0,0,0,0,0,0,0,0,0,0,0,0,0,0,0,0,0,0,0,0,0,0,0,0,0,0,0,0,0,0,0,0,0,0,0,0,0,0,0,0,0,0],"split_type":[0,0,0,0,0,0,0,0,0,0,0,0,0,0,0,0,0,0,0,0,0,0,0,0,0,0,0,0,0,0,0,0,0,0,0,0,0,0,0,0,0,0,0,0,0,0,0,0,0,0,0,0,0,0,0,0,0,0,0,0,0,0,0,0,0,0,0,0,0,0,0,0,0,0,0,0,0,0,0,0,0,0,0,0,0,0,0,0,0,0,0,0,0,0,0],"sum_hessian":[1.6199474E3,2.6596555E2,1.3539818E3,1.8409348E2,8.187208E1,1.2807345E1,1.3411744E3,5.876226E1,1.25331215E2,8.015121E1,1.7208729E0,9.669078E0,3.1382678E0,5.848298E2,7.5634467E2,2.9041496E1,2.9720762E1,7.626278E1,4.906844E1,3.271359E1,4.743762E1,7.2998695E0,2.3692086E0,1.7670639E0,1.3712038E0,4.8180255E2,1.0302722E2,2.042232E1,7.3592236E2,8.704845E0,2.0336653E1,2.6477827E1,3.242935E0,6.149355E1,1.4769231E1,2.224742E1,2.682102E1,4.825633E0,2.7887957E1,3.068402E1,1.67536E1,1.6457789E0,5.6540904E0,1.1447701E0,1.2244384E0,4.031413E2,7.866128E1,7.475485E1,2.8272367E1,4.854025E0,1.5568295E1,7.840341E1,6.575189E2,5.9637895E0,2.7410555E0,1.7850012E1,2.4866405E0,1.2634203E1,1.3843625E1,2.0907025E0,1.1522324E0,4.1143307E1,2.035024E1,5.106946E0,9.662285E0,2.0170321E0,2.0230387E1,1.3881879E1,1.293914E1,1.1490198E0,3.6766133E0,2.5122934E1,2.7650223E0,2.401234E1,6.6716795E0,1.0148138E1,6.6054606E0,3.6927733E0,1.9613171E0,1.9032417E2,2.1281711E2,4.7246395E1,3.141488E1,1.1766008E1,6.2988846E1,1.9421326E1,8.851043E0,2.5930474E0,2.2609777E0,1.3609852E1,1.958442E0,2.2206905E0,7.618272E1,5.0376498E2,1.5375397E2],"tree_param":{"num_deleted":"0","num_feature":"14","num_nodes":"95","size_leaf_vector":"1"}},{"base_weights":[8.1840055E-3,-1.7707393E-2,5.8412295E-2,-1.0034598E-2,-9.4310075E-1,1.5370713E-1,-1.696574E-2,-1.9675527E-2,1.7687191E-1,-3.2417023E-1,-3.3305714E-1,2.8733453E-1,3.02011E-2,-2.7337867E-1,3.8992908E-2,-3.350369E-2,1.24193065E-1,-2.85305E-1,3.4359378E-1,-2.195138E-1,8.8435665E-2,6.8573195E-1,1.9421998E-1,-3.1318092E-1,1.01725146E-1,-4.0698782E-1,2.2934213E-2,5.8283802E-2,-5.85447E-1,1.7773691E-1,-4.9577598E-2,-6.8236515E-2,8.126045E-1,-8.7600094E-1,9.272041E-3,4.6972054E-1,5.1600225E-2,-2.7413076E-1,8.8626486E-1,2.7720168E-1,-2.5547466E-1,1.435557E-2,-8.943403E-1,4.3610796E-1,2.1702234E-2,-3.5968754E-2,-6.4523166E-1,9.018076E-1,-2.9955763E-1,-1.6716199E-1,9.8335065E-2,-8.858133E-1,1.0914656E-1,1.1469514E-2,1.6426839E-1,-1.11225024E-1,-1.12054385E-2,2.7343186E-2,-3.189019E-1,3.3275986E-1,-1.2631214E-1,-7.519009E-2,-3.035674E-1,-4.6748254E-2,2.0711823E-1,7.297917E-2,2.8510475E-1,-4.517878E-2,1.7075567E-1,7.088094E-2,2.9945308E-1,9.2883684E-2,-9.028062E-2,-2.2076793E-1,4.118085E-2,9.6289046E-2,-1.7333451E-1,-3.8789022E-1,-1.0090036E-1,-9.929991E-2,2.1457773E-1,-2.3214461E-1,1.760379E-2,-1.8798344E-1,1.6847245E-1,-2.782364E-1,-6.370552E-2,-2.6068227E-2,3.514346E-1,-1.4558247E-1,1.5831393E-1,-1.1482748E-1,4.4040836E-2,8.1595324E-2,-1.3566316E-2,-3.0729251E-3,-3.384675E-1],"categories":[],"categories_nodes":[],"categories_segments":[],"categories_sizes":[],"default_left":[0,0,0,0,0,0,0,0,0,0,0,0,0,0,0,0,0,0,0,0,0,0,0,0,0,0,0,0,0,0,0,0,0,0,0,0,0,0,0,0,0,0,0,0,0,0,0,0,0,0,0,0,0,0,0,0,0,0,0,0,0,0,0,0,0,0,0,0,0,0,0,0,0,0,0,0,0,0,0,0,0,0,0,0,0,0,0,0,0,0,0,0,0,0,0,0,0],"id":16,"left_children":[1,3,5,7,9,11,13,15,17,19,-1,21,23,25,27,29,31,33,35,-1,-1,37,39,41,43,45,47,49,51,53,55,57,59,61,63,65,67,-1,69,71,73,75,77,79,81,83,85,87,89,91,93,95,-1,-1,-1,-1,-1,-1,-1,-1,-1,-1,-1,-1,-1,-1,-1,-1,-1,-1,-1,-1,-1,-1,-1,-1,-1,-1,-1,-1,-1,-1,-1,-1,-1,-1,-1,-1,-1,-1,-1,-1,-1,-1,-1,-1,-1],"loss_changes":[2.0945952E0,7.5384445E0,3.9375548E0,1.9050841E0,5.430207E-1,3.9858642E0,4.4122896E0,2.002428E0,4.094422E0,1.0401499E0,0E0,4.1751385E0,3.1485307E0,2.1899252E0,3.0779815E0,3.122953E0,1.175128E1,2.495634E0,1.3961725E0,0E0,0E0,7.74022E0,3.6357052E0,4.2235856E0,2.8210006E0,3.3370762E0,5.3899865E0,2.2378786E0,2.5071807E0,3.3362703E0,3.3359265E0,1.1183203E1,7.552677E0,1.515243E-1,1.291512E0,2.686952E0,1.420857E0,0E0,1.1977043E0,1.6133456E0,3.0071847E0,2.9326742E0,1.3422241E0,4.5995865E0,2.5870936E0,5.9721584E0,2.6240368E0,1.4609928E0,2.4017267E0,2.5934653E0,5.2357864E0,1.2857361E0,0E0,0E0,0E0,0E0,0E0,0E0,0E0,0E0,0E0,0E0,0E0,0E0,0E0,0E0,0E0,0E0,0E0,0E0,0E0,0E0,0E0,0E0,0E0,0E0,0E0,0E0,0E0,0E0,0E0,0E0,0E0,0E0,0E0,0E0,0E0,0E0,0E0,0E0,0E0,0E0,0E0,0E0,0E0,0E0,0E0],"parents":[2147483647,0,0,1,1,2,2,3,3,4,4,5,5,6,6,7,7,8,8,9,9,11,11,12,12,13,13,14,14,15,15,16,16,17,17,18,18,21,21,22,22,23,23,24,24,25,25,26,26,27,27,28,28,29,29,30,30,31,31,32,32,33,33,34,34,35,35,36,36,38,38,39,39,40,40,41,41,42,42,43,43,44,44,45,45,46,46,47,47,48,48,49,49,50,50,51,51],"right_children":[2,4,6,8,10,12,14,16,18,20,-1,22,24,26,28,30,32,34,36,-1,-1,38,40,42,44,46,48,50,52,54,56,58,60,62,64,66,68,-1,70,72,74,76,78,80,82,84,86,88,90,92,94,96,-1,-1,-1,-1,-1,-1,-1,-1,-1,-1,-1,-1,-1,-1,-1,-1,-1,-1,-1,-1,-1,-1,-1,-1,-1,-1,-1,-1,-1,-1,-1,-1,-1,-1,-1,-1,-1,-1,-1,-1,-1,-1,-1,-1,-1],"split_conditions":[1E1,8E0,1.3E1,9.119708E2,4.2435238E1,3.5498666E2,2.9210947E2,8E0,9.565099E1,3.939346E2,-3.3305714E-1,8E0,6E0,1E0,6.795048E2,2.1701614E2,4.3690668E2,8.6217206E2,1E0,-2.195138E-1,8.8435665E-2,2.2003424E2,1.894444E2,5E0,3.7582596E2,8E0,7.761018E1,2.5107762E2,1.4E1,5E0,2.1507593E2,4.2878653E2,5.346358E2,1E0,6.337035E1,5E0,8.6217206E2,-2.7413076E-1,2.6422794E2,1E0,2E0,8.019537E2,4.6529123E2,2.5704196E2,3.1855383E2,2E0,1.16074356E2,1.8151747E2,3.668435E2,1.3E1,1.2E1,2E0,1.0914656E-1,1.1469514E-2,1.6426839E-1,-1.11225024E-1,-1.12054385E-2,2.7343186E-2,-3.189019E-1,3.3275986E-1,-1.2631214E-1,-7.519009E-2,-3.035674E-1,-4.6748254E-2,2.0711823E-1,7.297917E-2,2.8510475E-1,-4.517878E-2,1.7075567E-1,7.088094E-2,2.9945308E-1,9.2883684E-2,-9.028062E-2,-2.2076793E-1,4.118085E-2,9.6289046E-2,-1.7333451E-1,-3.8789022E-1,-1.0090036E-1,-9.929991E-2,2.1457773E-1,-2.3214461E-1,1.760379E-2,-1.8798344E-1,1.6847245E-1,-2.782364E-1,-6.370552E-2,-2.6068227E-2,3.514346E-1,-1.4558247E-1,1.5831393E-1,-1.1482748E-1,4.4040836E-2,8.1595324E-2,-1.3566316E-2,-3.0729251E-3,-3.384675E-1],"split_indices":[5,5,5,2,4,1,0,6,4,1,0,6,6,10,1,3,3,0,13,0,0,3,4,6,2,6,4,3,6,6,1,1,1,10,4,5,0,0,2,9,12,2,0,2,0,13,4,0,1,6,6,6,0,0,0,0,0,0,0,0,0,0,0,0,0,0,0,0,0,0,0,0,0,0,0,0,0,0,0,0,0,0,0,0,0,0,0,0,0,0,0,0,0,0,0,0,0],"split_type":[0,0,0,0,0,0,0,0,0,0,0,0,0,0,0,0,0,0,0,0,0,0,0,0,0,0,0,0,0,0,0,0,0,0,0,0,0,0,0,0,0,0,0,0,0,0,0,0,0,0,0,0,0,0,0,0,0,0,0,0,0,0,0,0,0,0,0,0,0,0,0,0,0,0,0,0,0,0,0,0,0,0,0,0,0,0,0,0,0,0,0,0,0,0,0,0,0],"sum_hessian":[1.6088363E3,1.062033E3,5.4680334E2,1.0543021E3,7.730783E0,2.410379E2,3.057654E2,1.003438E3,5.086416E1,2.268382E0,5.462401E0,1.15137924E2,1.2589999E2,5.407918E1,2.5168625E2,9.161481E2,8.7289925E1,1.3295597E1,3.756856E1,1.2579381E0,1.0104439E0,2.0606615E1,9.45313E1,2.1120972E1,1.04779015E2,3.7015278E1,1.7063904E1,2.4502338E2,6.662873E0,6.407166E1,8.520764E2,6.892454E1,1.8365389E1,3.767373E0,9.528224E0,2.5810875E1,1.1757688E1,1.8994462E0,1.8707169E1,8.01288E1,1.440251E1,1.4131741E1,6.9892306E0,1.9373854E1,8.540516E1,1.4924386E1,2.2090893E1,4.0983825E0,1.2965522E1,3.6483967E1,2.085394E2,5.1121426E0,1.5507301E0,4.7323616E1,1.6748043E1,3.0171335E1,8.219051E2,6.0189453E1,8.735084E0,1.4887087E1,3.4783022E0,1.1802498E0,2.5871234E0,8.290001E0,1.238223E0,1.856825E1,7.242624E0,8.96466E0,2.793028E0,3.2047727E0,1.5502396E1,7.631501E1,3.8137848E0,6.0851817E0,8.317328E0,9.612407E0,4.5193343E0,3.3085523E0,3.6806784E0,5.11956E0,1.4254294E1,2.90836E0,8.2496796E1,7.4810696E0,7.443317E0,1.2680874E1,9.410019E0,1.0234406E0,3.074942E0,1.0926085E1,2.039437E0,2.1500612E1,1.4983353E1,9.397278E1,1.1456663E2,1.3344561E0,3.7776866E0],"tree_param":{"num_deleted":"0","num_feature":"14","num_nodes":"97","size_leaf_vector":"1"}}]},"name":"gbtree"},"learner_model_param":{"base_score":"5.0243366E-1","boost_from_average":"1","num_class":"0","num_feature":"14","num_target":"1"},"objective":{"name":"binary:logistic","reg_loss_param":{"scale_pos_weight":"1"}}},"version":[3,0,0]}