{"learner":{"attributes":{"best_iteration":"4","best_score":"0.6732720201707458"},"feature_names":["killer_x","killer_y","victim_x","victim_y","distance","weapon_id","kill_weapon_id","is_first_kill","is_traded","is_early_round","is_post_plant","tactical_advantage","round_phase_encoded","site_encoded"],"feature_types":["float","float","float","float","float","int","int","int","int","int","int","int","int","int"],"gradient_booster":{"model":{"gbtree_model_param":{"num_parallel_tree":"1","num_trees":"15"},"iteration_indptr":[0,1,2,3,4,5,6,7,8,9,10,11,12,13,14,15],"tree_info":[0,0,0,0,0,0,0,0,0,0,0,0,0,0,0],"trees":[{"base_weights":[-1.947704E-3,1.6741656E-1,-1.3984127E-1,8.445423E-2,4.937183E-1,-1.7947832E-1,3.339053E-1,1.8234102E-1,-1.19848825E-1,3.2363588E-1,8.428181E-1,-9.622662E-2,-6.539519E-1,1.8029949E-1,8.930673E-1,2.950064E-1,7.929742E-2,-2.1006183E-1,1.4841567E-1,-3.6198193E-1,5.1478904E-1,9.090993E-1,-5.953382E-1,-1.9045159E-1,1.3120264E-1,-1.3530359E0,-2.3639971E-1,4.621325E-1,-1.0234984E-1,1.2469953E0,-8.0743444E-1,4.4818848E-1,1.3046855E-1,-1.1414759E-1,2.3137727E-1,-2.381181E-1,3.915565E-1,3.861642E-1,-9.288779E-2,-5.896339E-1,5.3731334E-1,1.0107168E0,3.9622176E-1,9.679157E-1,-3.6004028E-1,-3.616743E-1,5.277537E-2,-5.408373E-1,-6.2458E-2,-3.0950066E-1,6.124927E-1,-1.3878258E0,-1.8551616E-3,-4.1814423E-1,1.21363305E-1,5.945067E-1,-4.6939567E-1,2.3406658E-1,-4.9776256E-1,1.3678575E0,4.4228017E-2,-3.8359427E-1,-4.808105E-2,1.15708835E-1,3.8413888E-1,-2.0845633E-2,1.396403E-1,5.4909322E-2,-1.05026044E-1,1.2758113E-1,-6.3963115E-2,9.215126E-2,-8.16834E-2,1.7749901E-1,-2.0154837E-1,1.3104892E-1,-8.770329E-2,-2.0237416E-1,5.6280456E-3,1.6944353E-1,-2.1321581E-1,-6.2227234E-2,3.8611373E-1,1.2527114E-1,5.1747483E-1,5.9882313E-2,2.3173296E-1,3.1416458E-1,-2.6337948E-2,1.9845644E-1,-3.0185947E-1,-9.682898E-2,-2.2942953E-1,4.3844078E-2,-7.5174116E-2,1.2927568E-1,-1.7294799E-1,2.9945406E-1,1.0501355E-1,-4.2394695E-1,-5.631704E-2,-2.4522254E-1,-8.139443E-2,6.705087E-2,-3.0209193E-1,2.1793884E-1,-2.0216772E-1,-2.820451E-1,3.7959952E-2,-8.829999E-2,2.2651511E-1,9.768284E-2,-2.2548541E-1,-1.6696431E-3,4.4527045E-1],"categories":[],"categories_nodes":[],"categories_segments":[],"categories_sizes":[],"default_left":[0,0,0,0,0,0,0,0,0,0,0,0,0,0,0,0,0,0,0,0,0,0,0,0,0,0,0,0,0,0,0,0,0,0,0,0,0,0,0,0,0,0,0,0,0,0,0,0,0,0,0,0,0,0,0,0,0,0,0,0,0,0,0,0,0,0,0,0,0,0,0,0,0,0,0,0,0,0,0,0,0,0,0,0,0,0,0,0,0,0,0,0,0,0,0,0,0,0,0,0,0,0,0,0,0,0,0,0,0,0,0,0,0,0,0],"id":0,"left_children":[1,3,5,7,9,11,13,15,17,19,21,23,25,27,29,31,33,35,37,39,41,43,45,47,49,51,53,55,57,59,61,63,65,67,69,71,73,75,77,79,81,83,85,87,89,-1,-1,91,93,95,97,99,-1,101,103,105,107,109,111,113,-1,-1,-1,-1,-1,-1,-1,-1,-1,-1,-1,-1,-1,-1,-1,-1,-1,-1,-1,-1,-1,-1,-1,-1,-1,-1,-1,-1,-1,-1,-1,-1,-1,-1,-1,-1,-1,-1,-1,-1,-1,-1,-1,-1,-1,-1,-1,-1,-1,-1,-1,-1,-1,-1,-1],"loss_changes":[6.538469E1,3.3971973E1,2.9038322E1,2.0079992E1,1.4838039E1,5.621453E1,1.010268E1,7.853449E0,7.908416E0,2.282613E1,8.4290085E0,2.6023787E1,6.1708443E1,7.61483E0,1.6353857E1,8.101221E0,1.0492027E1,4.2116632E0,4.7687564E0,8.147436E0,7.566864E0,6.2827377E0,2.212327E0,3.845544E1,7.569773E1,3.7047424E0,8.779693E0,6.166999E0,6.53475E0,2.655552E0,1.3198059E0,8.204754E0,1.0582161E1,1.1089598E1,1.72877E1,4.437608E0,2.7913418E0,1.562913E0,2.7240436E0,4.7347164E0,4.873296E0,1.0081932E1,8.056356E0,6.475235E0,3.4709587E0,0E0,0E0,1.09600525E1,2.4749529E1,3.7116165E1,1.6908699E1,2.0830078E0,0E0,5.0102854E0,5.5263476E0,7.56092E0,1.9424131E0,7.5860324E0,4.9475307E0,3.0850258E0,0E0,0E0,0E0,0E0,0E0,0E0,0E0,0E0,0E0,0E0,0E0,0E0,0E0,0E0,0E0,0E0,0E0,0E0,0E0,0E0,0E0,0E0,0E0,0E0,0E0,0E0,0E0,0E0,0E0,0E0,0E0,0E0,0E0,0E0,0E0,0E0,0E0,0E0,0E0,0E0,0E0,0E0,0E0,0E0,0E0,0E0,0E0,0E0,0E0,0E0,0E0,0E0,0E0,0E0,0E0],"parents":[2147483647,0,0,1,1,2,2,3,3,4,4,5,5,6,6,7,7,8,8,9,9,10,10,11,11,12,12,13,13,14,14,15,15,16,16,17,17,18,18,19,19,20,20,21,21,22,22,23,23,24,24,25,25,26,26,27,27,28,28,29,29,30,30,31,31,32,32,33,33,34,34,35,35,36,36,37,37,38,38,39,39,40,40,41,41,42,42,43,43,44,44,47,47,48,48,49,49,50,50,51,51,53,53,54,54,55,55,56,56,57,57,58,58,59,59],"right_children":[2,4,6,8,10,12,14,16,18,20,22,24,26,28,30,32,34,36,38,40,42,44,46,48,50,52,54,56,58,60,62,64,66,68,70,72,74,76,78,80,82,84,86,88,90,-1,-1,92,94,96,98,100,-1,102,104,106,108,110,112,114,-1,-1,-1,-1,-1,-1,-1,-1,-1,-1,-1,-1,-1,-1,-1,-1,-1,-1,-1,-1,-1,-1,-1,-1,-1,-1,-1,-1,-1,-1,-1,-1,-1,-1,-1,-1,-1,-1,-1,-1,-1,-1,-1,-1,-1,-1,-1,-1,-1,-1,-1,-1,-1,-1,-1],"split_conditions":[6E0,6E0,1.9E1,2E0,2E0,1.4E1,1E0,1E0,6.6949524E2,4.5722604E2,8.6385443E2,2E0,1.6E1,5.4147516E2,2.3E1,5.589032E2,2.768414E2,8.991122E2,2E0,1.9052246E2,1.4673317E2,8.826478E2,8.812022E2,6E0,9E0,8.432941E2,1E0,2.516019E2,6.3102496E2,7.6972675E2,2.3E1,8.596781E2,7.40091E2,1.7283514E2,8.139796E2,2.3981679E2,2.5754514E2,8.290786E2,2.4535843E2,3.0278275E2,1.2E1,2.0496063E2,6.6539923E2,1.9E1,5.873343E2,-3.616743E-1,5.277537E-2,8E0,1.1E1,6E0,1.2E1,1.7E1,-1.8551616E-3,1E0,7.910099E2,2.3E1,2.8447662E2,1.5031642E2,8.294802E1,3.2840283E2,4.4228017E-2,-3.8359427E-1,-4.808105E-2,1.15708835E-1,3.8413888E-1,-2.0845633E-2,1.396403E-1,5.4909322E-2,-1.05026044E-1,1.2758113E-1,-6.3963115E-2,9.215126E-2,-8.16834E-2,1.7749901E-1,-2.0154837E-1,1.3104892E-1,-8.770329E-2,-2.0237416E-1,5.6280456E-3,1.6944353E-1,-2.1321581E-1,-6.2227234E-2,3.8611373E-1,1.2527114E-1,5.1747483E-1,5.9882313E-2,2.3173296E-1,3.1416458E-1,-2.6337948E-2,1.9845644E-1,-3.0185947E-1,-9.682898E-2,-2.2942953E-1,4.3844078E-2,-7.5174116E-2,1.2927568E-1,-1.7294799E-1,2.9945406E-1,1.0501355E-1,-4.2394695E-1,-5.631704E-2,-2.4522254E-1,-8.139443E-2,6.705087E-2,-3.0209193E-1,2.1793884E-1,-2.0216772E-1,-2.820451E-1,3.7959952E-2,-8.829999E-2,2.2651511E-1,9.768284E-2,-2.2548541E-1,-1.6696431E-3,4.4527045E-1],"split_indices":[5,6,5,13,13,5,9,10,1,1,1,13,5,1,5,3,2,2,12,4,2,2,1,6,5,3,10,4,2,1,6,0,1,0,2,1,4,0,0,3,6,0,3,6,1,0,0,5,5,6,5,6,0,13,1,6,4,4,4,3,0,0,0,0,0,0,0,0,0,0,0,0,0,0,0,0,0,0,0,0,0,0,0,0,0,0,0,0,0,0,0,0,0,0,0,0,0,0,0,0,0,0,0,0,0,0,0,0,0,0,0,0,0,0,0],"split_type":[0,0,0,0,0,0,0,0,0,0,0,0,0,0,0,0,0,0,0,0,0,0,0,0,0,0,0,0,0,0,0,0,0,0,0,0,0,0,0,0,0,0,0,0,0,0,0,0,0,0,0,0,0,0,0,0,0,0,0,0,0,0,0,0,0,0,0,0,0,0,0,0,0,0,0,0,0,0,0,0,0,0,0,0,0,0,0,0,0,0,0,0,0,0,0,0,0,0,0,0,0,0,0,0,0,0,0,0,0,0,0,0,0,0,0],"sum_hessian":[2.7976897E3,1.255473E3,1.5422168E3,1.00197845E3,2.5349455E2,1.4237194E3,1.1849745E2,6.774854E2,3.24493E2,1.717463E2,8.174824E1,1.2122239E3,2.1149545E2,9.399798E1,2.4499474E1,3.2274304E2,3.5474237E2,2.4299477E2,8.1498245E1,3.72492E1,1.344971E2,7.8498314E1,3.2499301E0,8.5723157E2,3.5499237E2,7.8248314E1,1.3324713E2,4.6748993E1,4.724898E1,2.049956E1,3.999914E0,1.6624643E2,1.5649663E2,1.5624664E2,1.9849573E2,2.32745E2,1.024978E1,4.0749123E1,4.0749123E1,2.9999355E1,7.249844E0,2.4499474E1,1.09997635E2,7.524838E1,3.2499301E0,1.4999677E0,1.7499623E0,2.2849509E2,6.2873645E2,1.85496E2,1.6949635E2,7.624836E1,1.999957E0,8.82481E1,4.499903E1,4.124911E1,5.4998817E0,2.5749447E1,2.1499537E1,1.8249607E1,2.2499516E0,1.7499623E0,2.2499516E0,1.5599664E2,1.024978E1,9.849788E1,5.7998753E1,6.924851E1,8.699813E1,1.3824702E2,6.0248703E1,1.3249715E1,2.1949527E2,8.999806E0,1.249973E0,3.8249176E1,2.499946E0,5.7498765E0,3.499925E1,2.499946E0,2.7499409E1,3.999914E0,3.2499301E0,1.4249693E1,1.024978E1,7.324842E1,3.674921E1,6.99985E1,5.249887E0,1.249973E0,1.999957E0,1.1699748E2,1.11497604E2,2.982436E2,3.304929E2,4.8998947E1,1.3649707E2,6.749855E1,1.019978E2,7.44984E1,1.7499623E0,2.2499516E1,6.574859E1,4.1999096E1,2.9999354E0,3.7749187E1,3.4999247E0,2.7499409E0,2.7499409E0,1.2999721E1,1.2749725E1,4.999892E0,1.6499645E1,1.4999677E0,1.674964E1],"tree_param":{"num_deleted":"0","num_feature":"14","num_nodes":"115","size_leaf_vector":"1"}},{"base_weights":[1.1576918E-2,1.4519592E-1,-8.202832E-2,9.699108E-2,3.2079136E-1,-1.11091554E-1,2.9707924E-1,1.8232206E-1,-8.560512E-2,4.2762107E-1,-2.8254834E-1,-4.9928322E-2,-4.9281678E-1,7.514638E-1,1.7348123E-1,1.24900855E-1,4.1724607E-1,-1.1250332E-1,6.8185234E-1,3.127086E-1,1.2898129E0,-4.4496524E-1,6.6626173E-1,-1.2877625E-1,8.753906E-2,-1.0993985E0,-1.6085166E-1,1.0962197E0,-2.0325062E-1,4.1321504E-1,-9.889679E-2,2.946036E-1,-1.1871165E-3,-4.5280527E-2,4.5926523E-1,-1.6954897E-1,6.591669E-2,1.0194879E0,-1.5237907E-1,6.582626E-1,2.033498E-1,1.3430064E0,8.290674E-2,-2.972882E-1,-4.1436654E-1,3.5374516E-1,-1.5659267E-1,-1.8018681E-1,-1.55861415E-2,2.974779E-1,-5.9777692E-2,-1.171499E0,9.893831E-2,2.6814334E-2,-3.9455104E-1,5.88796E-1,4.256695E-1,-6.736609E-1,3.150039E-1,-1.938086E-1,4.5351776E-1,-2.3153554E-1,3.8818637E-1,1.0272506E-1,-6.73596E-2,2.1637185E-2,-1.5328667E-1,-7.382241E-2,2.2069705E-1,1.6281347E-1,1.714296E-2,9.3427815E-2,-5.8817655E-2,8.650771E-2,-4.4018038E-2,3.580016E-2,3.5601398E-1,1.2113931E-1,-2.1030268E-1,1.4303978E-1,3.979661E-1,-7.279465E-2,1.1301621E-1,4.207472E-1,1.1436481E-1,-1.7911026E-1,1.1614196E-1,-1.7645096E-2,-1.6113235E-1,-7.0158094E-2,2.2019441E-1,3.0951783E-2,2.0786393E-1,1.3213244E-2,-6.691302E-2,-2.1130627E-1,-3.6885104E-1,2.5498754E-1,-1.8729238E-1,-9.2362925E-2,1.3430226E-1,3.9047298E-3,-2.767246E-1,2.9340047E-1,-1.5521063E-1,5.9499223E-2,-3.3028007E-1,3.1718987E-1,-1.0501754E-1,1.5427017E-1,-5.613234E-2,1.5956087E-2,-1.3672581E-1,2.000774E-1,-2.1464509E-1],"categories":[],"categories_nodes":[],"categories_segments":[],"categories_sizes":[],"default_left":[0,0,0,0,0,0,0,0,0,0,0,0,0,0,0,0,0,0,0,0,0,0,0,0,0,0,0,0,0,0,0,0,0,0,0,0,0,0,0,0,0,0,0,0,0,0,0,0,0,0,0,0,0,0,0,0,0,0,0,0,0,0,0,0,0,0,0,0,0,0,0,0,0,0,0,0,0,0,0,0,0,0,0,0,0,0,0,0,0,0,0,0,0,0,0,0,0,0,0,0,0,0,0,0,0,0,0,0,0,0,0,0,0,0,0],"id":1,"left_children":[1,3,5,7,9,11,13,15,17,19,21,23,25,27,29,31,33,35,37,39,41,43,45,47,49,51,53,55,57,59,61,63,65,67,69,71,73,75,77,79,81,83,-1,85,-1,-1,-1,87,89,91,93,95,97,99,101,103,-1,105,107,-1,109,111,113,-1,-1,-1,-1,-1,-1,-1,-1,-1,-1,-1,-1,-1,-1,-1,-1,-1,-1,-1,-1,-1,-1,-1,-1,-1,-1,-1,-1,-1,-1,-1,-1,-1,-1,-1,-1,-1,-1,-1,-1,-1,-1,-1,-1,-1,-1,-1,-1,-1,-1,-1,-1],"loss_changes":[3.496887E1,9.71768E0,1.8148655E1,1.4117789E1,1.6082243E1,3.5646484E1,6.459752E0,8.272947E0,6.0412827E0,2.0480442E1,6.129865E0,1.4296543E1,4.228716E1,8.383254E0,6.1495314E0,1.0642509E1,2.3683434E0,2.861149E0,2.9510221E0,6.9446545E0,9.4797134E-1,4.141127E0,4.2313557E0,4.8733892E0,1.4893717E1,6.545639E0,6.039398E0,2.1726418E0,2.0214589E0,2.4253664E0,2.9713347E0,5.3394012E0,1.0737923E1,1.9011711E0,3.687622E0,2.7699594E0,3.285143E0,9.4156027E-1,1.4211212E0,4.774042E0,1.1205254E1,7.80632E-1,0E0,6.326252E0,0E0,0E0,0E0,2.4926369E1,4.317152E1,1.5179644E1,4.815056E0,1.0381241E0,3.3255367E0,1.100885E1,1.31972475E1,4.316472E0,0E0,1.786467E0,2.4496946E0,0E0,1.9907217E0,2.3021007E0,3.5287309E0,0E0,0E0,0E0,0E0,0E0,0E0,0E0,0E0,0E0,0E0,0E0,0E0,0E0,0E0,0E0,0E0,0E0,0E0,0E0,0E0,0E0,0E0,0E0,0E0,0E0,0E0,0E0,0E0,0E0,0E0,0E0,0E0,0E0,0E0,0E0,0E0,0E0,0E0,0E0,0E0,0E0,0E0,0E0,0E0,0E0,0E0,0E0,0E0,0E0,0E0,0E0,0E0],"parents":[2147483647,0,0,1,1,2,2,3,3,4,4,5,5,6,6,7,7,8,8,9,9,10,10,11,11,12,12,13,13,14,14,15,15,16,16,17,17,18,18,19,19,20,20,21,21,22,22,23,23,24,24,25,25,26,26,27,27,28,28,29,29,30,30,31,31,32,32,33,33,34,34,35,35,36,36,37,37,38,38,39,39,40,40,41,41,43,43,47,47,48,48,49,49,50,50,51,51,52,52,53,53,54,54,55,55,57,57,58,58,60,60,61,61,62,62],"right_children":[2,4,6,8,10,12,14,16,18,20,22,24,26,28,30,32,34,36,38,40,42,44,46,48,50,52,54,56,58,60,62,64,66,68,70,72,74,76,78,80,82,84,-1,86,-1,-1,-1,88,90,92,94,96,98,100,102,104,-1,106,108,-1,110,112,114,-1,-1,-1,-1,-1,-1,-1,-1,-1,-1,-1,-1,-1,-1,-1,-1,-1,-1,-1,-1,-1,-1,-1,-1,-1,-1,-1,-1,-1,-1,-1,-1,-1,-1,-1,-1,-1,-1,-1,-1,-1,-1,-1,-1,-1,-1,-1,-1,-1,-1,-1,-1],"split_conditions":[5E0,5E0,1.9E1,2E0,1.6E1,1.5E1,1.59744E2,7.1463153E2,8.991122E2,1.5E1,7.403319E2,9E0,1.6E1,2.3E1,5.694243E2,2.7547607E2,1.2785945E2,6.8684296E2,2.1149007E2,1.6488408E2,8.767849E2,7.365572E2,7.258754E2,2E0,1.2E1,8.132568E2,1.6E1,9.766149E1,5.2051324E2,1.6986353E2,1E0,6.9198303E2,6.293384E2,1E0,1E0,4E0,2E0,5.083859E2,5.7592975E2,2.0698018E2,2.8398932E2,7.5173645E2,8.290674E-2,5.508718E2,-4.1436654E-1,3.5374516E-1,-1.5659267E-1,8E0,9E0,2E0,1E0,6.460859E1,8E0,5.6797864E2,2E0,5.7191406E2,4.256695E-1,1E0,1.1830212E2,-1.938086E-1,6.231542E2,6.3102496E2,2.3E1,1.0272506E-1,-6.73596E-2,2.1637185E-2,-1.5328667E-1,-7.382241E-2,2.2069705E-1,1.6281347E-1,1.714296E-2,9.3427815E-2,-5.8817655E-2,8.650771E-2,-4.4018038E-2,3.580016E-2,3.5601398E-1,1.2113931E-1,-2.1030268E-1,1.4303978E-1,3.979661E-1,-7.279465E-2,1.1301621E-1,4.207472E-1,1.1436481E-1,-1.7911026E-1,1.1614196E-1,-1.7645096E-2,-1.6113235E-1,-7.0158094E-2,2.2019441E-1,3.0951783E-2,2.0786393E-1,1.3213244E-2,-6.691302E-2,-2.1130627E-1,-3.6885104E-1,2.5498754E-1,-1.8729238E-1,-9.2362925E-2,1.3430226E-1,3.9047298E-3,-2.767246E-1,2.9340047E-1,-1.5521063E-1,5.9499223E-2,-3.3028007E-1,3.1718987E-1,-1.0501754E-1,1.5427017E-1,-5.613234E-2,1.5956087E-2,-1.3672581E-1,2.000774E-1,-2.1464509E-1],"split_indices":[5,6,5,13,6,5,2,1,2,6,3,6,5,5,3,0,2,1,4,2,0,1,2,13,5,3,6,2,3,2,9,3,1,7,7,6,12,3,1,4,0,1,0,3,0,0,0,5,5,13,10,4,6,3,13,1,0,10,2,0,1,2,5,0,0,0,0,0,0,0,0,0,0,0,0,0,0,0,0,0,0,0,0,0,0,0,0,0,0,0,0,0,0,0,0,0,0,0,0,0,0,0,0,0,0,0,0,0,0,0,0,0,0,0,0],"split_type":[0,0,0,0,0,0,0,0,0,0,0,0,0,0,0,0,0,0,0,0,0,0,0,0,0,0,0,0,0,0,0,0,0,0,0,0,0,0,0,0,0,0,0,0,0,0,0,0,0,0,0,0,0,0,0,0,0,0,0,0,0,0,0,0,0,0,0,0,0,0,0,0,0,0,0,0,0,0,0,0,0,0,0,0,0,0,0,0,0,0,0,0,0,0,0,0,0,0,0,0,0,0,0,0,0,0,0,0,0,0,0,0,0,0,0],"sum_hessian":[2.7938936E3,1.1507201E3,1.6431736E3,9.040819E2,2.4663815E2,1.5268303E3,1.1634325E2,6.1614575E2,2.8793613E2,2.097842E2,3.6853962E1,1.3169485E3,2.0988179E2,2.3792984E1,9.255026E1,4.9635587E2,1.1978988E2,2.7901065E2,8.925485E0,1.8631493E2,2.3469263E1,3.1920801E1,4.9331613E0,8.3695483E2,4.7999365E2,7.341775E1,1.3646405E2,1.7371693E1,6.421291E0,4.894989E1,4.360037E1,2.1101402E2,2.8534186E2,9.969775E0,1.0982011E2,2.1145312E2,6.755752E1,6.195808E0,2.7296765E0,4.358257E1,1.4273236E2,2.1989904E1,1.4793596E0,2.870988E1,3.210921E0,3.4511569E0,1.4820044E0,5.751375E2,2.6181732E2,1.975083E2,2.8248535E2,6.927224E1,4.1455126E0,7.617723E1,6.0286816E1,7.8507776E0,9.520915E0,3.2088294E0,3.2124615E0,1.2433201E0,4.7706573E1,3.468096E1,8.919406E0,1.9353E2,1.7484024E1,2.5021616E2,3.512569E1,8.475467E0,1.4943085E0,9.065768E1,1.9162434E1,1.0484406E1,2.0096872E2,3.284398E1,3.471354E1,1.2391616E0,4.9566464E0,1.4866078E0,1.2430687E0,3.562315E1,7.959417E0,3.9841095E1,1.02891266E2,2.027758E1,1.7123233E0,2.0054626E1,8.655254E0,4.3006137E2,1.4507616E2,2.0330336E2,5.851396E1,1.3327585E2,6.4232445E1,1.7312448E2,1.0936086E2,9.103039E0,6.0169197E1,1.947758E0,2.1977544E0,4.258209E1,3.3595142E1,3.457027E1,2.5716545E1,5.8931336E0,1.9576442E0,1.2314563E0,1.9773731E0,1.2393792E0,1.9730823E0,4.3756763E1,3.9498081E0,1.5615006E1,1.9065956E1,7.4368954E0,1.4825103E0],"tree_param":{"num_deleted":"0","num_feature":"14","num_nodes":"115","size_leaf_vector":"1"}},{"base_weights":[-1.1088574E-2,7.863021E-2,-7.360347E-2,3.1749096E-2,2.5682113E-1,-9.590357E-2,2.1812236E-1,1.0249461E-1,-1.1906258E-1,1.3485274E-1,5.18764E-1,-5.010028E-2,-4.049467E-1,3.978896E-1,4.13214E-2,2.9228639E-2,1.8377987E-1,-6.6651523E-1,-1.0604856E-1,-5.0157346E-2,3.9516097E-1,3.6892745E-1,1.217999E0,-6.2820606E-2,1.8865539E-1,-9.0532756E-1,-1.4474468E-1,4.8179355E-1,-5.478989E-1,-2.9045308E-1,8.808534E-2,2.4140984E-1,-6.334947E-2,2.3395908E-1,-1.1020602E-1,8.359817E-2,-9.448246E-1,-1.1852913E-1,3.867767E-1,-3.2639343E-1,1.7296055E-1,1.323893E-1,6.5949184E-1,1.7374866E-1,7.509467E-1,3.9807728E-1,2.6741471E-2,-6.272562E-1,-5.5063613E-2,-3.5800895E-1,1.1347382E0,-1.6237989E-1,-9.5984787E-1,-3.3789855E-1,-1.1471707E-1,5.8913743E-1,-6.7513E-2,8.275697E-2,-9.40255E-1,-5.678553E-1,1.4967658E-1,1.3347992E-1,-5.2609644E-3,1.2323419E-1,-2.8732082E-2,2.0897051E-2,9.533497E-2,-2.4997744E-1,-1.299465E-3,-3.8932624E-1,-7.400435E-2,1.891693E-1,-3.7680626E-2,1.9383214E-1,-1.526534E-1,-2.374641E-2,-2.5050947E-1,1.1206093E-1,-1.6629115E-1,-9.576055E-2,1.3670444E-1,4.510641E-1,1.5191248E-1,1.9037993E-1,-4.6646405E-2,3.1816083E-1,-2.7446138E-2,-3.812004E-1,-8.8013224E-2,-2.589672E-3,-3.897608E-2,1.7179018E-1,-1.6583575E-1,4.0357208E-1,1.2708046E-1,-2.0367342E-1,2.714153E-1,-3.081979E-1,-7.595904E-2,-2.5503451E-2,-3.234087E-1,-2.4226943E-1,1.9414221E-1,-1.5195224E-1,2.5909057E-1,-4.9381513E-2,-3.76177E-1,-8.845461E-3,-3.1473085E-1,1.6198659E-1,-6.156562E-3],"categories":[],"categories_nodes":[],"categories_segments":[],"categories_sizes":[],"default_left":[0,0,0,0,0,0,0,0,0,0,0,0,0,0,0,0,0,0,0,0,0,0,0,0,0,0,0,0,0,0,0,0,0,0,0,0,0,0,0,0,0,0,0,0,0,0,0,0,0,0,0,0,0,0,0,0,0,0,0,0,0,0,0,0,0,0,0,0,0,0,0,0,0,0,0,0,0,0,0,0,0,0,0,0,0,0,0,0,0,0,0,0,0,0,0,0,0,0,0,0,0,0,0,0,0,0,0,0,0,0,0],"id":2,"left_children":[1,3,5,7,9,11,13,15,17,19,21,23,25,27,29,31,33,35,37,39,41,43,45,47,49,51,53,55,57,-1,59,61,63,65,67,-1,69,71,73,75,77,79,81,83,85,-1,-1,87,89,91,93,95,97,-1,99,101,103,-1,105,107,109,-1,-1,-1,-1,-1,-1,-1,-1,-1,-1,-1,-1,-1,-1,-1,-1,-1,-1,-1,-1,-1,-1,-1,-1,-1,-1,-1,-1,-1,-1,-1,-1,-1,-1,-1,-1,-1,-1,-1,-1,-1,-1,-1,-1,-1,-1,-1,-1,-1,-1],"loss_changes":[1.5466338E1,9.452033E0,1.059275E1,9.59002E0,7.4616356E0,2.1359018E1,3.6610613E0,3.6369438E0,1.9748383E0,7.8311534E0,7.3606052E0,4.0102406E0,2.523372E1,4.8075504E0,2.891824E0,6.35721E0,4.3000374E0,1.9671834E0,1.778084E0,5.9546576E0,4.601022E0,4.55373E0,1.4458122E0,5.4414005E0,3.497715E1,2.5360374E0,3.6835248E0,3.1721392E0,1.9185117E0,0E0,2.4174986E0,5.187447E0,3.5071006E0,3.3909245E0,3.2823398E0,0E0,9.689493E-1,1.5385661E0,1.9988675E0,5.354662E0,8.024719E0,5.269921E0,3.5549822E0,6.6048846E0,5.559002E0,0E0,0E0,3.248877E0,4.2907877E0,8.133683E0,3.1304722E0,3.7819514E0,2.682438E0,0E0,3.5319717E0,4.131055E0,4.3539553E0,0E0,6.9477534E-1,1.3071172E0,3.5694942E0,0E0,0E0,0E0,0E0,0E0,0E0,0E0,0E0,0E0,0E0,0E0,0E0,0E0,0E0,0E0,0E0,0E0,0E0,0E0,0E0,0E0,0E0,0E0,0E0,0E0,0E0,0E0,0E0,0E0,0E0,0E0,0E0,0E0,0E0,0E0,0E0,0E0,0E0,0E0,0E0,0E0,0E0,0E0,0E0,0E0,0E0,0E0,0E0,0E0,0E0],"parents":[2147483647,0,0,1,1,2,2,3,3,4,4,5,5,6,6,7,7,8,8,9,9,10,10,11,11,12,12,13,13,14,14,15,15,16,16,17,17,18,18,19,19,20,20,21,21,22,22,23,23,24,24,25,25,26,26,27,27,28,28,30,30,31,31,32,32,33,33,34,34,36,36,37,37,38,38,39,39,40,40,41,41,42,42,43,43,44,44,47,47,48,48,49,49,50,50,51,51,52,52,54,54,55,55,56,56,58,58,59,59,60,60],"right_children":[2,4,6,8,10,12,14,16,18,20,22,24,26,28,30,32,34,36,38,40,42,44,46,48,50,52,54,56,58,-1,60,62,64,66,68,-1,70,72,74,76,78,80,82,84,86,-1,-1,88,90,92,94,96,98,-1,100,102,104,-1,106,108,110,-1,-1,-1,-1,-1,-1,-1,-1,-1,-1,-1,-1,-1,-1,-1,-1,-1,-1,-1,-1,-1,-1,-1,-1,-1,-1,-1,-1,-1,-1,-1,-1,-1,-1,-1,-1,-1,-1,-1,-1,-1,-1,-1,-1,-1,-1,-1,-1,-1,-1],"split_conditions":[5E0,5E0,1.9E1,2E0,2E0,1.5E1,5.4147516E2,5.6083075E2,4.610008E1,8E0,1E0,1.5E1,1.6E1,2.600426E2,5.4870337E2,1.06978966E2,2.5352957E2,5.0814493E2,9.064207E2,1E0,1.2229399E2,5.988995E2,7.258754E2,1.662494E2,2E0,3.113763E2,2.714794E1,2.3E1,4.1988016E2,-2.9045308E-1,1.0207874E2,3.11296E2,4.7224472E1,1.0810052E2,6.834698E1,8.359817E-2,5.1649756E2,4.312847E1,5.777769E2,5.933578E2,6.8314856E2,4.9288535E2,4.103228E2,4.7296753E2,7.910099E2,3.9807728E-1,2.6741471E-2,1.850272E2,5.9118933E2,1.6E1,1.9E1,3.0623624E2,7.5173645E2,-3.3789855E-1,9.1694183E2,1.18944626E2,1.8371422E2,8.275697E-2,2.8983908E2,8E0,3.1956833E2,1.3347992E-1,-5.2609644E-3,1.2323419E-1,-2.8732082E-2,2.0897051E-2,9.533497E-2,-2.4997744E-1,-1.299465E-3,-3.8932624E-1,-7.400435E-2,1.891693E-1,-3.7680626E-2,1.9383214E-1,-1.526534E-1,-2.374641E-2,-2.5050947E-1,1.1206093E-1,-1.6629115E-1,-9.576055E-2,1.3670444E-1,4.510641E-1,1.5191248E-1,1.9037993E-1,-4.6646405E-2,3.1816083E-1,-2.7446138E-2,-3.812004E-1,-8.8013224E-2,-2.589672E-3,-3.897608E-2,1.7179018E-1,-1.6583575E-1,4.0357208E-1,1.2708046E-1,-2.0367342E-1,2.714153E-1,-3.081979E-1,-7.595904E-2,-2.5503451E-2,-3.234087E-1,-2.4226943E-1,1.9414221E-1,-1.5195224E-1,2.5909057E-1,-4.9381513E-2,-3.76177E-1,-8.845461E-3,-3.1473085E-1,1.6198659E-1,-6.156562E-3],"split_indices":[5,6,5,13,13,5,1,1,2,6,7,6,5,4,1,4,4,1,2,10,4,3,2,3,13,1,4,5,1,0,2,2,0,4,2,0,3,0,3,1,1,1,3,3,1,0,0,4,3,6,6,1,1,0,0,1,4,0,4,6,0,0,0,0,0,0,0,0,0,0,0,0,0,0,0,0,0,0,0,0,0,0,0,0,0,0,0,0,0,0,0,0,0,0,0,0,0,0,0,0,0,0,0,0,0,0,0,0,0,0,0],"split_type":[0,0,0,0,0,0,0,0,0,0,0,0,0,0,0,0,0,0,0,0,0,0,0,0,0,0,0,0,0,0,0,0,0,0,0,0,0,0,0,0,0,0,0,0,0,0,0,0,0,0,0,0,0,0,0,0,0,0,0,0,0,0,0,0,0,0,0,0,0,0,0,0,0,0,0,0,0,0,0,0,0,0,0,0,0,0,0,0,0,0,0,0,0,0,0,0,0,0,0,0,0,0,0,0,0,0,0,0,0,0,0],"sum_hessian":[2.7555E3,1.1314427E3,1.6240573E3,8.9670294E2,2.3473978E2,1.5093508E3,1.1470648E2,6.105944E2,2.861085E2,1.6119664E2,7.354313E1,1.3155371E3,1.9381366E2,5.625607E1,5.8450413E1,3.218534E2,2.8874103E2,5.477436E0,2.8063107E2,9.469847E1,6.649817E1,6.1822926E1,1.1720201E1,1.2496934E3,6.584376E1,6.5457146E1,1.2835652E2,5.212269E1,4.1333795E0,1.7154434E0,5.6734966E1,9.72825E1,2.2457089E2,2.4681706E2,4.192398E1,1.2456797E0,4.231756E0,2.744405E2,6.190589E0,4.21057E1,5.259277E1,3.4100082E1,3.239809E1,4.1880455E1,1.9942472E1,1.0528809E1,1.1913922E0,1.5858935E1,1.2338345E3,4.2124832E1,2.3718925E1,4.747077E0,6.0710064E1,2.7262824E0,1.2563023E2,4.3541435E1,8.581251E0,1.4293557E0,2.7040238E0,4.1644325E0,5.2570534E1,5.4068344E1,4.3214157E1,1.362768E1,2.109432E2,8.4000374E1,1.6281668E2,4.477231E0,3.7446747E1,2.2403417E0,1.9914148E0,1.7424879E0,2.72698E2,5.0166054E0,1.1739831E0,2.9111036E1,1.2994665E1,4.1604767E1,1.0988004E1,1.4232311E1,1.986777E1,3.6205056E0,2.8777584E1,1.706547E1,2.4814985E1,1.4393904E1,5.5485673E0,4.4594455E0,1.139949E1,7.621874E2,4.716471E2,6.9548144E0,3.5170017E1,1.7613514E1,6.105412E0,3.4438496E0,1.3032274E0,5.500393E1,5.7061377E0,1.22927765E2,2.7024648E0,1.2208552E0,4.2320583E1,6.1417384E0,2.4395132E0,1.217679E0,1.4863448E0,2.4664679E0,1.6979643E0,1.5304223E1,3.726631E1],"tree_param":{"num_deleted":"0","num_feature":"14","num_nodes":"111","size_leaf_vector":"1"}},{"base_weights":[1.1848338E-2,8.4827185E-2,-3.9859932E-2,4.6027657E-2,2.3222965E-1,-1.733884E-2,-2.2591738E-1,2.4691595E-2,2.7132338E-1,1.3033523E-1,6.7460597E-1,-5.106578E-2,4.0103782E-2,-2.5950193E-1,8.6582494E-1,5.6037005E-2,-1.4297159E-1,2.9606773E-2,5.4315245E-1,3.7790862E-1,8.700387E-2,-2.4381186E-1,7.356173E-1,-1.5793918E-2,-1.9991323E-1,-5.332797E-3,2.7515373E-1,-3.78809E-1,-8.892873E-3,1.0896223E0,4.7339346E-2,1.6739334E-1,-5.5124527E-3,-4.5805165E-1,-4.2532496E-2,2.3962039E-1,-4.462673E-1,3.9578712E-1,3.210997E-1,-7.033962E-1,1.3178264E-1,8.667525E-1,1.6714033E-1,-5.4755895E-3,-5.5155873E-1,-6.76747E-1,-6.658917E-2,3.6857933E-2,-7.5667703E-1,7.257327E-1,-7.846175E-2,-7.072637E-1,-1.9569197E-1,1.9738661E-1,-3.3385494E-1,7.569228E-2,4.1090682E-1,-5.272489E-3,1.0361805E-1,-4.6986703E-2,3.0656671E-2,-1.8557046E-1,3.3835094E-2,2.0898472E-1,-2.4072247E-2,1.3520958E-1,-5.3022236E-2,8.290112E-2,-1.9073223E-1,1.8168682E-1,-4.4348943E-3,2.2042622E-1,-2.9267314E-1,5.3624008E-2,-1.1983307E-1,7.483517E-2,2.8002402E-1,3.1775767E-1,-2.2741188E-1,-1.8959094E-2,2.9546026E-2,-2.6087755E-1,8.1193104E-2,-2.2963394E-1,6.9165066E-2,-6.0776103E-2,3.9384075E-2,4.259222E-3,1.303159E-1,2.275902E-1,-2.5736892E-1,3.7615207E-1,1.2735203E-1,-8.3653845E-2,9.9378474E-2,-3.4976584E-1,-1.4623581E-1,2.2127982E-2,-1.0390528E-1,1.8962592E-2,2.0463555E-1,3.9373323E-2,-2.916842E-1],"categories":[],"categories_nodes":[],"categories_segments":[],"categories_sizes":[],"default_left":[0,0,0,0,0,0,0,0,0,0,0,0,0,0,0,0,0,0,0,0,0,0,0,0,0,0,0,0,0,0,0,0,0,0,0,0,0,0,0,0,0,0,0,0,0,0,0,0,0,0,0,0,0,0,0,0,0,0,0,0,0,0,0,0,0,0,0,0,0,0,0,0,0,0,0,0,0,0,0,0,0,0,0,0,0,0,0,0,0,0,0,0,0,0,0,0,0,0,0,0,0,0,0],"id":3,"left_children":[1,3,5,7,9,11,13,15,17,19,21,23,25,27,29,31,33,35,37,-1,39,-1,41,43,45,47,49,51,53,55,-1,57,59,61,63,65,67,69,-1,71,73,75,77,79,81,83,85,87,89,91,93,95,97,99,101,-1,-1,-1,-1,-1,-1,-1,-1,-1,-1,-1,-1,-1,-1,-1,-1,-1,-1,-1,-1,-1,-1,-1,-1,-1,-1,-1,-1,-1,-1,-1,-1,-1,-1,-1,-1,-1,-1,-1,-1,-1,-1,-1,-1,-1,-1,-1,-1],"loss_changes":[1.0359023E1,6.499771E0,6.7291946E0,4.3310933E0,1.0593077E1,2.781096E0,6.5831223E0,4.346079E0,5.106772E0,9.376054E0,4.601591E0,4.744183E0,5.674769E0,5.0499554E0,6.8468046E-1,4.772238E0,4.103866E0,4.3370843E0,2.4228563E0,0E0,6.7376537E0,0E0,3.0538235E0,4.044143E0,1.0961962E1,1.4170523E1,1.3770868E1,6.7468586E0,3.7885191E0,5.7797956E-1,0E0,8.166014E0,7.328324E0,2.9462013E0,2.8403747E0,2.7177243E0,1.9982729E0,2.6126504E0,0E0,4.718858E0,4.5252886E0,1.1920433E0,8.463101E0,4.3224654E0,3.8498955E0,3.2122974E0,3.6975205E0,3.8076906E0,4.2961855E0,5.503927E0,4.1258154E0,3.5240078E0,3.0654154E0,2.2072048E0,6.6408834E0,0E0,0E0,0E0,0E0,0E0,0E0,0E0,0E0,0E0,0E0,0E0,0E0,0E0,0E0,0E0,0E0,0E0,0E0,0E0,0E0,0E0,0E0,0E0,0E0,0E0,0E0,0E0,0E0,0E0,0E0,0E0,0E0,0E0,0E0,0E0,0E0,0E0,0E0,0E0,0E0,0E0,0E0,0E0,0E0,0E0,0E0,0E0,0E0],"parents":[2147483647,0,0,1,1,2,2,3,3,4,4,5,5,6,6,7,7,8,8,9,9,10,10,11,11,12,12,13,13,14,14,15,15,16,16,17,17,18,18,20,20,22,22,23,23,24,24,25,25,26,26,27,27,28,28,29,29,31,31,32,32,33,33,34,34,35,35,36,36,37,37,39,39,40,40,41,41,42,42,43,43,44,44,45,45,46,46,47,47,48,48,49,49,50,50,51,51,52,52,53,53,54,54],"right_children":[2,4,6,8,10,12,14,16,18,20,22,24,26,28,30,32,34,36,38,-1,40,-1,42,44,46,48,50,52,54,56,-1,58,60,62,64,66,68,70,-1,72,74,76,78,80,82,84,86,88,90,92,94,96,98,100,102,-1,-1,-1,-1,-1,-1,-1,-1,-1,-1,-1,-1,-1,-1,-1,-1,-1,-1,-1,-1,-1,-1,-1,-1,-1,-1,-1,-1,-1,-1,-1,-1,-1,-1,-1,-1,-1,-1,-1,-1,-1,-1,-1,-1,-1,-1,-1,-1],"split_conditions":[5E0,5E0,7.804888E2,7.944634E2,2.2216031E2,6.6748737E2,2.3E1,6.8603986E2,6.201023E2,3.0278275E2,7.412957E1,1.4E1,1.6E1,2E0,1E0,2.5001663E2,6.293384E2,5.421177E2,8.9726495E2,3.7790862E-1,3.4952533E2,-2.4381186E-1,8.485145E2,8.432941E2,1.6E1,1.5E1,5.3095404E2,5E0,1.2E1,4.6991562E2,4.7339346E-2,5.0131827E2,6.1825507E2,2.789538E2,4E0,3.9177036E2,2.4118211E2,2E0,3.210997E-1,2.2833192E2,1.9E1,3.6960376E2,2.697221E2,1.1E1,2E0,7.231448E2,5.4870337E2,1.5E1,6.792935E2,6E0,1E0,8.139796E2,8E0,1.1E1,7.948649E2,7.569228E-2,4.1090682E-1,-5.272489E-3,1.0361805E-1,-4.6986703E-2,3.0656671E-2,-1.8557046E-1,3.3835094E-2,2.0898472E-1,-2.4072247E-2,1.3520958E-1,-5.3022236E-2,8.290112E-2,-1.9073223E-1,1.8168682E-1,-4.4348943E-3,2.2042622E-1,-2.9267314E-1,5.3624008E-2,-1.1983307E-1,7.483517E-2,2.8002402E-1,3.1775767E-1,-2.2741188E-1,-1.8959094E-2,2.9546026E-2,-2.6087755E-1,8.1193104E-2,-2.2963394E-1,6.9165066E-2,-6.0776103E-2,3.9384075E-2,4.259222E-3,1.303159E-1,2.275902E-1,-2.5736892E-1,3.7615207E-1,1.2735203E-1,-8.3653845E-2,9.9378474E-2,-3.4976584E-1,-1.4623581E-1,2.2127982E-2,-1.0390528E-1,1.8962592E-2,2.0463555E-1,3.9373323E-2,-2.916842E-1],"split_indices":[5,6,1,1,4,2,5,3,2,3,0,5,5,13,10,0,1,0,1,0,1,0,2,3,5,5,1,6,5,0,0,3,0,4,6,2,2,13,0,0,6,1,4,6,13,1,1,6,2,6,10,1,5,5,3,0,0,0,0,0,0,0,0,0,0,0,0,0,0,0,0,0,0,0,0,0,0,0,0,0,0,0,0,0,0,0,0,0,0,0,0,0,0,0,0,0,0,0,0,0,0,0,0],"split_type":[0,0,0,0,0,0,0,0,0,0,0,0,0,0,0,0,0,0,0,0,0,0,0,0,0,0,0,0,0,0,0,0,0,0,0,0,0,0,0,0,0,0,0,0,0,0,0,0,0,0,0,0,0,0,0,0,0,0,0,0,0,0,0,0,0,0,0,0,0,0,0,0,0,0,0,0,0,0,0,0,0,0,0,0,0,0,0,0,0,0,0,0,0,0,0,0,0,0,0,0,0,0,0],"sum_hessian":[2.743227E3,1.1373622E3,1.605865E3,9.014051E2,2.3595709E2,1.4334482E3,1.7241675E2,8.2443835E2,7.696676E1,1.9283517E2,4.312192E1,9.0323346E2,5.302147E2,1.6801065E2,4.4060946E0,6.9514374E2,1.2929457E2,4.1326874E1,3.563988E1,6.0880847E0,1.8674709E2,1.2137194E0,4.1908203E1,7.310946E2,1.7213884E2,4.4514316E2,8.507156E1,1.134765E2,5.4534145E1,2.9383636E0,1.4677309E0,2.4683891E2,4.4830484E2,3.0392384E1,9.890219E1,2.901735E1,1.2309526E1,2.9222052E1,6.4178295E0,9.223994E0,1.775231E2,3.362659E1,8.2816105E0,7.182716E2,1.2823017E1,3.6723E1,1.3541585E2,4.2237613E2,2.2767021E1,3.6944427E1,4.8127136E1,3.9594315E1,7.388219E1,3.359885E1,2.0935297E1,1.2129369E0,1.7254266E0,1.2149207E2,1.2534684E2,1.8636794E2,2.619369E2,2.365662E1,6.7357635E0,3.952504E0,9.4949684E1,1.9200836E1,9.816513E0,2.4623184E0,9.847208E0,1.902408E1,1.0197971E1,1.1974415E0,8.026553E0,1.6371324E2,1.3809856E1,3.7395172E0,2.9887074E1,4.142547E0,4.139064E0,4.6209946E2,2.5617215E2,9.204877E0,3.6181405E0,3.3595016E1,3.1279802E0,8.024128E1,5.517456E1,4.005775E2,2.1798622E1,1.0188783E0,2.1748144E1,1.22701025E1,2.4674324E1,3.2534725E1,1.559241E1,1.143398E1,2.8160336E1,2.6678465E1,4.7203724E1,2.7200043E1,6.398807E0,1.2571362E1,8.363935E0],"tree_param":{"num_deleted":"0","num_feature":"14","num_nodes":"103","size_leaf_vector":"1"}},{"base_weights":[9.355886E-3,4.5501728E-2,-6.298764E-2,2.6428092E-2,2.4469571E-1,6.5474203E-3,-2.4847972E-1,1.7923262E-2,4.9245873E-1,1.1145302E0,1.7105314E-1,-7.4664764E-2,1.8966705E-1,-4.699462E-1,-1.04526766E-1,-2.6411202E-2,8.797572E-2,7.247608E-1,5.468838E-2,4.3789275E-2,1.2530016E0,-1.07504755E-1,5.09872E-1,-1.1999292E-1,2.550196E-1,7.0574224E-1,-9.117729E-2,-8.0903506E-1,-1.9721498E-1,1.4025976E-1,-2.2730944E-1,1.5947403E-2,-1.2020503E-1,5.6361717E-1,7.674432E-2,5.2561413E-2,8.826096E-1,-2.896866E-1,3.8935933E-1,7.285857E-2,4.1579038E-1,1.1428469E-1,-5.799371E-1,-8.1381965E-1,6.259053E-1,-2.4743502E-1,-4.3459255E-2,-1.4316563E-2,5.0282574E-1,-5.6507045E-1,8.140393E-1,1.6669025E-1,-5.921288E-1,-1.0967896E0,-4.115685E-1,-1.0761214E0,5.9002317E-2,-3.0182594E-1,3.0145097E-1,-1.3870746E-1,-1.0847088E0,3.9866373E-2,-7.6531726E-3,-7.464239E-3,-9.333872E-2,5.9341654E-2,2.336985E-1,5.0534774E-2,6.1153234E-3,1.2014116E-1,-6.99424E-2,-3.3124197E-2,3.1743288E-1,5.0443385E-2,-1.6092771E-1,2.296736E-1,-8.0307275E-2,9.348406E-2,-1.9912218E-1,-3.2119396E-1,9.086933E-2,2.1298632E-2,-3.252864E-1,-1.9315252E-1,2.0189597E-1,-2.1417184E-1,-3.993439E-2,1.5561511E-3,-1.3357328E-1,-9.688077E-2,2.4502897E-1,3.398654E-1,7.028567E-2,8.4601246E-2,-3.8695347E-1,-2.1467125E-1,2.5619066E-1,-3.6153074E-2,2.7855068E-1,-2.4593915E-1,-1.0131251E-2,-3.4768867E-1,2.2184728E-2,-1.9925763E-1,4.520885E-2,-4.3208033E-1,-3.7405644E-2,2.3433577E-1,-3.4325056E-2,1.2843961E-2,-3.797868E-1,-4.853527E-2,1.5439478E-1,-2.3187761E-1,-1.776921E-2,-4.030188E-1,-7.328802E-2],"categories":[],"categories_nodes":[],"categories_segments":[],"categories_sizes":[],"default_left":[0,0,0,0,0,0,0,0,0,0,0,0,0,0,0,0,0,0,0,0,0,0,0,0,0,0,0,0,0,0,0,0,0,0,0,0,0,0,0,0,0,0,0,0,0,0,0,0,0,0,0,0,0,0,0,0,0,0,0,0,0,0,0,0,0,0,0,0,0,0,0,0,0,0,0,0,0,0,0,0,0,0,0,0,0,0,0,0,0,0,0,0,0,0,0,0,0,0,0,0,0,0,0,0,0,0,0,0,0,0,0,0,0,0,0,0,0],"id":4,"left_children":[1,3,5,7,9,11,13,15,17,19,21,23,25,27,29,31,33,35,37,-1,39,41,43,45,47,49,51,53,55,57,59,61,63,65,67,69,71,73,75,-1,-1,77,79,81,83,85,87,89,91,93,95,97,99,101,103,105,107,109,111,113,115,-1,-1,-1,-1,-1,-1,-1,-1,-1,-1,-1,-1,-1,-1,-1,-1,-1,-1,-1,-1,-1,-1,-1,-1,-1,-1,-1,-1,-1,-1,-1,-1,-1,-1,-1,-1,-1,-1,-1,-1,-1,-1,-1,-1,-1,-1,-1,-1,-1,-1,-1,-1,-1,-1,-1,-1],"loss_changes":[7.0912805E0,6.863469E0,1.1656112E1,6.5361023E0,9.923282E0,9.802348E0,7.80604E0,5.0421243E0,2.96621E0,1.4456692E0,1.3904912E1,6.855259E0,2.941399E1,8.790426E0,4.5586863E0,3.953284E0,3.3178854E0,1.9938974E0,1.4184461E0,0E0,1.0726299E0,8.591357E0,1.0705729E1,3.911789E0,3.7127576E0,1.0297138E1,1.7153166E1,4.4458275E0,1.2439819E1,3.7202501E0,7.4983068E0,3.3293166E0,5.6257296E0,9.7702694E-1,3.1794243E0,5.6253093E-1,2.8196297E0,7.8569615E-1,1.7305973E0,0E0,0E0,8.8355665E0,1.1656288E1,1.4614248E0,4.1158714E0,7.9404306E0,4.9371457E0,7.3367696E0,4.631666E0,4.1721115E0,4.658901E0,1.9351984E1,5.703452E0,1.8498116E0,2.881524E0,4.1363754E0,5.537079E0,4.741871E0,3.818591E0,4.611769E0,1.6900864E0,0E0,0E0,0E0,0E0,0E0,0E0,0E0,0E0,0E0,0E0,0E0,0E0,0E0,0E0,0E0,0E0,0E0,0E0,0E0,0E0,0E0,0E0,0E0,0E0,0E0,0E0,0E0,0E0,0E0,0E0,0E0,0E0,0E0,0E0,0E0,0E0,0E0,0E0,0E0,0E0,0E0,0E0,0E0,0E0,0E0,0E0,0E0,0E0,0E0,0E0,0E0,0E0,0E0,0E0,0E0,0E0],"parents":[2147483647,0,0,1,1,2,2,3,3,4,4,5,5,6,6,7,7,8,8,9,9,10,10,11,11,12,12,13,13,14,14,15,15,16,16,17,17,18,18,20,20,21,21,22,22,23,23,24,24,25,25,26,26,27,27,28,28,29,29,30,30,31,31,32,32,33,33,34,34,35,35,36,36,37,37,38,38,41,41,42,42,43,43,44,44,45,45,46,46,47,47,48,48,49,49,50,50,51,51,52,52,53,53,54,54,55,55,56,56,57,57,58,58,59,59,60,60],"right_children":[2,4,6,8,10,12,14,16,18,20,22,24,26,28,30,32,34,36,38,-1,40,42,44,46,48,50,52,54,56,58,60,62,64,66,68,70,72,74,76,-1,-1,78,80,82,84,86,88,90,92,94,96,98,100,102,104,106,108,110,112,114,116,-1,-1,-1,-1,-1,-1,-1,-1,-1,-1,-1,-1,-1,-1,-1,-1,-1,-1,-1,-1,-1,-1,-1,-1,-1,-1,-1,-1,-1,-1,-1,-1,-1,-1,-1,-1,-1,-1,-1,-1,-1,-1,-1,-1,-1,-1,-1,-1,-1,-1,-1,-1,-1,-1,-1,-1],"split_conditions":[8E0,8E0,6.4516016E2,9.2762354E2,3.3418542E2,2E0,9E0,5.9247437E2,5.9118933E2,2.733879E2,5.7303845E2,1.9E1,8E0,1E0,6.776872E2,2E0,2.5317175E1,4.9633884E2,2E0,4.3789275E-2,8.8997536E1,5.5625287E2,4.527285E2,1E1,2E0,1.766902E2,1.4E1,2E0,1.7934055E2,1.2E1,2.353115E2,4.3265002E2,6E0,1.4150039E1,1E0,9.3983124E2,4.6124173E2,5.395476E2,5E0,7.285857E-2,4.1579038E-1,1.9E1,2.1271288E2,1.2785945E2,6.360847E1,1.4119153E2,8.654607E2,5.499884E2,4.4309082E2,4.6991562E2,1E1,1.3E1,7.2394794E2,8.1960156E2,1.6E1,1.6E1,2.919404E2,1.4E1,6.7375183E2,7.011388E2,1.7E1,3.9866373E-2,-7.6531726E-3,-7.464239E-3,-9.333872E-2,5.9341654E-2,2.336985E-1,5.0534774E-2,6.1153234E-3,1.2014116E-1,-6.99424E-2,-3.3124197E-2,3.1743288E-1,5.0443385E-2,-1.6092771E-1,2.296736E-1,-8.0307275E-2,9.348406E-2,-1.9912218E-1,-3.2119396E-1,9.086933E-2,2.1298632E-2,-3.252864E-1,-1.9315252E-1,2.0189597E-1,-2.1417184E-1,-3.993439E-2,1.5561511E-3,-1.3357328E-1,-9.688077E-2,2.4502897E-1,3.398654E-1,7.028567E-2,8.4601246E-2,-3.8695347E-1,-2.1467125E-1,2.5619066E-1,-3.6153074E-2,2.7855068E-1,-2.4593915E-1,-1.0131251E-2,-3.4768867E-1,2.2184728E-2,-1.9925763E-1,4.520885E-2,-4.3208033E-1,-3.7405644E-2,2.3433577E-1,-3.4325056E-2,1.2843961E-2,-3.797868E-1,-4.853527E-2,1.5439478E-1,-2.3187761E-1,-1.776921E-2,-4.030188E-1,-7.328802E-2],"split_indices":[5,6,1,0,3,13,6,1,3,2,3,5,6,13,3,13,4,3,12,0,4,1,1,6,12,1,5,12,0,5,4,1,5,4,13,0,1,1,5,0,0,6,4,2,0,0,2,1,1,0,5,6,2,3,5,5,0,6,1,1,5,0,0,0,0,0,0,0,0,0,0,0,0,0,0,0,0,0,0,0,0,0,0,0,0,0,0,0,0,0,0,0,0,0,0,0,0,0,0,0,0,0,0,0,0,0,0,0,0,0,0,0,0,0,0,0,0],"split_type":[0,0,0,0,0,0,0,0,0,0,0,0,0,0,0,0,0,0,0,0,0,0,0,0,0,0,0,0,0,0,0,0,0,0,0,0,0,0,0,0,0,0,0,0,0,0,0,0,0,0,0,0,0,0,0,0,0,0,0,0,0,0,0,0,0,0,0,0,0,0,0,0,0,0,0,0,0,0,0,0,0,0,0,0,0,0,0,0,0,0,0,0,0,0,0,0,0,0,0,0,0,0,0,0,0,0,0,0,0,0,0,0,0,0,0,0,0],"sum_hessian":[2.70976E3,1.8071857E3,9.025742E2,1.6502958E3,1.5688988E2,6.5718225E2,2.4539195E2,1.6217384E3,2.8557468E1,1.1142703E1,1.4574718E2,4.5568268E2,2.0149959E2,9.577735E1,1.4961461E2,9.935611E2,6.2817725E2,1.822881E1,1.0328658E1,1.6506953E0,9.492008E0,8.036131E1,6.5385864E1,4.01163E2,5.4519688E1,7.047778E1,1.310218E2,4.181813E1,5.3959225E1,4.9929657E1,9.968495E1,6.850245E2,3.0853668E2,1.3356511E1,6.1482074E2,3.7200334E0,1.4508777E1,5.1567736E0,5.171884E0,1.4328896E0,8.059118E0,5.520344E1,2.5157873E1,4.785046E0,6.0600822E1,1.4968236E2,2.5148064E2,2.6576445E1,2.7943243E1,5.2031837E0,6.52746E1,8.693751E1,4.40843E1,2.3236273E1,1.8581858E1,1.1457236E1,4.2501987E1,1.3107723E1,3.6821934E1,9.1401474E1,8.283473E0,1.7871573E2,5.0630872E2,2.0654402E2,1.01992645E2,5.6605973E0,7.6959143E0,2.3327048E2,3.8155023E2,1.4962724E0,2.223761E0,2.2347639E0,1.2274013E1,1.9174416E0,3.2393322E0,3.1837378E0,1.9881462E0,4.451315E1,1.0690291E1,1.603329E1,9.124581E0,1.2929089E0,3.492137E0,1.713513E0,5.888731E1,2.8430445E1,1.2125191E2,2.2520131E2,2.6279331E1,1.9825663E1,6.750782E0,7.3887672E0,2.0554476E1,2.6808584E0,2.5223255E0,1.230133E0,6.4044464E1,6.3746937E1,2.3190565E1,3.098291E1,1.310139E1,2.2074078E1,1.1621941E0,1.2696213E1,5.8856454E0,7.914364E0,3.5428727E0,7.551856E0,3.495013E1,1.0360014E1,2.7477098E0,1.1681541E1,2.5140392E1,9.2068E0,8.219467E1,5.8762293E0,2.4072437E0],"tree_param":{"num_deleted":"0","num_feature":"14","num_nodes":"117","size_leaf_vector":"1"}},{"base_weights":[1.5560357E-3,2.2521125E-2,-4.2271513E-2,1.7104017E-2,1.0015622E0,-3.0534834E-2,-5.948265E-1,8.611077E-2,-1.466097E-2,4.2799142E-1,5.019685E-2,-1.2017484E-1,4.4420924E-2,-1.11056E0,-3.262231E-1,2.3653252E-1,4.5079894E-2,-4.8496774E-3,-2.6784113E-1,1.9719517E-1,-1.3099563E-1,-1.636026E-1,2.0194359E-1,8.468895E-3,2.940738E-1,-1.1334654E-1,-4.1278404E-1,1.04772694E-1,-7.907025E-1,6.347818E-2,4.1502386E-1,-6.774633E-2,1.0716237E-1,3.1983918E-1,-1.1969348E-2,-4.4580618E-1,1.7779133E-1,-5.4644946E-2,-2.8633088E-1,-1.2062948E-2,6.176671E-1,-9.654209E-3,4.9243373E-1,5.32173E-1,1.2947573E-1,5.877791E-1,-7.047909E-1,-9.6246743E-1,4.170477E-3,3.23935E-2,-3.6477345E-1,3.070147E-1,1.0049175E-1,-5.1553164E-2,2.8386295E-2,2.8358411E-2,3.312476E-1,-1.0866048E-1,1.5469274E-1,-1.962492E-3,-1.1442118E-1,-5.7784677E-2,-2.9305083E-1,-1.4044595E-1,1.5131822E-1,-3.0335488E-3,-1.7850718E-1,-1.2509206E-1,5.50478E-3,3.241196E-2,-3.1459853E-1,2.5975913E-1,-1.103021E-1,7.046348E-2,-1.4647339E-2,2.838936E-1,7.6171234E-2,1.8567623E-1,-1.14596725E-1,1.7450821E-1,-1.6660016E-2,2.0131726E-2,3.6747637E-1,-1.701889E-2,-3.0129313E-1,-1.1539922E-1,-3.630419E-1],"categories":[],"categories_nodes":[],"categories_segments":[],"categories_sizes":[],"default_left":[0,0,0,0,0,0,0,0,0,0,0,0,0,0,0,0,0,0,0,0,0,0,0,0,0,0,0,0,0,0,0,0,0,0,0,0,0,0,0,0,0,0,0,0,0,0,0,0,0,0,0,0,0,0,0,0,0,0,0,0,0,0,0,0,0,0,0,0,0,0,0,0,0,0,0,0,0,0,0,0,0,0,0,0,0,0,0],"id":5,"left_children":[1,3,5,7,9,11,13,15,17,-1,19,21,23,25,27,29,31,33,35,-1,-1,37,39,41,43,-1,-1,45,47,49,51,53,55,57,59,61,63,65,67,69,71,73,75,77,79,81,83,85,-1,-1,-1,-1,-1,-1,-1,-1,-1,-1,-1,-1,-1,-1,-1,-1,-1,-1,-1,-1,-1,-1,-1,-1,-1,-1,-1,-1,-1,-1,-1,-1,-1,-1,-1,-1,-1,-1,-1],"loss_changes":[2.499148E0,9.740101E0,5.6893363E0,4.014025E0,4.0153065E0,5.802759E0,2.1659484E0,3.5517483E0,3.1147757E0,0E0,1.5158608E0,5.5334544E0,4.221718E0,6.146531E-1,2.7686841E0,3.787335E0,3.1924288E0,2.7978733E0,3.7892866E0,0E0,0E0,4.625017E0,4.203209E0,3.6220863E0,2.2517395E0,0E0,0E0,3.4807162E0,9.219856E-1,3.7674873E0,2.6082792E0,2.754652E0,3.595367E0,3.6550329E0,2.37103E0,4.344917E0,3.2034595E0,4.4476123E0,6.494548E0,4.1114926E0,4.242567E0,3.828616E0,1.3734803E0,2.130269E0,3.0720487E0,1.7281014E0,6.001103E-1,3.1186533E-1,0E0,0E0,0E0,0E0,0E0,0E0,0E0,0E0,0E0,0E0,0E0,0E0,0E0,0E0,0E0,0E0,0E0,0E0,0E0,0E0,0E0,0E0,0E0,0E0,0E0,0E0,0E0,0E0,0E0,0E0,0E0,0E0,0E0,0E0,0E0,0E0,0E0,0E0,0E0],"parents":[2147483647,0,0,1,1,2,2,3,3,4,4,5,5,6,6,7,7,8,8,10,10,11,11,12,12,13,13,14,14,15,15,16,16,17,17,18,18,21,21,22,22,23,23,24,24,27,27,28,28,29,29,30,30,31,31,32,32,33,33,34,34,35,35,36,36,37,37,38,38,39,39,40,40,41,41,42,42,43,43,44,44,45,45,46,46,47,47],"right_children":[2,4,6,8,10,12,14,16,18,-1,20,22,24,26,28,30,32,34,36,-1,-1,38,40,42,44,-1,-1,46,48,50,52,54,56,58,60,62,64,66,68,70,72,74,76,78,80,82,84,86,-1,-1,-1,-1,-1,-1,-1,-1,-1,-1,-1,-1,-1,-1,-1,-1,-1,-1,-1,-1,-1,-1,-1,-1,-1,-1,-1,-1,-1,-1,-1,-1,-1,-1,-1,-1,-1,-1,-1],"split_conditions":[1.1E1,1E1,9.2328656E2,1E0,5.7785724E2,2E0,5.29669E2,6.386547E2,8.583931E2,4.2799142E-1,2.4841035E2,1.9E1,8.3373676E2,1.3E1,2E0,6.3351465E2,5.3095404E2,1.900315E1,6E0,1.9719517E-1,-1.3099563E-1,1.3E1,2E0,8.7630304E2,7.9141144E2,-1.1334654E-1,-4.1278404E-1,1.5E1,9.444091E2,7.5382465E2,1.6777538E2,5E0,3.650941E2,4.576276E2,1.9E1,5E0,7.816935E2,8.654607E2,2E0,2.6375174E2,8.197622E2,1.2785945E2,4.6790778E2,7.002554E2,1.2E1,1.3E1,7.688433E2,1E0,4.170477E-3,3.23935E-2,-3.6477345E-1,3.070147E-1,1.0049175E-1,-5.1553164E-2,2.8386295E-2,2.8358411E-2,3.312476E-1,-1.0866048E-1,1.5469274E-1,-1.962492E-3,-1.1442118E-1,-5.7784677E-2,-2.9305083E-1,-1.4044595E-1,1.5131822E-1,-3.0335488E-3,-1.7850718E-1,-1.2509206E-1,5.50478E-3,3.241196E-2,-3.1459853E-1,2.5975913E-1,-1.103021E-1,7.046348E-2,-1.4647339E-2,2.838936E-1,7.6171234E-2,1.8567623E-1,-1.14596725E-1,1.7450821E-1,-1.6660016E-2,2.0131726E-2,3.6747637E-1,-1.701889E-2,-3.0129313E-1,-1.1539922E-1,-3.630419E-1],"split_indices":[5,5,0,13,1,12,3,2,1,0,2,5,2,5,12,3,1,4,6,0,0,5,13,1,0,0,0,5,0,1,0,5,4,3,6,5,3,2,13,4,2,2,2,3,5,5,2,13,0,0,0,0,0,0,0,0,0,0,0,0,0,0,0,0,0,0,0,0,0,0,0,0,0,0,0,0,0,0,0,0,0,0,0,0,0,0,0],"split_type":[0,0,0,0,0,0,0,0,0,0,0,0,0,0,0,0,0,0,0,0,0,0,0,0,0,0,0,0,0,0,0,0,0,0,0,0,0,0,0,0,0,0,0,0,0,0,0,0,0,0,0,0,0,0,0,0,0,0,0,0,0,0,0,0,0,0,0,0,0,0,0,0,0,0,0,0,0,0,0,0,0,0,0,0,0,0,0],"sum_hessian":[2.7178333E3,1.8387471E3,8.790862E2,1.829641E3,9.106071E0,8.618354E2,1.7250763E1,5.7619507E2,1.2534459E3,5.948622E0,3.1574492E0,3.9219907E2,4.6963632E2,4.8342185E0,1.2416544E1,1.2246521E2,4.5372983E2,1.2076654E3,4.5780563E1,1.2493335E0,1.9081157E0,3.460385E2,4.6160545E1,4.1142215E2,5.8214188E1,1.9297637E0,2.9044547E0,6.842105E0,5.5744386E0,6.286793E1,5.9597282E1,1.6101549E2,2.9271436E2,2.497061E1,1.1826948E3,3.271522E1,1.3065341E1,1.8406851E2,1.6197002E2,3.111442E1,1.5046126E1,3.9751636E2,1.3905802E1,2.2881626E1,3.533256E1,4.4569373E0,2.3851676E0,4.4320874E0,1.1423512E0,6.1639565E1,1.2283659E0,5.5599346E0,5.4037346E1,9.807738E1,6.293811E1,2.9013248E2,2.5818636E0,5.3801455E0,1.9590466E1,1.1665732E3,1.6121511E1,2.307566E1,9.639561E0,4.242083E0,8.823258E0,1.7099535E2,1.3073168E1,1.1310401E2,4.8866013E1,2.8686508E1,2.4279125E0,1.2115595E1,2.930532E0,5.4194427E1,3.4332193E2,3.7682471E0,1.0137555E1,2.1193474E1,1.6881526E0,9.635745E0,2.5696815E1,3.0608938E0,1.3960435E0,1.1298808E0,1.2552869E0,2.0958114E0,2.336276E0],"tree_param":{"num_deleted":"0","num_feature":"14","num_nodes":"87","size_leaf_vector":"1"}},{"base_weights":[-1.8169235E-2,2.4138812E-2,-4.8010513E-2,-9.627453E-1,2.7615335E-2,2.3638119E-1,-5.5513903E-2,-3.6197758E-1,-1.212999E-1,1.6830144E-2,3.3513883E-1,-8.587945E-2,4.7936258E-1,-3.4157684E-1,-4.4496823E-2,3.695273E-2,-1.8102598E-1,8.146147E-2,5.611505E-1,2.2984776E-1,-6.4507115E-1,1.0320067E0,2.6644045E-1,-4.3002987E-1,3.9923793E-1,-3.741782E-2,-2.5658453E-1,2.9886818E-2,4.112757E-1,-5.4487205E-1,-5.9155073E-2,-3.85964E-1,2.9167253E-1,7.1904695E-1,-1.4989638E-1,3.628238E-2,2.8964022E-1,-1.1105532E-2,-9.2078304E-1,1.1367012E0,7.514716E-2,8.326094E-1,-2.3481572E-2,-1.0489612E0,-2.216611E-1,8.7435454E-1,-2.8196135E-1,2.7714294E-1,-4.1492537E-2,-3.337819E-1,3.122064E-1,-1.1402231E-3,2.9147986E-2,1.758315E-1,-2.1466012E-1,-2.2040547E-1,-1.5291189E-3,-4.8380896E-2,7.13676E-2,1.076474E-2,-2.6674113E-1,-9.5256634E-2,1.6791016E-1,1.2360423E-1,3.0696353E-1,1.1373041E-1,-1.65526E-1,1.452525E-1,-1.15120396E-1,-3.1432638E-1,-9.302341E-2,1.21302254E-1,4.37871E-1,3.5816482E-1,-8.139152E-2,2.2616898E-1,-7.675351E-2,7.516657E-2,-3.5944986E-1,-1.82375E-1,9.723476E-3,-2.3965936E-2,3.7163025E-1,1.2464685E-1,-1.1227604E-1,-1.7080039E-2,1.3152008E-2,-6.47979E-2,-3.786441E-1,-2.1554422E-1,3.736587E-1],"categories":[],"categories_nodes":[],"categories_segments":[],"categories_sizes":[],"default_left":[0,0,0,0,0,0,0,0,0,0,0,0,0,0,0,0,0,0,0,0,0,0,0,0,0,0,0,0,0,0,0,0,0,0,0,0,0,0,0,0,0,0,0,0,0,0,0,0,0,0,0,0,0,0,0,0,0,0,0,0,0,0,0,0,0,0,0,0,0,0,0,0,0,0,0,0,0,0,0,0,0,0,0,0,0,0,0,0,0,0,0],"id":6,"left_children":[1,3,5,7,9,11,13,-1,-1,15,17,19,21,23,25,27,29,31,33,35,37,39,41,43,45,47,49,51,53,55,57,59,61,63,65,67,-1,-1,69,71,-1,73,75,77,79,81,-1,83,85,87,89,-1,-1,-1,-1,-1,-1,-1,-1,-1,-1,-1,-1,-1,-1,-1,-1,-1,-1,-1,-1,-1,-1,-1,-1,-1,-1,-1,-1,-1,-1,-1,-1,-1,-1,-1,-1,-1,-1,-1,-1],"loss_changes":[3.3926835E0,3.8408537E0,3.375232E0,4.7334194E-2,3.6719186E0,3.2274396E0,4.825241E0,0E0,0E0,4.275857E0,2.1052547E0,3.3862567E0,2.4727793E0,3.8941321E0,2.2125306E0,2.5642104E0,4.364607E0,1.9643611E0,2.3161974E0,1.7390316E0,1.1194975E0,2.1817732E-1,3.0077686E0,6.3743706E0,5.0068517E0,1.848799E0,2.1958218E0,2.1695466E0,3.9592757E0,2.5328245E0,2.3254385E0,1.3642149E0,2.3933492E0,1.0977097E0,1.14491E0,2.236842E0,0E0,0E0,3.8975477E-2,6.2468386E-1,0E0,2.7936125E0,2.54332E0,2.7500782E0,3.9053984E0,1.9674602E0,0E0,1.8191766E0,1.8682032E0,4.36669E0,6.8679237E0,0E0,0E0,0E0,0E0,0E0,0E0,0E0,0E0,0E0,0E0,0E0,0E0,0E0,0E0,0E0,0E0,0E0,0E0,0E0,0E0,0E0,0E0,0E0,0E0,0E0,0E0,0E0,0E0,0E0,0E0,0E0,0E0,0E0,0E0,0E0,0E0,0E0,0E0,0E0,0E0],"parents":[2147483647,0,0,1,1,2,2,3,3,4,4,5,5,6,6,9,9,10,10,11,11,12,12,13,13,14,14,15,15,16,16,17,17,18,18,19,19,20,20,21,21,22,22,23,23,24,24,25,25,26,26,27,27,28,28,29,29,30,30,31,31,32,32,33,33,34,34,35,35,38,38,39,39,41,41,42,42,43,43,44,44,45,45,47,47,48,48,49,49,50,50],"right_children":[2,4,6,8,10,12,14,-1,-1,16,18,20,22,24,26,28,30,32,34,36,38,40,42,44,46,48,50,52,54,56,58,60,62,64,66,68,-1,-1,70,72,-1,74,76,78,80,82,-1,84,86,88,90,-1,-1,-1,-1,-1,-1,-1,-1,-1,-1,-1,-1,-1,-1,-1,-1,-1,-1,-1,-1,-1,-1,-1,-1,-1,-1,-1,-1,-1,-1,-1,-1,-1,-1,-1,-1,-1,-1,-1,-1],"split_conditions":[5E0,4.2084393E1,4.8830746E1,4.5449536E2,9.069026E2,5.0308517E2,8.1197174E1,-3.6197758E-1,-1.212999E-1,8.336565E2,5.484624E2,4.8662085E2,1.4303874E2,2.919404E2,9.069026E2,8.27392E2,8.508436E2,1.14609375E2,6.5150494E2,1.6E1,2E0,1.3E1,5E0,5E0,3.6727466E2,4.312847E1,1.8E1,6.0950085E2,1E0,1.9457802E2,8.485145E2,2E0,6.9318774E2,2E0,9.2328656E2,8E0,2.8964022E-1,-1.1105532E-2,5.266171E2,2E0,7.514716E-2,1.4E1,5.20192E2,3.8267193E1,4.699959E2,2E0,-2.8196135E-1,1.4E1,1.6E1,1.4E1,1E0,-1.1402231E-3,2.9147986E-2,1.758315E-1,-2.1466012E-1,-2.2040547E-1,-1.5291189E-3,-4.8380896E-2,7.13676E-2,1.076474E-2,-2.6674113E-1,-9.5256634E-2,1.6791016E-1,1.2360423E-1,3.0696353E-1,1.1373041E-1,-1.65526E-1,1.452525E-1,-1.15120396E-1,-3.1432638E-1,-9.302341E-2,1.21302254E-1,4.37871E-1,3.5816482E-1,-8.139152E-2,2.2616898E-1,-7.675351E-2,7.516657E-2,-3.5944986E-1,-1.82375E-1,9.723476E-3,-2.3965936E-2,3.7163025E-1,1.2464685E-1,-1.1227604E-1,-1.7080039E-2,1.3152008E-2,-6.47979E-2,-3.786441E-1,-2.1554422E-1,3.736587E-1],"split_indices":[5,0,2,1,0,1,2,0,0,0,3,1,0,0,0,0,0,4,3,5,12,5,6,6,0,0,5,3,9,4,2,12,2,12,0,5,0,0,3,12,0,5,1,4,3,12,0,5,5,6,10,0,0,0,0,0,0,0,0,0,0,0,0,0,0,0,0,0,0,0,0,0,0,0,0,0,0,0,0,0,0,0,0,0,0,0,0,0,0,0,0],"split_type":[0,0,0,0,0,0,0,0,0,0,0,0,0,0,0,0,0,0,0,0,0,0,0,0,0,0,0,0,0,0,0,0,0,0,0,0,0,0,0,0,0,0,0,0,0,0,0,0,0,0,0,0,0,0,0,0,0,0,0,0,0,0,0,0,0,0,0,0,0,0,0,0,0,0,0,0,0,0,0,0,0,0,0,0,0,0,0,0,0,0,0],"sum_hessian":[2.6853005E3,1.1107312E3,1.5745695E3,2.930462E0,1.1078008E3,3.9691406E1,1.534878E3,1.231805E0,1.6986568E0,1.0712843E3,3.6516407E1,1.7340137E1,2.2351269E1,5.580757E1,1.4790704E3,9.731275E2,9.815687E1,1.7846159E1,1.8670248E1,1.1459125E1,5.881013E0,5.14651E0,1.7204758E1,5.0229683E1,5.5778894E0,1.4324354E3,4.6634983E1,9.561584E2,1.696909E1,2.3757591E1,7.439928E1,5.276733E0,1.2569427E1,1.5268454E1,3.4017942E0,9.90272E0,1.5564046E0,2.188587E0,3.692426E0,4.137725E0,1.0087854E0,5.192615E0,1.2012143E1,1.1635083E1,3.8594597E1,4.373302E0,1.2045875E0,1.7461016E1,1.4149745E3,4.142577E1,5.209212E0,6.3774567E2,3.1841275E2,1.5105293E1,1.8637964E0,1.7309559E1,6.448033E0,5.5706417E1,1.8692862E1,3.3754969E0,1.9012363E0,3.7840607E0,8.785366E0,8.770166E0,6.498287E0,1.493026E0,1.9087682E0,4.7184095E0,5.1843104E0,2.4644048E0,1.2280213E0,1.9551692E0,2.1825557E0,3.8508613E0,1.3417537E0,2.2477536E0,9.76439E0,1.1283479E0,1.0506735E1,1.4761162E1,2.3833437E1,1.424342E0,2.94896E0,1.4700923E1,2.7600935E0,1.1984481E3,2.1652629E2,3.7855415E1,3.570353E0,2.5848737E0,2.6243382E0],"tree_param":{"num_deleted":"0","num_feature":"14","num_nodes":"91","size_leaf_vector":"1"}},{"base_weights":[1.2203703E-3,-1.17759565E-2,4.651268E-2,-1.7185347E-3,-1.2977211E-1,9.77216E-2,-6.5325886E-2,-9.742172E-3,2.0875409E-1,-1.8042378E-1,7.401305E-2,3.056452E-1,-2.845245E-3,-1.08616486E-1,3.1846383E-1,2.79155E-2,-4.740387E-2,-7.1236975E-2,3.5570163E-1,-2.1873921E-1,2.0046374E-1,2.3124604E-1,-1.2896481E-1,1.9667864E-1,7.799311E-1,8.977974E-2,-2.580612E-1,-2.5793388E-1,-5.156932E-2,4.1652334E-1,-1.8826912E-1,2.705657E-1,9.654947E-3,-8.711343E-2,4.219956E-2,-3.435088E-1,7.9143E-1,4.4791955E-1,-6.66588E-1,-1.838454E-1,-7.090022E-1,3.2939452E-1,-1.0348703E-1,8.920198E-2,4.8839355E-1,2.1000145E-1,-2.652878E-1,7.215618E-1,5.493708E-2,8.8218945E-1,-1.734107E-1,6.47492E-2,9.1212606E-1,-1.6596399E-1,-8.439757E-1,-4.6657583E-1,-5.5525195E-2,-1.8089391E-1,6.538378E-2,8.7475044E-1,8.070469E-2,1.2094204E-1,-9.279193E-2,5.1211223E-2,-8.313227E-3,-7.1667574E-2,1.01171E-3,1.313975E-1,-5.0162304E-2,-3.1291282E-1,-6.253829E-2,3.4495977E-1,-7.9854116E-2,9.36464E-2,2.1064217E-1,4.636517E-2,-3.1193832E-1,-6.522804E-2,1.2834425E-1,-1.13665566E-1,-3.5370788E-1,1.9307762E-1,9.478501E-3,-1.861669E-2,1.6941065E-1,1.8965916E-1,-1.6208258E-3,-6.1333198E-2,1.19511925E-1,6.294481E-2,-1.4259712E-1,2.6535717E-1,-1.3246246E-1,-6.4515464E-2,1.3922583E-1,3.24234E-1,7.378215E-2,4.21953E-2,-7.064129E-2,1.4518815E-3,3.6084372E-1,-2.6896605E-1,-2.0315599E-2,-3.2855386E-1,-7.840084E-3,9.025939E-2,-3.3229563E-1,-2.2419815E-1,2.4196059E-1,-3.6145967E-2,-2.7424747E-1,8.869568E-2,-3.930805E-3,5.2521493E-2,3.3363757E-1,-1.4933886E-1,2.5775713E-1],"categories":[],"categories_nodes":[],"categories_segments":[],"categories_sizes":[],"default_left":[0,0,0,0,0,0,0,0,0,0,0,0,0,0,0,0,0,0,0,0,0,0,0,0,0,0,0,0,0,0,0,0,0,0,0,0,0,0,0,0,0,0,0,0,0,0,0,0,0,0,0,0,0,0,0,0,0,0,0,0,0,0,0,0,0,0,0,0,0,0,0,0,0,0,0,0,0,0,0,0,0,0,0,0,0,0,0,0,0,0,0,0,0,0,0,0,0,0,0,0,0,0,0,0,0,0,0,0,0,0,0,0,0,0,0,0,0],"id":7,"left_children":[1,3,5,7,9,11,13,15,17,19,21,23,25,27,29,31,33,35,37,39,41,43,45,47,49,51,53,55,57,59,-1,61,63,65,67,69,71,73,75,77,79,81,-1,83,85,87,89,91,93,95,-1,97,99,101,103,105,107,109,111,113,115,-1,-1,-1,-1,-1,-1,-1,-1,-1,-1,-1,-1,-1,-1,-1,-1,-1,-1,-1,-1,-1,-1,-1,-1,-1,-1,-1,-1,-1,-1,-1,-1,-1,-1,-1,-1,-1,-1,-1,-1,-1,-1,-1,-1,-1,-1,-1,-1,-1,-1,-1,-1,-1,-1,-1,-1],"loss_changes":[1.5903515E0,2.4912639E0,3.4563751E0,3.27073E0,1.7152381E0,8.649311E0,3.1879454E0,2.6469898E0,2.9516046E0,1.9752946E0,1.0999918E0,6.815362E0,6.6364655E0,1.4458783E0,2.069681E0,4.1332154E0,3.3235447E0,6.217317E0,4.7114973E0,1.9349642E0,1.0009674E0,6.596838E-1,7.6172733E-1,8.217504E0,3.9613266E0,4.181284E0,3.8937125E0,1.9633746E0,1.905435E0,2.7397506E0,0E0,5.1439095E0,5.234789E0,8.884494E0,2.3876295E1,1.6660774E0,2.7228158E0,1.2833948E0,1.4708202E0,2.4357789E0,7.436385E-1,9.824654E-1,0E0,1.0150542E0,4.740262E-1,4.6714425E-1,1.2311727E0,4.847849E0,9.872724E0,2.7047367E0,0E0,4.6132536E0,1.5788922E0,4.665387E0,2.007197E0,1.1678578E1,1.5538748E1,2.5351214E0,1.2053292E0,1.0712409E0,5.670228E0,0E0,0E0,0E0,0E0,0E0,0E0,0E0,0E0,0E0,0E0,0E0,0E0,0E0,0E0,0E0,0E0,0E0,0E0,0E0,0E0,0E0,0E0,0E0,0E0,0E0,0E0,0E0,0E0,0E0,0E0,0E0,0E0,0E0,0E0,0E0,0E0,0E0,0E0,0E0,0E0,0E0,0E0,0E0,0E0,0E0,0E0,0E0,0E0,0E0,0E0,0E0,0E0,0E0,0E0,0E0,0E0],"parents":[2147483647,0,0,1,1,2,2,3,3,4,4,5,5,6,6,7,7,8,8,9,9,10,10,11,11,12,12,13,13,14,14,15,15,16,16,17,17,18,18,19,19,20,20,21,21,22,22,23,23,24,24,25,25,26,26,27,27,28,28,29,29,31,31,32,32,33,33,34,34,35,35,36,36,37,37,38,38,39,39,40,40,41,41,43,43,44,44,45,45,46,46,47,47,48,48,49,49,51,51,52,52,53,53,54,54,55,55,56,56,57,57,58,58,59,59,60,60],"right_children":[2,4,6,8,10,12,14,16,18,20,22,24,26,28,30,32,34,36,38,40,42,44,46,48,50,52,54,56,58,60,-1,62,64,66,68,70,72,74,76,78,80,82,-1,84,86,88,90,92,94,96,-1,98,100,102,104,106,108,110,112,114,116,-1,-1,-1,-1,-1,-1,-1,-1,-1,-1,-1,-1,-1,-1,-1,-1,-1,-1,-1,-1,-1,-1,-1,-1,-1,-1,-1,-1,-1,-1,-1,-1,-1,-1,-1,-1,-1,-1,-1,-1,-1,-1,-1,-1,-1,-1,-1,-1,-1,-1,-1,-1,-1,-1,-1,-1],"split_conditions":[1.2E1,8.7052045E2,1.6E1,8.485145E2,9.342092E2,1.2E1,8.3935876E2,5E0,7.845848E2,2.9955548E2,5E0,7.161575E2,2E0,1E0,2.6748166E2,3.3145474E2,2E0,8E0,1.4E1,2.7211813E2,1.2E1,5.669346E2,9.4119653E2,4.4027985E2,8.460248E2,1.9E1,7.25233E2,1.3E1,2.562811E2,1.3E1,-1.8826912E-1,2.6375174E2,1.4303874E2,5E0,5E0,8.5526086E2,8.625694E2,1E0,5.0718118E2,2.5352957E2,8E0,2E0,-1.0348703E-1,8.6746857E2,8.4514136E2,5.3641534E2,6E0,5.7191406E2,1E0,8.235369E2,-1.734107E-1,7.779991E2,1.4303874E2,2.5178352E2,8.508436E2,7.133465E2,7.133465E2,2.3E1,3.4454587E2,2E0,5.9247437E2,1.2094204E-1,-9.279193E-2,5.1211223E-2,-8.313227E-3,-7.1667574E-2,1.01171E-3,1.313975E-1,-5.0162304E-2,-3.1291282E-1,-6.253829E-2,3.4495977E-1,-7.9854116E-2,9.36464E-2,2.1064217E-1,4.636517E-2,-3.1193832E-1,-6.522804E-2,1.2834425E-1,-1.13665566E-1,-3.5370788E-1,1.9307762E-1,9.478501E-3,-1.861669E-2,1.6941065E-1,1.8965916E-1,-1.6208258E-3,-6.1333198E-2,1.19511925E-1,6.294481E-2,-1.4259712E-1,2.6535717E-1,-1.3246246E-1,-6.4515464E-2,1.3922583E-1,3.24234E-1,7.378215E-2,4.21953E-2,-7.064129E-2,1.4518815E-3,3.6084372E-1,-2.6896605E-1,-2.0315599E-2,-3.2855386E-1,-7.840084E-3,9.025939E-2,-3.3229563E-1,-2.2419815E-1,2.4196059E-1,-3.6145967E-2,-2.7424747E-1,8.869568E-2,-3.930805E-3,5.2521493E-2,3.3363757E-1,-1.4933886E-1,2.5775713E-1],"split_indices":[6,2,6,2,2,5,2,5,0,4,6,3,13,13,4,1,13,5,5,4,5,3,2,3,2,5,3,5,2,5,0,4,0,6,6,2,2,13,1,4,5,12,0,0,0,1,5,1,10,3,0,2,0,3,0,0,0,5,2,12,1,0,0,0,0,0,0,0,0,0,0,0,0,0,0,0,0,0,0,0,0,0,0,0,0,0,0,0,0,0,0,0,0,0,0,0,0,0,0,0,0,0,0,0,0,0,0,0,0,0,0,0,0,0,0,0,0],"split_type":[0,0,0,0,0,0,0,0,0,0,0,0,0,0,0,0,0,0,0,0,0,0,0,0,0,0,0,0,0,0,0,0,0,0,0,0,0,0,0,0,0,0,0,0,0,0,0,0,0,0,0,0,0,0,0,0,0,0,0,0,0,0,0,0,0,0,0,0,0,0,0,0,0,0,0,0,0,0,0,0,0,0,0,0,0,0,0,0,0,0,0,0,0,0,0,0,0,0,0,0,0,0,0,0,0,0,0,0,0,0,0,0,0,0,0,0,0],"sum_hessian":[2.6998372E3,2.0984429E3,6.013942E2,1.9345646E3,1.6387837E2,4.1259875E2,1.887955E2,1.864442E3,7.012254E1,1.3134631E2,3.253205E1,1.3384102E2,2.7875772E2,1.7030273E2,1.8492771E1,9.324002E2,9.320418E2,2.4312737E1,4.5809807E1,1.19727974E2,1.1618341E1,1.8253248E1,1.4278803E1,1.09986465E2,2.3854559E1,2.0500421E2,7.3753525E1,4.6104824E1,1.24197914E2,1.7263096E1,1.2296754E0,6.4289566E1,8.681106E2,6.4584875E2,2.8619308E2,1.8937544E1,5.375193E0,4.2534718E1,3.275092E0,1.13056335E2,6.6716413E0,9.71735E0,1.900991E0,1.2625835E1,5.627413E0,3.9404438E0,1.033836E1,2.2516165E1,8.74703E1,2.2509869E1,1.3446902E0,1.9999548E2,5.008716E0,6.4844215E1,8.909308E0,2.2060177E1,2.4044645E1,5.8719852E1,6.5478065E1,6.6222105E0,1.0640885E1,5.2574413E1,1.1715156E1,1.6281155E2,7.052991E2,2.4061217E2,4.0523657E2,9.864902E1,1.8754408E2,1.9764154E0,1.6961128E1,3.9494505E0,1.4257427E0,2.91795E1,1.3355215E1,1.2064695E0,2.0686224E0,1.0778333E2,5.273001E0,4.9800487E0,1.6915928E0,4.163467E0,5.553883E0,1.0238455E1,2.3873801E0,4.1411467E0,1.4862661E0,1.2046697E0,2.735774E0,3.1696408E0,7.168719E0,1.9959202E1,2.5569642E0,5.2982605E1,3.448769E1,1.6622774E1,5.887094E0,1.6006044E2,3.993505E1,1.4620454E0,3.5466704E0,6.723092E0,5.812112E1,6.556379E0,2.352929E0,1.0282069E1,1.1778108E1,1.341346E1,1.0631186E1,5.5326305E1,3.3935459E0,1.5941364E1,4.9536697E1,2.117693E0,4.5045176E0,6.3113866E0,4.329499E0],"tree_param":{"num_deleted":"0","num_feature":"14","num_nodes":"117","size_leaf_vector":"1"}},{"base_weights":[4.8211287E-3,-5.544987E-2,1.5535889E-2,-2.4761963E-1,-9.370452E-3,6.2122013E-2,-1.20064365E-2,4.7796974E-1,-2.8617173E-1,7.920702E-2,-9.094987E-2,1.760974E-2,1.5952572E-1,3.2380298E-2,-9.999708E-2,-8.850447E-3,3.033286E-1,-3.1586313E-1,4.467234E-1,4.5969293E-2,8.857955E-1,-5.618853E-2,-5.66417E-1,3.0135548E-2,-7.940002E-1,4.1649398E-1,1.9223806E-2,-7.52941E-1,3.8171362E-2,-9.5193344E-1,-8.246044E-2,-4.571213E-1,-1.2995422E-1,-4.1201316E-2,2.4011074E-1,9.855262E-2,-5.8115476E-1,3.2835793E-1,-8.772264E-3,-8.1071645E-2,4.279998E-1,5.87308E-1,-1.0394258E0,4.209077E-2,-5.927983E-1,-3.925207E-1,3.1802598E-1,3.122846E-1,9.925103E-1,2.2883412E-1,-9.111508E-2,5.204978E-2,-1.1268797E0,2.4595551E-1,2.1023717E-2,6.779199E-2,-1.1856408E0,-1.8613696E-1,6.329531E-3,-5.9224453E-2,-1.7849949E-1,-1.3957653E-2,-2.1974464E-1,2.1137378E-1,1.838727E-2,-2.4979632E-1,1.4996123E-1,-9.007104E-2,-1.00267315E-2,2.7032998E-1,-1.0984316E-1,2.5284383E-1,-1.6224362E-2,5.9949826E-2,-4.203796E-1,5.2116215E-3,2.3335607E-1,-2.5128302E-1,-4.6138284E-3,2.8866264E-1,-1.6517739E-1,1.4581713E-1,-1.0413251E-1,3.7160277E-1,-1.6780946E-1,4.2870604E-2,2.3817278E-1,-1.686653E-2,-2.9616567E-1,-7.0198596E-2,-4.0546674E-1,4.9997613E-2,2.6217774E-1,2.4249049E-2,-9.770018E-3,-1.0341667E-1,-3.938834E-1,-1.1414834E-1,-1.9150255E-2,6.834516E-2,-3.956304E-2],"categories":[],"categories_nodes":[],"categories_segments":[],"categories_sizes":[],"default_left":[0,0,0,0,0,0,0,0,0,0,0,0,0,0,0,0,0,0,0,0,0,0,0,0,0,0,0,0,0,0,0,0,0,0,0,0,0,0,0,0,0,0,0,0,0,0,0,0,0,0,0,0,0,0,0,0,0,0,0,0,0,0,0,0,0,0,0,0,0,0,0,0,0,0,0,0,0,0,0,0,0,0,0,0,0,0,0,0,0,0,0,0,0,0,0,0,0,0,0,0,0],"id":8,"left_children":[1,3,5,7,9,11,13,15,17,19,21,23,25,27,29,-1,-1,31,33,35,37,39,41,43,45,47,49,51,53,55,57,59,61,-1,-1,63,65,-1,-1,67,69,71,73,75,77,-1,79,81,83,85,87,-1,89,91,93,-1,95,97,99,-1,-1,-1,-1,-1,-1,-1,-1,-1,-1,-1,-1,-1,-1,-1,-1,-1,-1,-1,-1,-1,-1,-1,-1,-1,-1,-1,-1,-1,-1,-1,-1,-1,-1,-1,-1,-1,-1,-1,-1,-1,-1],"loss_changes":[1.736205E0,3.5912995E0,2.9291942E0,2.3312879E0,2.3800762E0,3.6745343E0,5.608494E0,1.2019606E0,1.775732E0,4.194314E0,2.801146E0,5.953374E0,9.578669E0,4.3706207E0,7.1146555E0,0E0,0E0,1.8518686E0,7.995824E-1,5.095138E0,1.2156506E0,1.9724948E0,6.923142E0,4.3098154E0,5.507932E0,5.3240986E0,4.02305E0,2.6333137E0,3.374965E0,2.9150648E0,4.3539705E0,1.3491755E0,1.6157508E0,0E0,0E0,3.1590815E0,3.6688867E0,0E0,0E0,1.5962855E0,3.343471E0,7.0150054E-1,4.1207085E0,1.0270501E1,1.5280018E0,0E0,2.5552125E0,9.443119E0,6.010578E0,2.7981668E0,3.5116441E0,0E0,7.162342E-1,3.4510517E0,2.8148942E0,0E0,4.2351627E-1,5.161748E0,7.856627E0,0E0,0E0,0E0,0E0,0E0,0E0,0E0,0E0,0E0,0E0,0E0,0E0,0E0,0E0,0E0,0E0,0E0,0E0,0E0,0E0,0E0,0E0,0E0,0E0,0E0,0E0,0E0,0E0,0E0,0E0,0E0,0E0,0E0,0E0,0E0,0E0,0E0,0E0,0E0,0E0,0E0,0E0],"parents":[2147483647,0,0,1,1,2,2,3,3,4,4,5,5,6,6,7,7,8,8,9,9,10,10,11,11,12,12,13,13,14,14,17,17,18,18,19,19,20,20,21,21,22,22,23,23,24,24,25,25,26,26,27,27,28,28,29,29,30,30,31,31,32,32,35,35,36,36,39,39,40,40,41,41,42,42,43,43,44,44,46,46,47,47,48,48,49,49,50,50,52,52,53,53,54,54,56,56,57,57,58,58],"right_children":[2,4,6,8,10,12,14,16,18,20,22,24,26,28,30,-1,-1,32,34,36,38,40,42,44,46,48,50,52,54,56,58,60,62,-1,-1,64,66,-1,-1,68,70,72,74,76,78,-1,80,82,84,86,88,-1,90,92,94,-1,96,98,100,-1,-1,-1,-1,-1,-1,-1,-1,-1,-1,-1,-1,-1,-1,-1,-1,-1,-1,-1,-1,-1,-1,-1,-1,-1,-1,-1,-1,-1,-1,-1,-1,-1,-1,-1,-1,-1,-1,-1,-1,-1,-1],"split_conditions":[4.259037E2,1.995796E2,5.2348486E2,1.2954604E2,3.3667514E2,1E1,8E0,8E0,1.9E1,1.9E1,1.8E1,8E0,9E0,5.246896E2,1E1,-8.850447E-3,3.033286E-1,1.2573806E2,1.59744E2,1.4E1,5.246896E2,1.6E1,1E0,1.9E1,1.3660739E2,8.4457916E2,4.6124173E2,2.721029E2,4.7455013E1,5.6083075E2,1.2E1,5E0,2.8447662E2,-4.1201316E-2,2.4011074E-1,1.5404173E2,5.5625287E2,3.2835793E-1,-8.772264E-3,1.662494E2,3.7602887E2,1.4398996E2,1.662494E2,1.5E1,1E0,-3.925207E-1,6.5383405E2,7.6627325E2,5.1585504E2,1.9E1,2.96664E2,5.204978E-2,4.7883044E2,7.753487E2,2E0,6.779199E-2,5.7017147E1,1E0,5.777769E2,-5.9224453E-2,-1.7849949E-1,-1.3957653E-2,-2.1974464E-1,2.1137378E-1,1.838727E-2,-2.4979632E-1,1.4996123E-1,-9.007104E-2,-1.00267315E-2,2.7032998E-1,-1.0984316E-1,2.5284383E-1,-1.6224362E-2,5.9949826E-2,-4.203796E-1,5.2116215E-3,2.3335607E-1,-2.5128302E-1,-4.6138284E-3,2.8866264E-1,-1.6517739E-1,1.4581713E-1,-1.0413251E-1,3.7160277E-1,-1.6780946E-1,4.2870604E-2,2.3817278E-1,-1.686653E-2,-2.9616567E-1,-7.0198596E-2,-4.0546674E-1,4.9997613E-2,2.6217774E-1,2.4249049E-2,-9.770018E-3,-1.0341667E-1,-3.938834E-1,-1.1414834E-1,-1.9150255E-2,6.834516E-2,-3.956304E-2],"split_indices":[3,0,1,2,0,5,5,5,5,5,5,5,6,1,5,0,0,4,2,5,1,5,13,6,4,2,1,0,4,1,6,5,4,0,0,3,1,0,0,3,3,4,3,6,10,0,2,0,1,5,4,0,3,3,12,0,4,13,3,0,0,0,0,0,0,0,0,0,0,0,0,0,0,0,0,0,0,0,0,0,0,0,0,0,0,0,0,0,0,0,0,0,0,0,0,0,0,0,0,0,0],"split_type":[0,0,0,0,0,0,0,0,0,0,0,0,0,0,0,0,0,0,0,0,0,0,0,0,0,0,0,0,0,0,0,0,0,0,0,0,0,0,0,0,0,0,0,0,0,0,0,0,0,0,0,0,0,0,0,0,0,0,0,0,0,0,0,0,0,0,0,0,0,0,0,0,0,0,0,0,0,0,0,0,0,0,0,0,0,0,0,0,0,0,0,0,0,0,0,0,0,0,0,0,0],"sum_hessian":[2.6861665E3,4.048262E2,2.2813403E3,7.745091E1,3.2737527E2,8.471624E2,1.4341779E3,3.3324685E0,7.411845E1,1.569696E2,1.7040569E2,5.822584E2,2.6490402E2,9.537116E2,4.8046625E2,2.1912887E0,1.1411797E0,7.1779495E1,2.3389456E0,1.5177238E2,5.197212E0,1.5983812E2,1.056757E1,5.7435706E2,7.901348E0,9.28596E1,1.720444E2,6.0368834E0,9.4767474E2,8.615983E0,4.7185028E2,3.9958897E1,3.1820602E1,1.112785E0,1.2261608E0,1.4080865E2,1.0963726E1,4.0721493E0,1.125063E0,1.528172E2,7.0209284E0,3.0024917E0,7.5650783E0,5.6445654E2,9.900506E0,5.2815914E0,2.6197567E0,7.993957E1,1.2920033E1,5.896153E1,1.1308288E2,1.8901136E0,4.1467695E0,7.1228615E1,8.764461E2,1.431944E0,7.1840386E0,2.1717145E2,2.5467882E2,1.470057E1,2.5258326E1,2.8896658E1,2.9239442E0,7.1188226E0,1.3368983E2,9.080834E0,1.8828924E0,2.6344276E1,1.26472916E2,4.3154044E0,2.705524E0,1.9225712E0,1.0799206E0,1.8108512E0,5.7542267E0,5.470998E2,1.7356762E1,6.636275E0,3.2642317E0,1.4423416E0,1.1774151E0,6.3474697E1,1.6464869E1,1.1325371E1,1.594662E0,5.2266193E1,6.695335E0,1.098675E2,3.2153819E0,1.2440944E0,2.9026752E0,6.436618E1,6.862434E0,4.1396106E2,4.6248505E2,1.4320899E0,5.751949E0,8.306214E1,1.3410931E2,9.76069E1,1.5707191E2],"tree_param":{"num_deleted":"0","num_feature":"14","num_nodes":"101","size_leaf_vector":"1"}},{"base_weights":[1.0111778E-2,1.5976306E-2,-1.8317047E-1,1.3885121E-1,9.278333E-3,-4.1562778E-1,-3.752101E-2,1.9570792E-1,-2.5251368E-1,4.6608914E-2,-1.1807229E-2,-7.2341204E-1,-2.3843693E-3,2.1134779E-1,-3.749938E-1,5.052039E-1,1.0630934E-1,-7.404812E-1,2.5676563E-2,1.7573006E-2,1.3249375E-1,-6.1633546E-2,1.6142512E-2,-2.9677033E-1,-1.0230097E0,1.0698322E0,-3.2374477E-1,7.853531E-1,3.0090068E-3,3.479522E-2,-7.9834825E-1,1.19205974E-1,7.215701E-1,6.002835E-1,4.916641E-2,-9.6688044E-1,4.1460548E-2,3.099118E-1,-3.2779917E-1,1.130183E-2,4.0083417E-1,6.711091E-1,1.0186558E-1,-6.883789E-2,5.378676E-1,1.3314407E-2,5.126136E-1,-6.073262E-1,1.2836905E-1,-1.1505066E0,-7.208724E-2,3.818911E-1,9.3366735E-2,-5.6169975E-1,2.233507E-1,1.1268319E-3,1.0394773E0,-1.942978E-1,8.1168485E-1,2.166691E-1,-1.7001484E-1,-2.0677622E-1,-1.1595049E0,1.5578689E-1,-5.4565158E-2,3.2575572E-1,1.0598496E-1,2.8639594E-2,3.3644962E-1,-4.8410576E-2,4.850874E-2,-3.2214165E-1,-9.710666E-2,-1.4442156E-1,1.9942102E-1,-2.1723835E-1,1.550768E-1,2.489349E-2,-5.6190644E-3,2.838863E-1,-4.57182E-2,-5.645288E-3,2.3168245E-1,-2.6851011E-2,4.7165167E-2,-2.5644671E-2,4.611629E-2,2.8981572E-1,-3.274683E-2,6.311357E-3,-6.895065E-2,2.913798E-1,-1.3773662E-1,-2.7927777E-1,9.647066E-2,-1.3296658E-1,-3.7566915E-1,-2.6940882E-1,3.493966E-2,1.0242789E-1,3.598858E-1,-1.1299207E-2,-3.6106285E-1,3.270717E-1,6.555515E-2,-1.3406871E-1,1.9009222E-1,4.641655E-2,-2.311034E-1,-3.7756816E-1,-1.112679E-1],"categories":[],"categories_nodes":[],"categories_segments":[],"categories_sizes":[],"default_left":[0,0,0,0,0,0,0,0,0,0,0,0,0,0,0,0,0,0,0,0,0,0,0,0,0,0,0,0,0,0,0,0,0,0,0,0,0,0,0,0,0,0,0,0,0,0,0,0,0,0,0,0,0,0,0,0,0,0,0,0,0,0,0,0,0,0,0,0,0,0,0,0,0,0,0,0,0,0,0,0,0,0,0,0,0,0,0,0,0,0,0,0,0,0,0,0,0,0,0,0,0,0,0,0,0,0,0,0,0,0,0],"id":9,"left_children":[1,3,5,7,9,11,13,15,17,19,21,23,25,27,29,31,33,35,37,39,41,43,45,47,49,51,53,55,57,59,61,63,65,67,69,71,-1,73,75,77,79,81,83,85,87,89,91,93,-1,95,-1,-1,-1,97,-1,-1,99,101,103,-1,105,107,109,-1,-1,-1,-1,-1,-1,-1,-1,-1,-1,-1,-1,-1,-1,-1,-1,-1,-1,-1,-1,-1,-1,-1,-1,-1,-1,-1,-1,-1,-1,-1,-1,-1,-1,-1,-1,-1,-1,-1,-1,-1,-1,-1,-1,-1,-1,-1,-1],"loss_changes":[3.0238037E0,2.128261E0,2.644295E0,3.0241084E0,1.9328295E0,3.8347454E0,4.2280574E0,3.1915088E0,2.3802547E0,2.2078288E0,2.1867883E0,1.9056883E0,5.128646E0,3.4741874E0,3.7277677E0,2.0870814E0,2.574985E0,1.3967226E0,1.3117503E0,1.5902044E0,3.6232088E0,2.4739852E0,1.4060926E0,2.1815631E0,6.960678E-1,1.3283372E-1,3.327763E0,1.5330038E0,3.7211554E0,1.7835236E0,2.0103607E0,1.3646045E0,1.8267813E0,2.3867223E0,2.0112293E0,8.228302E-3,0E0,2.3389244E0,2.3343518E0,1.4090316E0,3.358837E0,8.424115E-1,2.2693784E0,2.0817475E0,1.9931144E0,1.885847E0,2.9743967E0,2.2203383E0,0E0,2.8928757E-2,0E0,0E0,0E0,2.369729E0,0E0,0E0,2.4276972E-1,2.9202676E0,5.1743364E-1,0E0,2.4855037E0,1.1804916E0,2.709198E-2,0E0,0E0,0E0,0E0,0E0,0E0,0E0,0E0,0E0,0E0,0E0,0E0,0E0,0E0,0E0,0E0,0E0,0E0,0E0,0E0,0E0,0E0,0E0,0E0,0E0,0E0,0E0,0E0,0E0,0E0,0E0,0E0,0E0,0E0,0E0,0E0,0E0,0E0,0E0,0E0,0E0,0E0,0E0,0E0,0E0,0E0,0E0,0E0],"parents":[2147483647,0,0,1,1,2,2,3,3,4,4,5,5,6,6,7,7,8,8,9,9,10,10,11,11,12,12,13,13,14,14,15,15,16,16,17,17,18,18,19,19,20,20,21,21,22,22,23,23,24,24,25,25,26,26,27,27,28,28,29,29,30,30,31,31,32,32,33,33,34,34,35,35,37,37,38,38,39,39,40,40,41,41,42,42,43,43,44,44,45,45,46,46,47,47,49,49,53,53,56,56,57,57,58,58,60,60,61,61,62,62],"right_children":[2,4,6,8,10,12,14,16,18,20,22,24,26,28,30,32,34,36,38,40,42,44,46,48,50,52,54,56,58,60,62,64,66,68,70,72,-1,74,76,78,80,82,84,86,88,90,92,94,-1,96,-1,-1,-1,98,-1,-1,100,102,104,-1,106,108,110,-1,-1,-1,-1,-1,-1,-1,-1,-1,-1,-1,-1,-1,-1,-1,-1,-1,-1,-1,-1,-1,-1,-1,-1,-1,-1,-1,-1,-1,-1,-1,-1,-1,-1,-1,-1,-1,-1,-1,-1,-1,-1,-1,-1,-1,-1,-1,-1],"split_conditions":[1.9E1,4E0,1.2E1,1.4E1,5.0469144E2,6.148016E2,2E0,1.5018666E2,1.6E1,4.8107922E2,2.8816565E2,2.0126619E2,6.6893304E2,4.5377255E2,6.252424E2,4.8003513E2,3.500072E2,1E0,4.018899E2,7.011388E2,4.2750995E2,1.7E1,2.3E1,1E0,2E0,6.5913477E2,7.4507043E2,1.8367749E2,7.5382465E2,1.7E1,8.384941E1,1.7182335E2,1E0,3.8936093E2,5.51675E2,6.8957367E2,4.1460548E-2,9.3003296E1,8.777487E2,9.135385E1,8.625694E2,8.8997536E1,4.944113E2,1.6E1,1.6E1,1.8E1,7.962303E2,6.026742E2,1.2836905E-1,1.8946008E2,-7.208724E-2,3.818911E-1,9.3366735E-2,2E0,2.233507E-1,1.1268319E-3,1.6986353E2,7.231448E2,2.3E1,2.166691E-1,7.910099E2,7.378422E2,8.6473785E2,1.5578689E-1,-5.4565158E-2,3.2575572E-1,1.0598496E-1,2.8639594E-2,3.3644962E-1,-4.8410576E-2,4.850874E-2,-3.2214165E-1,-9.710666E-2,-1.4442156E-1,1.9942102E-1,-2.1723835E-1,1.550768E-1,2.489349E-2,-5.6190644E-3,2.838863E-1,-4.57182E-2,-5.645288E-3,2.3168245E-1,-2.6851011E-2,4.7165167E-2,-2.5644671E-2,4.611629E-2,2.8981572E-1,-3.274683E-2,6.311357E-3,-6.895065E-2,2.913798E-1,-1.3773662E-1,-2.7927777E-1,9.647066E-2,-1.3296658E-1,-3.7566915E-1,-2.6940882E-1,3.493966E-2,1.0242789E-1,3.598858E-1,-1.1299207E-2,-3.6106285E-1,3.270717E-1,6.555515E-2,-1.3406871E-1,1.9009222E-1,4.641655E-2,-2.311034E-1,-3.7756816E-1,-1.112679E-1],"split_indices":[6,6,5,5,3,0,13,2,5,3,2,2,0,1,2,3,3,9,2,1,1,6,5,10,13,3,3,3,1,5,4,4,10,0,2,0,0,2,2,4,2,4,1,5,5,5,2,3,0,0,0,0,0,13,0,0,2,1,5,0,1,0,0,0,0,0,0,0,0,0,0,0,0,0,0,0,0,0,0,0,0,0,0,0,0,0,0,0,0,0,0,0,0,0,0,0,0,0,0,0,0,0,0,0,0,0,0,0,0,0,0],"split_type":[0,0,0,0,0,0,0,0,0,0,0,0,0,0,0,0,0,0,0,0,0,0,0,0,0,0,0,0,0,0,0,0,0,0,0,0,0,0,0,0,0,0,0,0,0,0,0,0,0,0,0,0,0,0,0,0,0,0,0,0,0,0,0,0,0,0,0,0,0,0,0,0,0,0,0,0,0,0,0,0,0,0,0,0,0,0,0,0,0,0,0,0,0,0,0,0,0,0,0,0,0,0,0,0,0,0,0,0,0,0,0],"sum_hessian":[2.664067E3,2.586505E3,7.756183E1,1.3268353E2,2.4538215E3,2.9163347E1,4.839848E1,1.162892E2,1.6394331E1,8.8528064E2,1.5685408E3,1.6284248E1,1.28791E1,2.807117E1,2.0327307E1,2.5019857E1,9.126934E1,5.3493576E0,1.1044973E1,6.625056E2,2.2277502E2,5.632405E2,1.0053003E3,7.538961E0,8.745287E0,2.4328482E0,1.0446252E1,6.7378273E0,2.1333344E1,1.0795518E1,9.53179E0,9.5441E0,1.5475758E1,8.477794E0,8.279155E1,4.173619E0,1.1757388E0,6.1904125E0,4.854561E0,6.528527E2,9.652924E0,1.086127E1,2.1191374E2,5.5742694E2,5.8135476E0,1.00062714E3,4.6731663E0,5.3907013E0,2.1482596E0,7.116239E0,1.6290479E0,1.384169E0,1.0486791E0,8.931027E0,1.5152249E0,1.9021772E0,4.83565E0,1.7759886E1,3.5734572E0,1.8981447E0,8.897373E0,4.209386E0,5.3224044E0,3.787125E0,5.756975E0,6.8006587E0,8.675099E0,4.907672E0,3.5701218E0,2.8686674E1,5.4104874E1,3.0046296E0,1.1689893E0,1.806E0,4.3844123E0,3.4014308E0,1.45313E0,1.9225093E2,4.6060178E2,4.50286E0,5.1500635E0,1.4930443E0,9.368226E0,4.740432E1,1.6450943E2,5.192128E2,3.8214077E1,3.201681E0,2.611867E0,9.707069E2,2.99202E1,3.1750488E0,1.4981174E0,3.9963164E0,1.3943849E0,1.5683855E0,5.5478535E0,5.7534523E0,3.1775746E0,1.4867967E0,3.348853E0,1.6271833E1,1.4880526E0,1.86136E0,1.7120973E0,6.9476447E0,1.9497281E0,3.0064042E0,1.2029817E0,4.1990533E0,1.123351E0],"tree_param":{"num_deleted":"0","num_feature":"14","num_nodes":"111","size_leaf_vector":"1"}},{"base_weights":[-1.6781608E-2,-6.2489863E-3,-1.0423368E-1,-1.2943894E-2,1.3124847E-1,-4.017918E-1,-3.723252E-2,4.1729856E-1,-1.47165675E-2,-1.0398841E-1,5.79152E-1,-5.57407E-1,-1.3640967E-2,5.5937063E-2,-2.6313183E-1,-4.3401733E-1,8.333266E-1,-1.5066677E-1,-9.875153E-3,-1.55176725E-2,-9.787884E-1,6.6793776E-1,-2.6020628E-1,9.749513E-2,-6.065384E-1,1.0663465E0,-2.5438663E-1,1.7129074E-1,-4.4242427E-2,-4.6826344E-2,-6.3897854E-1,-2.2390693E-2,-1.910637E-1,2.887516E-1,3.9970674E-2,-1.8320988E-1,3.0087405E-1,1.1110865E-2,-4.614343E-2,-3.601557E-1,2.185763E-1,7.74379E-2,-4.3293136E-1,8.03146E-2,8.0519456E-1,1.2054231E-1,-1.9831418E-1,-8.892739E-1,-4.2224807E-1,3.9653677E-1,9.26301E-2,5.175839E-1,-5.9451026E-1,-6.945224E-3,4.8216015E-1,1.7079163E-1,-3.7320057E-1,-1.3835362E-1,8.8471496E-1,-7.591772E-1,-1.0738064E-1,-6.1188933E-2,1.4982246E-1,-3.990777E-2,2.4764723E-1,-1.3554969E-3,4.3218337E-2,-1.0911408E-1,-1.0246451E-2,2.0611465E-1,-1.385534E-1,2.806055E-1,1.07666245E-2,-2.2385864E-1,1.0298491E-1,2.892561E-2,2.788261E-1,-3.1374604E-1,-1.174415E-1,1.2841758E-1,-1.8687259E-1,3.07205E-1,-2.0790954E-1,-2.1338624E-1,6.260501E-2,-5.4969255E-2,1.3222843E-1,5.049805E-2,3.1159106E-1,1.3931865E-2,2.926367E-1,4.703794E-2,-1.4136964E-1,-1.0470969E-1,7.379293E-2,3.7244517E-1,-2.2620896E-2,-5.1062793E-2,-2.8717884E-1,-2.9804575E-1,1.3721381E-1],"categories":[],"categories_nodes":[],"categories_segments":[],"categories_sizes":[],"default_left":[0,0,0,0,0,0,0,0,0,0,0,0,0,0,0,0,0,0,0,0,0,0,0,0,0,0,0,0,0,0,0,0,0,0,0,0,0,0,0,0,0,0,0,0,0,0,0,0,0,0,0,0,0,0,0,0,0,0,0,0,0,0,0,0,0,0,0,0,0,0,0,0,0,0,0,0,0,0,0,0,0,0,0,0,0,0,0,0,0,0,0,0,0,0,0,0,0,0,0,0,0],"id":10,"left_children":[1,3,5,7,9,11,13,15,17,19,21,23,25,27,29,31,33,35,37,39,41,43,45,-1,47,49,51,53,55,57,59,-1,-1,-1,-1,61,63,65,67,69,71,-1,-1,73,75,-1,-1,77,79,-1,-1,81,83,85,87,89,91,93,95,97,99,-1,-1,-1,-1,-1,-1,-1,-1,-1,-1,-1,-1,-1,-1,-1,-1,-1,-1,-1,-1,-1,-1,-1,-1,-1,-1,-1,-1,-1,-1,-1,-1,-1,-1,-1,-1,-1,-1,-1,-1],"loss_changes":[2.4458122E0,2.1848211E0,5.675763E0,1.7316141E0,1.1671635E1,3.1549215E0,4.9414134E0,3.661572E0,1.4821184E0,5.642564E0,3.013156E0,1.8163061E0,4.4336047E0,1.9322784E0,5.541258E0,2.2338629E-1,4.6874666E-1,1.1930773E0,1.6579611E0,5.516807E0,4.2192807E0,2.7369776E0,1.4237367E0,0E0,1.4861221E0,1.9385886E-1,3.956876E0,4.304066E0,6.425435E0,3.9229124E0,1.5129318E0,0E0,0E0,0E0,0E0,1.1339779E0,1.3810179E0,2.868664E0,3.027192E0,3.2609532E0,5.3041024E0,0E0,0E0,1.9271357E0,2.3799572E0,0E0,0E0,6.1880875E-1,4.2820196E0,0E0,0E0,3.6434593E0,1.0969727E0,4.052185E0,4.7674165E0,5.4651213E0,1.9372373E0,3.4422054E0,1.5059211E0,2.192194E0,3.3401306E0,0E0,0E0,0E0,0E0,0E0,0E0,0E0,0E0,0E0,0E0,0E0,0E0,0E0,0E0,0E0,0E0,0E0,0E0,0E0,0E0,0E0,0E0,0E0,0E0,0E0,0E0,0E0,0E0,0E0,0E0,0E0,0E0,0E0,0E0,0E0,0E0,0E0,0E0,0E0,0E0],"parents":[2147483647,0,0,1,1,2,2,3,3,4,4,5,5,6,6,7,7,8,8,9,9,10,10,11,11,12,12,13,13,14,14,15,15,16,16,17,17,18,18,19,19,20,20,21,21,22,22,24,24,25,25,26,26,27,27,28,28,29,29,30,30,35,35,36,36,37,37,38,38,39,39,40,40,43,43,44,44,47,47,48,48,51,51,52,52,53,53,54,54,55,55,56,56,57,57,58,58,59,59,60,60],"right_children":[2,4,6,8,10,12,14,16,18,20,22,24,26,28,30,32,34,36,38,40,42,44,46,-1,48,50,52,54,56,58,60,-1,-1,-1,-1,62,64,66,68,70,72,-1,-1,74,76,-1,-1,78,80,-1,-1,82,84,86,88,90,92,94,96,98,100,-1,-1,-1,-1,-1,-1,-1,-1,-1,-1,-1,-1,-1,-1,-1,-1,-1,-1,-1,-1,-1,-1,-1,-1,-1,-1,-1,-1,-1,-1,-1,-1,-1,-1,-1,-1,-1,-1,-1,-1],"split_conditions":[1.4E1,1.5E1,1.6E1,4.2084393E1,2E0,6.388957E2,1.8827638E2,6E0,5.541647E1,8.804794E2,7.910099E2,5.991404E1,4.6742587E2,9E0,6.110268E2,1.606646E2,2E0,3.5241663E2,6.6973615E2,2.9868674E2,1E0,4.013277E2,1.8E1,9.749513E-2,2.6599905E2,2.8983908E2,5E0,5E0,2E0,5.934381E2,2.8737448E2,-2.2390693E-2,-1.910637E-1,2.887516E-1,3.9970674E-2,5.548072E2,8E0,6.217889E2,5.9480347E2,6.4090355E1,3.7024628E2,7.74379E-2,-4.3293136E-1,7.166329E1,1.2352251E2,1.2054231E-1,-1.9831418E-1,5.4605304E2,7.166329E1,3.9653677E-1,9.26301E-2,1E0,8.432941E2,7.231448E2,2E0,1.6589824E2,1.994993E2,7.093308E2,6.038789E2,5E0,5E0,-6.1188933E-2,1.4982246E-1,-3.990777E-2,2.4764723E-1,-1.3554969E-3,4.3218337E-2,-1.0911408E-1,-1.0246451E-2,2.0611465E-1,-1.385534E-1,2.806055E-1,1.07666245E-2,-2.2385864E-1,1.0298491E-1,2.892561E-2,2.788261E-1,-3.1374604E-1,-1.174415E-1,1.2841758E-1,-1.8687259E-1,3.07205E-1,-2.0790954E-1,-2.1338624E-1,6.260501E-2,-5.4969255E-2,1.3222843E-1,5.049805E-2,3.1159106E-1,1.3931865E-2,2.926367E-1,4.703794E-2,-1.4136964E-1,-1.0470969E-1,7.379293E-2,3.7244517E-1,-2.2620896E-2,-5.1062793E-2,-2.8717884E-1,-2.9804575E-1,1.3721381E-1],"split_indices":[5,6,5,0,13,3,4,5,0,0,1,0,1,6,3,4,13,2,2,0,10,1,6,0,0,4,6,6,13,3,4,0,0,0,0,1,5,2,0,2,2,0,0,4,0,0,0,1,4,0,0,10,3,0,13,4,2,2,3,6,6,0,0,0,0,0,0,0,0,0,0,0,0,0,0,0,0,0,0,0,0,0,0,0,0,0,0,0,0,0,0,0,0,0,0,0,0,0,0,0,0],"split_type":[0,0,0,0,0,0,0,0,0,0,0,0,0,0,0,0,0,0,0,0,0,0,0,0,0,0,0,0,0,0,0,0,0,0,0,0,0,0,0,0,0,0,0,0,0,0,0,0,0,0,0,0,0,0,0,0,0,0,0,0,0,0,0,0,0,0,0,0,0,0,0,0,0,0,0,0,0,0,0,0,0,0,0,0,0,0,0,0,0,0,0,0,0,0,0,0,0,0,0,0,0],"sum_hessian":[2.655025E3,2.370586E3,2.8443903E2,2.2613826E3,1.09203415E2,5.135778E1,2.3308125E2,8.317227E0,2.2530652E3,7.210306E1,3.710036E1,3.634892E1,1.5008861E1,1.6555315E2,6.752812E1,2.7160823E0,5.6011453E0,7.6440605E1,2.1766248E3,6.640508E1,5.6979756E0,3.3736053E1,3.3643079E0,1.6210244E0,3.4727894E1,2.1107347E0,1.2898126E1,7.661892E1,8.893423E1,4.357477E1,2.395335E1,1.4735365E0,1.2425457E0,4.4121914E0,1.1889539E0,7.18561E1,4.5845017E0,1.3792429E3,7.973817E2,2.6642672E1,3.976241E1,1.6763464E0,4.0216293E0,6.6881065E0,2.7047947E1,1.2678922E0,2.0964155E0,1.2194257E1,2.2533638E1,1.021537E0,1.0891978E0,3.7851987E0,9.112927E0,4.931944E1,2.7299479E1,5.4070267E1,3.4863956E1,4.045172E1,3.123048E0,1.9186924E1,4.7664256E0,7.041648E1,1.4396238E0,2.9177341E0,1.6667676E0,1.2350237E3,1.4421924E2,2.7939665E1,7.69442E2,1.8486526E0,2.479402E1,7.2392464E0,3.2523163E1,1.1707748E0,5.517332E0,4.298545E0,2.2749403E1,8.439402E0,3.7548544E0,4.085963E0,1.8447676E1,2.7774522E0,1.0077465E0,8.056072E0,1.0568552E0,3.5809925E1,1.3509513E1,1.828811E1,9.011368E0,4.7748905E1,6.321362E0,5.3485208E0,2.9515436E1,2.6188036E1,1.4263685E1,2.063297E0,1.059751E0,5.296906E0,1.3890018E1,1.5598696E0,3.2065558E0],"tree_param":{"num_deleted":"0","num_feature":"14","num_nodes":"101","size_leaf_vector":"1"}},{"base_weights":[-1.0766726E-3,-1.1686944E-2,1.1121182E-1,-1.4794152E-3,-1.23672105E-1,8.530557E-2,8.8231826E-1,-6.8747014E-2,1.7030098E-2,-1.4026149E-1,6.399293E-1,5.835587E-1,6.885727E-2,4.3213966E-1,2.3742387E-1,-2.6415443E-2,-1.2889102E-1,-1.04517706E-1,2.4275437E-2,-6.596377E-2,-3.123753E-1,6.586108E-2,2.4730705E-1,-1.2034347E-2,7.5141406E-1,1.7638041E-1,-6.4048916E-4,1.5946497E-1,-7.725919E-2,-1.952049E-1,1.6430538E-2,-9.6474934E-1,-1.107011E-1,-3.0444515E-1,5.4706197E-2,1.4415021E-1,1.6964559E-2,-1.1426103E-1,1.7638223E-1,-6.721301E-1,-8.482622E-2,3.1776893E-1,3.0084508E-2,2.1829844E-1,-5.803936E-1,-6.494915E-1,2.9037492E-2,2.1342846E-2,-1.00384876E-1,-4.282187E-2,1.8450929E-2,-3.6657208E-1,-6.2187392E-2,-2.588729E-2,-1.7234865E-1,-1.2980925E-1,1.12716645E-1,-1.3888867E-1,4.2237937E-2,5.8249526E-2,-1.1342205E-1,3.02591E-2,1.9687694E-3,-4.221966E-2,2.9880404E-1,-6.408856E-2,1.1801935E-1,-7.8218915E-2,-2.7677098E-1,4.7409635E-2,-9.937788E-2,1.0000059E-1,-1.154544E-2,-3.4787568E-1,-1.431603E-2,-2.176552E-2,-3.7161112E-1,2.026927E-2,-9.5690966E-2],"categories":[],"categories_nodes":[],"categories_segments":[],"categories_sizes":[],"default_left":[0,0,0,0,0,0,0,0,0,0,0,0,0,0,0,0,0,0,0,0,0,0,0,0,0,0,0,0,0,0,0,0,0,0,0,0,0,0,0,0,0,0,0,0,0,0,0,0,0,0,0,0,0,0,0,0,0,0,0,0,0,0,0,0,0,0,0,0,0,0,0,0,0,0,0,0,0,0,0],"id":11,"left_children":[1,3,5,7,9,11,13,15,17,19,21,23,25,-1,27,29,31,33,35,37,39,-1,-1,-1,41,43,45,-1,-1,47,49,51,53,55,57,59,61,63,65,67,69,-1,-1,71,73,75,77,-1,-1,-1,-1,-1,-1,-1,-1,-1,-1,-1,-1,-1,-1,-1,-1,-1,-1,-1,-1,-1,-1,-1,-1,-1,-1,-1,-1,-1,-1,-1,-1],"loss_changes":[3.148911E0,2.760083E0,4.4829845E0,2.7578397E0,2.6449068E0,1.7781445E0,2.289133E0,1.2134659E0,1.532301E0,2.5143893E0,1.6549051E-1,7.584021E-1,1.6135601E0,0E0,8.0491054E-1,2.0409904E0,2.891175E0,3.1334057E0,1.4349799E0,1.6556771E0,4.814146E0,0E0,0E0,0E0,1.0025487E0,2.8158405E0,2.5634966E0,0E0,0E0,2.1449099E0,1.627649E0,5.394943E-1,2.1480079E0,3.9623208E0,2.5318332E0,2.5324183E0,1.34945E0,3.5823526E0,2.082612E0,2.1199465E0,2.3023007E0,0E0,0E0,2.4069638E0,1.4016137E0,1.8894603E0,1.7286198E0,0E0,0E0,0E0,0E0,0E0,0E0,0E0,0E0,0E0,0E0,0E0,0E0,0E0,0E0,0E0,0E0,0E0,0E0,0E0,0E0,0E0,0E0,0E0,0E0,0E0,0E0,0E0,0E0,0E0,0E0,0E0,0E0],"parents":[2147483647,0,0,1,1,2,2,3,3,4,4,5,5,6,6,7,7,8,8,9,9,10,10,11,11,12,12,14,14,15,15,16,16,17,17,18,18,19,19,20,20,24,24,25,25,26,26,29,29,30,30,31,31,32,32,33,33,34,34,35,35,36,36,37,37,38,38,39,39,40,40,43,43,44,44,45,45,46,46],"right_children":[2,4,6,8,10,12,14,16,18,20,22,24,26,-1,28,30,32,34,36,38,40,-1,-1,-1,42,44,46,-1,-1,48,50,52,54,56,58,60,62,64,66,68,70,-1,-1,72,74,76,78,-1,-1,-1,-1,-1,-1,-1,-1,-1,-1,-1,-1,-1,-1,-1,-1,-1,-1,-1,-1,-1,-1,-1,-1,-1,-1,-1,-1,-1,-1,-1,-1],"split_conditions":[7.8538794E2,7.615347E2,3.2853732E2,4.4180582E2,8.826478E2,1.8415938E2,2E0,4.1385663E2,4.294375E2,7.542262E2,3.1089853E2,7.8884143E2,5E0,4.3213966E-1,8E0,2.1499985E2,4.178723E2,6E0,4.552182E2,1E0,8.374312E2,6.586108E-2,2.4730705E-1,-1.2034347E-2,8E0,8.165496E2,1.3589082E2,1.5946497E-1,-7.725919E-2,1.3878212E2,1.9235138E2,1E0,1.8E1,6E0,1.5572832E2,1.4E1,4.7497537E2,2.3E1,1.5323859E2,6.433129E2,1E0,3.1776893E-1,3.0084508E-2,6.837911E2,8.279542E2,1.2488784E2,2.516019E2,2.1342846E-2,-1.00384876E-1,-4.282187E-2,1.8450929E-2,-3.6657208E-1,-6.2187392E-2,-2.588729E-2,-1.7234865E-1,-1.2980925E-1,1.12716645E-1,-1.3888867E-1,4.2237937E-2,5.8249526E-2,-1.1342205E-1,3.02591E-2,1.9687694E-3,-4.221966E-2,2.9880404E-1,-6.408856E-2,1.1801935E-1,-7.8218915E-2,-2.7677098E-1,4.7409635E-2,-9.937788E-2,1.0000059E-1,-1.154544E-2,-3.4787568E-1,-1.431603E-2,-2.176552E-2,-3.7161112E-1,2.026927E-2,-9.5690966E-2],"split_indices":[3,1,4,1,2,2,12,3,3,2,4,3,5,0,5,3,3,5,3,7,2,0,0,0,5,2,0,0,0,3,2,7,5,6,0,5,1,5,2,0,10,0,0,0,2,0,4,0,0,0,0,0,0,0,0,0,0,0,0,0,0,0,0,0,0,0,0,0,0,0,0,0,0,0,0,0,0,0,0],"split_type":[0,0,0,0,0,0,0,0,0,0,0,0,0,0,0,0,0,0,0,0,0,0,0,0,0,0,0,0,0,0,0,0,0,0,0,0,0,0,0,0,0,0,0,0,0,0,0,0,0,0,0,0,0,0,0,0,0,0,0,0,0,0,0,0,0,0,0,0,0,0,0,0,0,0,0,0,0,0,0],"sum_hessian":[2.640918E3,2.413737E3,2.2718094E2,2.2130308E3,2.0070618E2,2.2087112E2,6.3098035E0,4.7695572E2,1.7360751E3,1.9723747E2,3.4687064E0,5.9565496E0,2.1491458E2,2.7210915E0,3.5887122E0,2.8077505E2,1.9618066E2,9.690872E1,1.6391664E3,1.3873283E2,5.850463E1,1.7256202E0,1.7430862E0,1.4245596E0,4.53199E0,8.377089E1,1.3114369E2,2.2046597E0,1.3840526E0,5.6123516E1,2.2465155E2,3.0700276E0,1.9311064E2,4.2558563E1,5.4350163E1,9.3146576E1,1.5460198E3,1.1611978E2,2.261305E1,2.1910454E1,3.659418E1,2.6516848E0,1.8803054E0,8.0048515E1,3.7223787E0,4.822589E0,1.263211E2,1.9451258E1,3.6672256E1,4.9098225E1,1.7555331E2,1.8341608E0,1.2358668E0,1.845819E2,8.528743E0,3.611294E1,6.4456196E0,7.125341E0,4.7224823E1,8.557865E1,7.5679193E0,1.6957625E2,1.3764435E3,1.1426863E2,1.8511482E0,8.089882E0,1.4523169E1,9.063244E0,1.284721E1,1.861145E1,1.7982729E1,5.5076538E1,2.4971973E1,1.2194824E0,2.5028963E0,3.0041473E0,1.8184419E0,1.1445592E2,1.186518E1],"tree_param":{"num_deleted":"0","num_feature":"14","num_nodes":"79","size_leaf_vector":"1"}},{"base_weights":[-5.946918E-3,-1.2568374E-2,1.5499054E-1,-8.328772E-3,-3.5441983E-1,2.3814434E-1,-2.0291461E-1,2.8652921E-2,-2.6348092E-2,-4.8990092E-1,3.0884078E-1,4.1158292E-1,1.9584138E-2,-3.279418E-1,-2.7301358E-2,5.5609033E-2,-1.569676E-1,-3.372015E-2,1.265783E-1,1.762829E-1,-8.1362534E-1,8.7785415E-2,6.070898E-1,-1.5978311E-1,3.436658E-1,-3.6367968E-1,3.1955245E-1,6.8326056E-2,-2.3796189E-1,-3.0429903E-2,-6.941829E-1,-1.02809165E-2,-8.031466E-2,1.738862E-1,-3.6563843E-1,-2.4089135E-1,8.8037544E-1,-9.4372463E-1,1.9054112E-1,-5.506604E-1,2.818603E-1,7.598848E-1,-1.8519941E-1,-4.43217E-1,2.094747E-1,-1.5168503E-1,1.0985949E0,-3.256417E-1,7.7632904E-2,7.997445E-1,-5.460359E-2,1.4551809E-2,9.339808E-2,-2.9219672E-1,-2.5006188E-2,-5.3762976E-2,1.3571706E-1,-3.545129E-1,-8.513293E-2,4.851005E-3,-3.6377244E-2,-8.051956E-2,-2.0176437E-2,3.093237E-2,2.23298E-1,-3.080395E-1,6.8476856E-2,-2.6788828E-1,1.036979E-1,3.536717E-1,1.5608531E-2,-3.4528822E-1,-1.2402273E-1,-3.0458504E-1,7.5465485E-2,2.6690885E-1,-5.9826642E-2,1.7027833E-1,3.4712532E-1,-1.8852484E-1,9.6863076E-2,2.711871E-2,-2.0887615E-1,1.8448868E-1,-1.0489718E-1,-1.511692E-1,2.4901909E-1,4.3987593E-1,-2.704984E-3,-9.518957E-2,2.4940337E-1,7.9899155E-2,3.2420567E-1,-2.2039123E-1,1.664425E-1],"categories":[],"categories_nodes":[],"categories_segments":[],"categories_sizes":[],"default_left":[0,0,0,0,0,0,0,0,0,0,0,0,0,0,0,0,0,0,0,0,0,0,0,0,0,0,0,0,0,0,0,0,0,0,0,0,0,0,0,0,0,0,0,0,0,0,0,0,0,0,0,0,0,0,0,0,0,0,0,0,0,0,0,0,0,0,0,0,0,0,0,0,0,0,0,0,0,0,0,0,0,0,0,0,0,0,0,0,0,0,0,0,0,0,0],"id":12,"left_children":[1,3,5,7,9,11,13,15,17,19,-1,21,23,-1,25,27,29,31,33,35,37,39,41,43,45,47,49,51,53,55,57,59,61,63,65,67,69,71,-1,73,75,77,79,81,83,85,87,-1,89,91,93,-1,-1,-1,-1,-1,-1,-1,-1,-1,-1,-1,-1,-1,-1,-1,-1,-1,-1,-1,-1,-1,-1,-1,-1,-1,-1,-1,-1,-1,-1,-1,-1,-1,-1,-1,-1,-1,-1,-1,-1,-1,-1,-1,-1],"loss_changes":[2.8355143E0,3.699864E0,3.1777778E0,1.6831114E0,6.3677497E0,3.243876E0,3.153849E0,4.1496334E0,1.918583E0,6.432508E0,0E0,2.9714823E0,2.322344E0,0E0,2.220405E0,2.7168858E0,7.130477E0,1.7692225E0,1.8868866E0,3.254705E0,4.331999E0,2.5289643E0,3.7269E0,2.7922368E0,5.482214E0,3.149653E0,1.7345881E0,3.3279848E0,3.3620043E0,6.2727537E0,3.6684113E0,3.170567E0,1.3139846E0,2.8348162E0,3.0568516E0,3.0968027E0,9.4482946E-1,1.5654583E0,0E0,2.0461755E0,4.6688375E0,1.2549963E0,1.4624648E0,2.0764997E0,2.90832E0,3.6899006E0,2.3559647E0,0E0,2.319232E0,3.394227E-1,2.9876993E0,0E0,0E0,0E0,0E0,0E0,0E0,0E0,0E0,0E0,0E0,0E0,0E0,0E0,0E0,0E0,0E0,0E0,0E0,0E0,0E0,0E0,0E0,0E0,0E0,0E0,0E0,0E0,0E0,0E0,0E0,0E0,0E0,0E0,0E0,0E0,0E0,0E0,0E0,0E0,0E0,0E0,0E0,0E0,0E0],"parents":[2147483647,0,0,1,1,2,2,3,3,4,4,5,5,6,6,7,7,8,8,9,9,11,11,12,12,14,14,15,15,16,16,17,17,18,18,19,19,20,20,21,21,22,22,23,23,24,24,25,25,26,26,27,27,28,28,29,29,30,30,31,31,32,32,33,33,34,34,35,35,36,36,37,37,39,39,40,40,41,41,42,42,43,43,44,44,45,45,46,46,48,48,49,49,50,50],"right_children":[2,4,6,8,10,12,14,16,18,20,-1,22,24,-1,26,28,30,32,34,36,38,40,42,44,46,48,50,52,54,56,58,60,62,64,66,68,70,72,-1,74,76,78,80,82,84,86,88,-1,90,92,94,-1,-1,-1,-1,-1,-1,-1,-1,-1,-1,-1,-1,-1,-1,-1,-1,-1,-1,-1,-1,-1,-1,-1,-1,-1,-1,-1,-1,-1,-1,-1,-1,-1,-1,-1,-1,-1,-1,-1,-1,-1,-1,-1,-1],"split_conditions":[1.9E1,1.8E1,7.962303E2,1E0,8.767849E2,5.740022E2,5.4092354E1,1.3E1,3.030253E2,2.3202635E2,3.0884078E-1,6E0,7.5382465E2,-3.279418E-1,8.625694E2,8.432941E2,8.570278E2,3.4189554E2,1.4E1,1.631975E2,8.826478E2,1.0207874E2,2.3E1,1.5641281E2,6.1825507E2,7.751078E2,8.2538416E2,7.753487E2,4.5296942E2,7.227432E2,1E0,1.2E1,3.551473E2,1.3E1,2E0,1.4464502E2,2E0,1E0,1.9054112E-1,4.909578E2,2.3122322E2,5.2051324E2,3.2342337E2,7.4185585E1,2.2216031E2,2.3E1,8.0916077E2,-3.256417E-1,7.161575E2,1E0,1.3E1,1.4551809E-2,9.339808E-2,-2.9219672E-1,-2.5006188E-2,-5.3762976E-2,1.3571706E-1,-3.545129E-1,-8.513293E-2,4.851005E-3,-3.6377244E-2,-8.051956E-2,-2.0176437E-2,3.093237E-2,2.23298E-1,-3.080395E-1,6.8476856E-2,-2.6788828E-1,1.036979E-1,3.536717E-1,1.5608531E-2,-3.4528822E-1,-1.2402273E-1,-3.0458504E-1,7.5465485E-2,2.6690885E-1,-5.9826642E-2,1.7027833E-1,3.4712532E-1,-1.8852484E-1,9.6863076E-2,2.711871E-2,-2.0887615E-1,1.8448868E-1,-1.0489718E-1,-1.511692E-1,2.4901909E-1,4.3987593E-1,-2.704984E-3,-9.518957E-2,2.4940337E-1,7.9899155E-2,3.2420567E-1,-2.2039123E-1,1.664425E-1],"split_indices":[5,5,2,13,0,3,4,5,4,0,0,6,1,0,2,3,0,2,5,0,2,2,6,4,0,0,0,3,0,3,10,5,2,5,12,2,13,10,0,3,2,3,2,4,4,6,1,0,3,10,6,0,0,0,0,0,0,0,0,0,0,0,0,0,0,0,0,0,0,0,0,0,0,0,0,0,0,0,0,0,0,0,0,0,0,0,0,0,0,0,0,0,0,0,0],"split_type":[0,0,0,0,0,0,0,0,0,0,0,0,0,0,0,0,0,0,0,0,0,0,0,0,0,0,0,0,0,0,0,0,0,0,0,0,0,0,0,0,0,0,0,0,0,0,0,0,0,0,0,0,0,0,0,0,0,0,0,0,0,0,0,0,0,0,0,0,0,0,0,0,0,0,0,0,0,0,0,0,0,0,0,0,0,0,0,0,0,0,0,0,0,0,0],"sum_hessian":[2.6580269E3,2.5538748E3,1.0415227E2,2.5236016E3,3.0273054E1,8.478774E1,1.9364523E1,8.2658386E2,1.6970177E3,2.8162022E1,2.1110318E0,4.6781277E1,3.800647E1,2.3297546E0,1.703477E1,7.223792E2,1.0420466E2,1.6197163E3,7.730147E1,9.35862E0,1.8803402E1,1.8157661E1,2.8623615E1,2.4791985E1,1.3214483E1,8.623348E0,8.41142E0,6.931215E2,2.9257662E1,8.519431E1,1.9010344E1,1.0784338E3,5.412824E2,7.111336E1,6.1881113E0,6.289793E0,3.0688274E0,1.7573862E1,1.2295389E0,3.8045428E0,1.4353119E1,2.4030226E1,4.5933895E0,1.3912656E1,1.087933E1,8.461498E0,4.7529845E0,2.7180967E0,5.9052515E0,3.1855814E0,5.2258387E0,6.419606E2,5.1161003E1,4.158926E0,2.5098736E1,6.5606606E1,1.9587711E1,7.829831E0,1.1180512E1,8.715555E2,2.0687837E2,3.387496E1,5.0740744E2,6.431422E1,6.7991357E0,2.5833E0,3.6048114E0,2.7311628E0,3.55863E0,1.9447509E0,1.1240765E0,1.1794494E1,5.779369E0,2.2410007E0,1.5635421E0,5.9676623E0,8.385457E0,1.7828276E1,6.201949E0,2.3267832E0,2.2666063E0,4.681951E0,9.230704E0,6.248215E0,4.6311145E0,6.585587E0,1.8759114E0,3.325371E0,1.4276135E0,4.2548203E0,1.6504313E0,1.7710117E0,1.4145697E0,2.3726964E0,2.8531425E0],"tree_param":{"num_deleted":"0","num_feature":"14","num_nodes":"95","size_leaf_vector":"1"}},{"base_weights":[-1.600651E-2,2.6974749E-2,-2.855436E-2,1.6247676E-1,-1.5283604E-3,-3.9921988E-2,5.3551663E-2,3.992051E-2,3.701924E-1,1.4708447E-2,-2.9261908E-1,-5.026666E-2,6.511872E-2,-2.6335874E-1,1.1701055E-1,3.8580352E-1,-1.6881719E-1,4.3578056E-1,-3.930178E-2,-5.3045595E-1,2.1880563E-2,2.3447034E-1,-3.730089E-1,-4.3245684E-2,-4.4286692E-1,3.3828795E-1,-2.0483619E-2,-1.7124015E-1,-6.592457E-1,9.063827E-2,4.821742E-1,-6.582145E-1,5.255886E-1,-7.7992237E-1,-2.074303E-2,1.4959311E-1,6.0819334E-1,-4.672106E-1,4.868679E-1,-1.0084765E0,4.492451E-2,-1.554514E-1,3.9938215E-2,-4.4283992E-1,1.2558857E-1,-5.233753E-2,1.4790288E-1,-1.9778602E-1,-8.297635E-1,5.476805E-1,-7.5076126E-2,-3.1100824E-1,6.258064E-2,6.795169E-2,-3.6859506E-1,-2.700005E-1,-1.3622613E-1,7.910845E-2,2.3598517E-1,3.200018E-1,2.555489E-1,-3.4668356E-1,4.056847E-2,2.1975327E-1,-1.3823811E-3,-2.9279932E-1,3.4437526E-2,-1.9735324E-1,2.5834475E-2,-1.0624598E-1,1.5418257E-1,2.602945E-1,4.9520608E-2,-2.1958272E-1,2.1539748E-2,2.0290102E-1,2.3089422E-2,-1.01602286E-1,-3.6914414E-1,-3.0705037E-2,5.4504905E-2,6.1094873E-3,-1.0400639E-1,1.5530492E-2,-6.575787E-2,-1.4946572E-1,8.497661E-2,-3.8143888E-2,-7.7825086E-3,1.1055683E-1,-9.8463304E-2,5.5318985E-2,-1.7566599E-1,3.7222737E-3,-2.931461E-1,2.037678E-1,-3.172422E-2,-1.7523703E-1,2.2362477E-1,5.790504E-2,-1.7360114E-1,-6.1343633E-2,5.788601E-2,1.7209896E-1,-8.613603E-2,-1.4279896E-1,2.0783646E-1,-1.9519952E-1,1.4396377E-1,4.44416E-2,-2.2102006E-2,2.1810666E-1,5.157886E-2],"categories":[],"categories_nodes":[],"categories_segments":[],"categories_sizes":[],"default_left":[0,0,0,0,0,0,0,0,0,0,0,0,0,0,0,0,0,0,0,0,0,0,0,0,0,0,0,0,0,0,0,0,0,0,0,0,0,0,0,0,0,0,0,0,0,0,0,0,0,0,0,0,0,0,0,0,0,0,0,0,0,0,0,0,0,0,0,0,0,0,0,0,0,0,0,0,0,0,0,0,0,0,0,0,0,0,0,0,0,0,0,0,0,0,0,0,0,0,0,0,0,0,0,0,0,0,0,0,0,0,0,0,0],"id":13,"left_children":[1,3,5,7,9,11,13,15,17,19,21,23,25,27,29,31,33,35,37,39,41,-1,43,45,47,49,51,53,55,57,59,61,63,65,67,69,71,73,75,77,79,81,83,85,-1,87,89,91,93,95,97,99,101,103,105,-1,107,109,-1,111,-1,-1,-1,-1,-1,-1,-1,-1,-1,-1,-1,-1,-1,-1,-1,-1,-1,-1,-1,-1,-1,-1,-1,-1,-1,-1,-1,-1,-1,-1,-1,-1,-1,-1,-1,-1,-1,-1,-1,-1,-1,-1,-1,-1,-1,-1,-1,-1,-1,-1,-1,-1,-1],"loss_changes":[1.4321666E0,2.3185518E0,1.9200002E0,2.6411152E0,2.3529432E0,1.9651451E0,5.0649376E0,4.883386E0,1.0536637E0,1.8556315E0,2.562747E0,4.512957E0,3.8022373E0,1.4213309E0,1.9714141E0,4.0558715E0,3.8128352E0,1.5544863E0,1.6336207E0,1.7405694E0,1.4998934E0,0E0,1.5755308E0,2.816893E0,2.5647087E0,3.3979597E0,3.024443E0,1.6998699E0,8.331802E-1,1.5136844E0,5.584545E-1,1.5161597E0,2.5239992E0,1.5551271E0,2.4454696E0,2.7265139E0,2.2118936E0,6.1684185E-1,2.0351863E-1,9.022522E-2,9.42114E-2,1.4633741E0,1.3115747E0,1.08987E0,0E0,3.0450673E0,7.8575845E0,2.913551E0,1.3585892E0,2.294901E0,6.249167E0,3.869405E0,3.4399774E0,3.1964452E0,2.5635245E0,0E0,1.444061E0,2.060095E0,0E0,5.5225265E-1,0E0,0E0,0E0,0E0,0E0,0E0,0E0,0E0,0E0,0E0,0E0,0E0,0E0,0E0,0E0,0E0,0E0,0E0,0E0,0E0,0E0,0E0,0E0,0E0,0E0,0E0,0E0,0E0,0E0,0E0,0E0,0E0,0E0,0E0,0E0,0E0,0E0,0E0,0E0,0E0,0E0,0E0,0E0,0E0,0E0,0E0,0E0,0E0,0E0,0E0,0E0,0E0,0E0],"parents":[2147483647,0,0,1,1,2,2,3,3,4,4,5,5,6,6,7,7,8,8,9,9,10,10,11,11,12,12,13,13,14,14,15,15,16,16,17,17,18,18,19,19,20,20,22,22,23,23,24,24,25,25,26,26,27,27,28,28,29,29,30,30,31,31,32,32,33,33,34,34,35,35,36,36,37,37,38,38,39,39,40,40,41,41,42,42,43,43,45,45,46,46,47,47,48,48,49,49,50,50,51,51,52,52,53,53,54,54,56,56,57,57,59,59],"right_children":[2,4,6,8,10,12,14,16,18,20,22,24,26,28,30,32,34,36,38,40,42,-1,44,46,48,50,52,54,56,58,60,62,64,66,68,70,72,74,76,78,80,82,84,86,-1,88,90,92,94,96,98,100,102,104,106,-1,108,110,-1,112,-1,-1,-1,-1,-1,-1,-1,-1,-1,-1,-1,-1,-1,-1,-1,-1,-1,-1,-1,-1,-1,-1,-1,-1,-1,-1,-1,-1,-1,-1,-1,-1,-1,-1,-1,-1,-1,-1,-1,-1,-1,-1,-1,-1,-1,-1,-1,-1,-1,-1,-1,-1,-1],"split_conditions":[4.5891263E2,7.047363E1,8.508436E2,2.2094305E2,8.306849E2,1.6E1,4.9633884E2,5E0,1.4E1,4.4493805E1,6.201023E2,1.4E1,1.7363828E2,9.2328656E2,7.4225946E2,5.7263687E1,5E0,6E0,5.7017147E1,5E0,8.8997536E1,2.3447034E-1,1.6E1,1.4E1,1E0,1.6E1,4.9529474E2,6E0,1.7781847E2,8.1960156E2,9E0,1E0,2E0,2E0,2.3435236E1,3.997214E2,3.997214E2,1.2E1,1.4E1,9.47272E1,1.1E1,8.070363E1,1.8E1,8.750983E2,1.2558857E-1,5.175416E2,6.6194574E2,2E0,4.815611E2,7.011388E2,6.243589E2,2.6101962E2,3.838996E2,5.998632E2,1.7E1,-2.700005E-1,7.630607E2,6.2660767E2,2.3598517E-1,7.4515076E2,2.555489E-1,-3.4668356E-1,4.056847E-2,2.1975327E-1,-1.3823811E-3,-2.9279932E-1,3.4437526E-2,-1.9735324E-1,2.5834475E-2,-1.0624598E-1,1.5418257E-1,2.602945E-1,4.9520608E-2,-2.1958272E-1,2.1539748E-2,2.0290102E-1,2.3089422E-2,-1.01602286E-1,-3.6914414E-1,-3.0705037E-2,5.4504905E-2,6.1094873E-3,-1.0400639E-1,1.5530492E-2,-6.575787E-2,-1.4946572E-1,8.497661E-2,-3.8143888E-2,-7.7825086E-3,1.1055683E-1,-9.8463304E-2,5.5318985E-2,-1.7566599E-1,3.7222737E-3,-2.931461E-1,2.037678E-1,-3.172422E-2,-1.7523703E-1,2.2362477E-1,5.790504E-2,-1.7360114E-1,-6.1343633E-2,5.788601E-2,1.7209896E-1,-8.613603E-2,-1.4279896E-1,2.0783646E-1,-1.9519952E-1,1.4396377E-1,4.44416E-2,-2.2102006E-2,2.1810666E-1,5.157886E-2],"split_indices":[1,4,0,0,0,5,3,5,6,2,2,5,2,0,1,0,6,5,4,6,4,0,5,6,10,6,3,6,4,3,5,10,13,13,4,3,3,5,5,4,6,4,5,2,0,1,1,13,1,1,1,2,2,1,5,0,2,3,0,1,0,0,0,0,0,0,0,0,0,0,0,0,0,0,0,0,0,0,0,0,0,0,0,0,0,0,0,0,0,0,0,0,0,0,0,0,0,0,0,0,0,0,0,0,0,0,0,0,0,0,0,0,0],"split_type":[0,0,0,0,0,0,0,0,0,0,0,0,0,0,0,0,0,0,0,0,0,0,0,0,0,0,0,0,0,0,0,0,0,0,0,0,0,0,0,0,0,0,0,0,0,0,0,0,0,0,0,0,0,0,0,0,0,0,0,0,0,0,0,0,0,0,0,0,0,0,0,0,0,0,0,0,0,0,0,0,0,0,0,0,0,0,0,0,0,0,0,0,0,0,0,0,0,0,0,0,0,0,0,0,0,0,0,0,0,0,0,0,0],"sum_hessian":[2.6530645E3,5.992502E2,2.0538145E3,1.0332921E2,4.9592096E2,1.8044948E3,2.4931956E2,6.573592E1,3.759328E1,4.7061966E2,2.5301315E1,1.6431907E3,1.6130412E2,4.1069675E1,2.082499E2,2.4421194E1,4.131473E1,3.234796E1,5.245322E0,5.1636186E0,4.6545602E2,1.1543541E0,2.4146961E1,1.615412E3,2.7778704E1,3.7782604E1,1.2352152E2,3.447927E1,6.5904026E0,1.9538716E2,1.2862732E1,2.4457524E0,2.1975443E1,7.2259555E0,3.4088776E1,1.2863509E1,1.948445E1,2.954567E0,2.2907555E0,2.4092908E0,2.7543278E0,4.2313656E1,4.2314236E2,2.2594484E1,1.5524766E0,1.5427579E3,7.265401E1,1.7931284E1,9.84742E0,2.4863092E1,1.2919513E1,2.6853796E1,9.6667725E1,1.5883882E1,1.859539E1,4.0194116E0,2.5709908E0,1.9329857E2,2.088586E0,1.0237215E1,2.6255164E0,1.2227659E0,1.2229866E0,1.5532082E1,6.4433613E0,5.8525324E0,1.373423E0,4.1556997E0,2.9933075E1,5.4106965E0,7.452813E0,1.1684822E1,7.799628E0,1.7413656E0,1.2132013E0,1.1220987E0,1.1686568E0,1.2284625E0,1.1808285E0,1.4473175E0,1.3070102E0,2.2511168E1,1.980249E1,4.0543338E2,1.7708994E1,2.1284925E1,1.3095596E0,4.0138135E2,1.1413766E3,4.980263E1,2.285138E1,9.2948065E0,8.6364765E0,1.6031302E0,8.244289E0,2.0663681E1,4.199411E0,8.150737E0,4.768776E0,9.411055E0,1.7442741E1,3.1524195E1,6.514353E1,6.2981315E0,9.58575E0,1.7387482E1,1.2079089E0,1.370527E0,1.2004638E0,1.3316298E2,6.0135597E1,1.6878226E0,8.549393E0],"tree_param":{"num_deleted":"0","num_feature":"14","num_nodes":"113","size_leaf_vector":"1"}},{"base_weights":[4.5598536E-3,1.136046E-2,-1.2554523E-1,1.3053724E-1,5.1467977E-3,-1.6277757E-1,2.284232E-1,2.0587082E-1,-6.728446E-2,-1.2667089E-2,5.271577E-2,-3.783475E-1,-1.500318E-2,9.320812E-1,-3.6057276E-1,-1.813979E-2,3.5452986E-1,2.2287378E-1,-3.194727E-1,-2.4288978E-2,8.063473E-2,2.3606434E-2,2.225675E-1,-5.9426856E-1,-2.129978E-1,-3.514254E-1,5.1657833E-2,-4.0751755E-2,1.2052536E0,-3.0160904E-1,-3.328574E-2,-2.3362014E-1,5.237115E-1,-5.0741732E-2,4.7566435E-1,3.8073698E-1,-3.850456E-2,-7.822849E-1,1.7604085E-2,-1.4227828E-2,-2.60599E-1,-8.195047E-2,4.8901987E-1,-2.2601653E-3,1.6413355E-1,4.2178184E-1,8.2034595E-2,-6.7011565E-1,7.132516E-2,1.0891549E-1,-3.8435376E-1,-3.4742076E-2,-6.469685E-1,5.8728886E-1,-1.500043E-2,4.5280322E-1,7.016196E-2,2.6058367E-1,-4.9267554E-1,1.4799166E-1,-1.5713488E-1,5.8495596E-2,2.6027656E-1,-1.7135426E-1,1.1433116E-1,2.270131E-1,5.3605256E-3,-8.382156E-2,2.717986E-1,-1.2257712E-1,-3.2075712E-1,-1.479139E-1,1.5385273E-1,-2.5079336E-3,-8.51649E-2,4.1712455E-2,-2.4199885E-1,-9.869947E-2,3.0082267E-2,2.4996161E-1,4.4951476E-2,1.5866935E-2,-3.0041795E-2,-9.137614E-2,6.1603878E-2,1.9549502E-1,-2.8790986E-2,-7.920388E-2,1.4784358E-1,-1.3031992E-1,-2.661602E-1,2.0090999E-1,-1.5447205E-1,4.0801838E-2,-1.9482356E-1,-1.0932815E-1,1.595982E-1,-3.803754E-2,-3.272523E-1,-9.434681E-3,2.8262272E-1,-4.1245066E-2,8.577957E-2,1.7104954E-2,-3.0754393E-1],"categories":[],"categories_nodes":[],"categories_segments":[],"categories_sizes":[],"default_left":[0,0,0,0,0,0,0,0,0,0,0,0,0,0,0,0,0,0,0,0,0,0,0,0,0,0,0,0,0,0,0,0,0,0,0,0,0,0,0,0,0,0,0,0,0,0,0,0,0,0,0,0,0,0,0,0,0,0,0,0,0,0,0,0,0,0,0,0,0,0,0,0,0,0,0,0,0,0,0,0,0,0,0,0,0,0,0,0,0,0,0,0,0,0,0,0,0,0,0,0,0,0,0,0,0],"id":14,"left_children":[1,3,5,7,9,11,13,15,17,19,21,23,25,27,29,31,33,35,37,39,41,43,45,47,49,51,53,-1,55,-1,57,59,61,63,65,-1,67,69,71,73,75,77,79,81,83,85,87,89,-1,91,93,95,97,99,101,-1,-1,-1,103,-1,-1,-1,-1,-1,-1,-1,-1,-1,-1,-1,-1,-1,-1,-1,-1,-1,-1,-1,-1,-1,-1,-1,-1,-1,-1,-1,-1,-1,-1,-1,-1,-1,-1,-1,-1,-1,-1,-1,-1,-1,-1,-1,-1,-1,-1],"loss_changes":[2.3403876E0,1.8603513E0,1.7688575E0,1.8691552E0,2.0256038E0,3.8002603E0,5.6914754E0,3.0170903E0,2.6387658E0,1.8880247E0,3.2147403E0,1.6067629E0,1.6311527E0,1.9626985E0,1.6030791E0,4.4441476E0,2.694368E0,4.6717978E0,3.0064335E0,3.6754806E0,1.2847613E1,2.0253808E0,2.6296463E0,1.4527678E0,1.6444906E0,1.1027879E0,2.1832585E0,0E0,1.1274409E0,0E0,2.9877143E0,5.9902644E0,1.0562212E0,3.2338338E0,5.3866568E0,0E0,3.5515091E0,4.3221855E-1,3.3071487E0,2.3479438E0,1.3890468E1,6.2825146E0,6.3041096E0,2.5503426E0,1.735729E0,4.7186813E0,8.238581E0,5.891857E-1,0E0,4.148167E0,2.7339153E0,1.4757407E0,1.2845101E0,1.5147223E0,2.071595E0,0E0,0E0,0E0,1.4432913E0,0E0,0E0,0E0,0E0,0E0,0E0,0E0,0E0,0E0,0E0,0E0,0E0,0E0,0E0,0E0,0E0,0E0,0E0,0E0,0E0,0E0,0E0,0E0,0E0,0E0,0E0,0E0,0E0,0E0,0E0,0E0,0E0,0E0,0E0,0E0,0E0,0E0,0E0,0E0,0E0,0E0,0E0,0E0,0E0,0E0,0E0],"parents":[2147483647,0,0,1,1,2,2,3,3,4,4,5,5,6,6,7,7,8,8,9,9,10,10,11,11,12,12,13,13,14,14,15,15,16,16,17,17,18,18,19,19,20,20,21,21,22,22,23,23,24,24,25,25,26,26,28,28,30,30,31,31,32,32,33,33,34,34,36,36,37,37,38,38,39,39,40,40,41,41,42,42,43,43,44,44,45,45,46,46,47,47,49,49,50,50,51,51,52,52,53,53,54,54,58,58],"right_children":[2,4,6,8,10,12,14,16,18,20,22,24,26,28,30,32,34,36,38,40,42,44,46,48,50,52,54,-1,56,-1,58,60,62,64,66,-1,68,70,72,74,76,78,80,82,84,86,88,90,-1,92,94,96,98,100,102,-1,-1,-1,104,-1,-1,-1,-1,-1,-1,-1,-1,-1,-1,-1,-1,-1,-1,-1,-1,-1,-1,-1,-1,-1,-1,-1,-1,-1,-1,-1,-1,-1,-1,-1,-1,-1,-1,-1,-1,-1,-1,-1,-1,-1,-1,-1,-1,-1,-1],"split_conditions":[8.1960156E2,4E0,1.6E1,2E0,8E0,1.2229399E2,1.3599997E2,6E0,5E0,1.2E1,8.3028326E2,8.185575E2,7.116599E2,4.2566275E2,8.432941E2,2.6218787E2,1.2094194E2,1.374971E2,2.7523514E2,8E0,2E0,1E0,1.2E1,7.542262E2,5E0,5E0,3.4189554E2,-4.0751755E-2,6.6507794E2,-3.0160904E-1,2.4535843E2,1.0130859E2,5.1649756E2,2E0,2.789538E2,3.8073698E-1,7.25233E2,1.9750417E2,1.2E1,3.177094E2,6.3182806E2,1E0,5.345682E2,1.5896423E2,2.1499985E2,6.078143E2,5.9247437E2,2E0,7.132516E-2,5.882177E2,7.047363E1,5E0,1.3380267E2,2.7523514E2,1E1,4.5280322E-1,7.016196E-2,2.6058367E-1,1.8827638E2,1.4799166E-1,-1.5713488E-1,5.8495596E-2,2.6027656E-1,-1.7135426E-1,1.1433116E-1,2.270131E-1,5.3605256E-3,-8.382156E-2,2.717986E-1,-1.2257712E-1,-3.2075712E-1,-1.479139E-1,1.5385273E-1,-2.5079336E-3,-8.51649E-2,4.1712455E-2,-2.4199885E-1,-9.869947E-2,3.0082267E-2,2.4996161E-1,4.4951476E-2,1.5866935E-2,-3.0041795E-2,-9.137614E-2,6.1603878E-2,1.9549502E-1,-2.8790986E-2,-7.920388E-2,1.4784358E-1,-1.3031992E-1,-2.661602E-1,2.0090999E-1,-1.5447205E-1,4.0801838E-2,-1.9482356E-1,-1.0932815E-1,1.595982E-1,-3.803754E-2,-3.272523E-1,-9.434681E-3,2.8262272E-1,-4.1245066E-2,8.577957E-2,1.7104954E-2,-3.0754393E-1],"split_indices":[3,6,5,13,6,4,4,5,5,5,2,1,1,2,3,4,4,2,2,5,13,7,5,2,5,6,2,0,2,0,0,4,3,12,4,0,3,4,5,4,0,10,1,4,3,1,1,12,0,0,4,5,0,2,5,0,0,0,4,0,0,0,0,0,0,0,0,0,0,0,0,0,0,0,0,0,0,0,0,0,0,0,0,0,0,0,0,0,0,0,0,0,0,0,0,0,0,0,0,0,0,0,0,0,0],"split_type":[0,0,0,0,0,0,0,0,0,0,0,0,0,0,0,0,0,0,0,0,0,0,0,0,0,0,0,0,0,0,0,0,0,0,0,0,0,0,0,0,0,0,0,0,0,0,0,0,0,0,0,0,0,0,0,0,0,0,0,0,0,0,0,0,0,0,0,0,0,0,0,0,0,0,0,0,0,0,0,0,0,0,0,0,0,0,0,0,0,0,0,0,0,0,0,0,0,0,0,0,0,0,0,0,0],"sum_hessian":[2.642511E3,2.5121152E3,1.3039584E2,1.2349515E2,2.38862E3,1.1847421E2,1.1921631E1,8.940692E1,3.408823E1,1.7383624E3,6.502576E2,4.7549614E1,7.09246E1,5.1666627E0,6.7549677E0,3.601491E1,5.3392006E1,1.5904899E1,1.8183332E1,1.5464702E3,1.9189221E2,5.5609296E2,9.4164696E1,1.9496367E1,2.8053247E1,1.1022888E1,5.9901714E1,1.1548213E0,4.0118413E0,1.5767637E0,5.178204E0,2.617474E1,9.840174E0,1.2420081E1,4.0971924E1,2.4085226E0,1.3496376E1,7.10595E0,1.1077383E1,1.4843333E3,6.2136864E1,1.3782216E2,5.4070057E1,4.7047693E2,8.561602E1,3.812243E1,5.604227E1,1.804589E1,1.4504763E0,9.871955E0,1.8181292E1,5.860615E0,5.162273E0,5.765192E0,5.413652E1,2.6335845E0,1.3782567E0,1.4468594E0,3.7313447E0,7.267601E0,1.8907139E1,5.832074E0,4.0080996E0,5.485987E0,6.934094E0,2.498216E1,1.5989765E1,1.1314674E1,2.1817017E0,4.1390123E0,2.9669373E0,5.456008E0,5.6213756E0,1.4537292E3,3.0604053E1,3.6309143E1,2.5827719E1,5.816312E1,7.965904E1,2.6114143E1,2.7955915E1,3.0121637E2,1.6926054E2,6.402981E0,7.9213036E1,2.6221954E1,1.1900475E1,3.0611652E1,2.5430618E1,1.0090475E1,7.955415E0,5.159913E0,4.7120414E0,6.300022E0,1.188127E1,3.9308877E0,1.9297273E0,2.968785E0,2.1934876E0,2.433171E0,3.3320212E0,3.8862255E1,1.5274268E1,2.2753382E0,1.4560066E0],"tree_param":{"num_deleted":"0","num_feature":"14","num_nodes":"105","size_leaf_vector":"1"}}]},"name":"gbtree"},"learner_model_param":{"base_score":"5.023189E-1","boost_from_average":"1","num_class":"0","num_feature":"14","num_target":"1"},"objective":{"name":"binary:logistic","reg_loss_param":{"scale_pos_weight":"1"}}},"version":[3,0,0]}